digraph Tree {
node [shape=box, fontname="helvetica"] ;
edge [fontname="helvetica"] ;
0 [label="age_group <= 2.5\ngini = 0.365\nsamples = 26558\nvalue = [20190, 6368]"] ;
1 [label="hosp_tf <= 0.5\ngini = 0.083\nsamples = 18411\nvalue = [17617, 794]"] ;
0 -> 1 [labeldistance=2.5, labelangle=45, headlabel="True"] ;
2 [label="age_group <= 1.5\ngini = 0.023\nsamples = 16372\nvalue = [16180, 192]"] ;
1 -> 2 ;
3 [label="ethnicity_Hispanic/Latino <= 0.5\ngini = 0.006\nsamples = 12767\nvalue = [12730, 37]"] ;
2 -> 3 ;
4 [label="gini = 0.002\nsamples = 11263\nvalue = [11249, 14]"] ;
3 -> 4 ;
5 [label="gini = 0.03\nsamples = 1504\nvalue = [1481, 23]"] ;
3 -> 5 ;
6 [label="ethnicity_Hispanic/Latino <= 0.5\ngini = 0.082\nsamples = 3605\nvalue = [3450, 155]"] ;
2 -> 6 ;
7 [label="gini = 0.069\nsamples = 3288\nvalue = [3171, 117]"] ;
6 -> 7 ;
8 [label="gini = 0.211\nsamples = 317\nvalue = [279, 38]"] ;
6 -> 8 ;
9 [label="age_group <= 1.5\ngini = 0.416\nsamples = 2039\nvalue = [1437, 602]"] ;
1 -> 9 ;
10 [label="ethnicity_Hispanic/Latino <= 0.5\ngini = 0.157\nsamples = 1106\nvalue = [1011, 95]"] ;
9 -> 10 ;
11 [label="gini = 0.058\nsamples = 966\nvalue = [937, 29]"] ;
10 -> 11 ;
12 [label="gini = 0.498\nsamples = 140\nvalue = [74, 66]"] ;
10 -> 12 ;
13 [label="ethnicity_Hispanic/Latino <= 0.5\ngini = 0.496\nsamples = 933\nvalue = [426, 507]"] ;
9 -> 13 ;
14 [label="gini = 0.494\nsamples = 717\nvalue = [398, 319]"] ;
13 -> 14 ;
15 [label="gini = 0.226\nsamples = 216\nvalue = [28, 188]"] ;
13 -> 15 ;
16 [label="hosp_tf <= 0.5\ngini = 0.432\nsamples = 8147\nvalue = [2573, 5574]"] ;
0 -> 16 [labeldistance=2.5, labelangle=-45, headlabel="False"] ;
17 [label="people_vaccinated <= 43051805.0\ngini = 0.49\nsamples = 3241\nvalue = [1855, 1386]"] ;
16 -> 17 ;
18 [label="symptomatic_tf <= 0.5\ngini = 0.474\nsamples = 1535\nvalue = [594, 941]"] ;
17 -> 18 ;
19 [label="gini = 0.0\nsamples = 35\nvalue = [35, 0]"] ;
18 -> 19 ;
20 [label="gini = 0.468\nsamples = 1500\nvalue = [559, 941]"] ;
18 -> 20 ;
21 [label="people_vaccinated <= 255074368.0\ngini = 0.386\nsamples = 1706\nvalue = [1261, 445]"] ;
17 -> 21 ;
22 [label="gini = 0.447\nsamples = 1187\nvalue = [786, 401]"] ;
21 -> 22 ;
23 [label="gini = 0.155\nsamples = 519\nvalue = [475, 44]"] ;
21 -> 23 ;
24 [label="people_vaccinated <= 255074368.0\ngini = 0.25\nsamples = 4906\nvalue = [718, 4188]"] ;
16 -> 24 ;
25 [label="people_vaccinated <= 43051805.0\ngini = 0.207\nsamples = 4577\nvalue = [537, 4040]"] ;
24 -> 25 ;
26 [label="gini = 0.155\nsamples = 2885\nvalue = [245, 2640]"] ;
25 -> 26 ;
27 [label="gini = 0.286\nsamples = 1692\nvalue = [292, 1400]"] ;
25 -> 27 ;
28 [label="ethnicity_Hispanic/Latino <= 0.5\ngini = 0.495\nsamples = 329\nvalue = [181, 148]"] ;
24 -> 28 ;
29 [label="gini = 0.483\nsamples = 301\nvalue = [178, 123]"] ;
28 -> 29 ;
30 [label="gini = 0.191\nsamples = 28\nvalue = [3, 25]"] ;
28 -> 30 ;
}