digraph Tree {
node [shape=box, fontname="helvetica"] ;
edge [fontname="helvetica"] ;
0 [label="age_group <= 0.833\ngini = 0.365\nsamples = 26558\nvalue = [20190, 6368]"] ;
1 [label="hosp_tf <= 0.5\ngini = 0.083\nsamples = 18444\nvalue = [17642, 802]"] ;
0 -> 1 [labeldistance=2.5, labelangle=45, headlabel="True"] ;
2 [label="age_group <= 0.5\ngini = 0.023\nsamples = 16190\nvalue = [15999, 191]"] ;
1 -> 2 ;
3 [label="state_fips_code <= 0.078\ngini = 0.006\nsamples = 12660\nvalue = [12622, 38]"] ;
2 -> 3 ;
4 [label="state_fips_code <= 0.058\ngini = 0.053\nsamples = 438\nvalue = [426, 12]"] ;
3 -> 4 ;
5 [label="case_positive_specimen_interval <= 0.005\ngini = 0.018\nsamples = 430\nvalue = [426, 4]"] ;
4 -> 5 ;
6 [label="gini = 0.0\nsamples = 356\nvalue = [356, 0]"] ;
5 -> 6 ;
7 [label="income <= 0.342\ngini = 0.102\nsamples = 74\nvalue = [70, 4]"] ;
5 -> 7 ;
8 [label="income <= 0.308\ngini = 0.079\nsamples = 73\nvalue = [70, 3]"] ;
7 -> 8 ;
9 [label="gini = 0.0\nsamples = 58\nvalue = [58, 0]"] ;
8 -> 9 ;
10 [label="sex_Female <= 0.5\ngini = 0.32\nsamples = 15\nvalue = [12, 3]"] ;
8 -> 10 ;
11 [label="ethnicity_Hispanic/Latino <= 0.5\ngini = 0.397\nsamples = 11\nvalue = [8, 3]"] ;
10 -> 11 ;
12 [label="gini = 0.48\nsamples = 5\nvalue = [3, 2]"] ;
11 -> 12 ;
13 [label="gini = 0.278\nsamples = 6\nvalue = [5, 1]"] ;
11 -> 13 ;
14 [label="gini = 0.0\nsamples = 4\nvalue = [4, 0]"] ;
10 -> 14 ;
15 [label="gini = 0.0\nsamples = 1\nvalue = [0, 1]"] ;
7 -> 15 ;
16 [label="gini = 0.0\nsamples = 8\nvalue = [0, 8]"] ;
4 -> 16 ;
17 [label="state_fips_code <= 0.818\ngini = 0.004\nsamples = 12222\nvalue = [12196, 26]"] ;
3 -> 17 ;
18 [label="case_month <= 0.044\ngini = 0.004\nsamples = 12217\nvalue = [12192, 25]"] ;
17 -> 18 ;
19 [label="race_Asian <= 0.5\ngini = 0.081\nsamples = 71\nvalue = [68, 3]"] ;
18 -> 19 ;
20 [label="income <= 0.296\ngini = 0.056\nsamples = 69\nvalue = [67, 2]"] ;
19 -> 20 ;
21 [label="income <= 0.292\ngini = 0.219\nsamples = 16\nvalue = [14, 2]"] ;
20 -> 21 ;
22 [label="state_fips_code <= 0.481\ngini = 0.124\nsamples = 15\nvalue = [14, 1]"] ;
21 -> 22 ;
23 [label="gini = 0.0\nsamples = 11\nvalue = [11, 0]"] ;
22 -> 23 ;
24 [label="gini = 0.375\nsamples = 4\nvalue = [3, 1]"] ;
22 -> 24 ;
25 [label="gini = 0.0\nsamples = 1\nvalue = [0, 1]"] ;
21 -> 25 ;
26 [label="gini = 0.0\nsamples = 53\nvalue = [53, 0]"] ;
20 -> 26 ;
27 [label="case_positive_specimen_interval <= 0.005\ngini = 0.5\nsamples = 2\nvalue = [1, 1]"] ;
19 -> 27 ;
28 [label="gini = 0.0\nsamples = 1\nvalue = [1, 0]"] ;
27 -> 28 ;
29 [label="gini = 0.0\nsamples = 1\nvalue = [0, 1]"] ;
27 -> 29 ;
30 [label="ethnicity_Hispanic/Latino <= 0.5\ngini = 0.004\nsamples = 12146\nvalue = [12124, 22]"] ;
18 -> 30 ;
31 [label="state_fips_code <= 0.214\ngini = 0.002\nsamples = 10830\nvalue = [10817, 13]"] ;
30 -> 31 ;
32 [label="state_fips_code <= 0.201\ngini = 0.011\nsamples = 928\nvalue = [923, 5]"] ;
31 -> 32 ;
33 [label="risk_factor_tf <= 0.5\ngini = 0.009\nsamples = 927\nvalue = [923, 4]"] ;
32 -> 33 ;
34 [label="gini = 0.0\nsamples = 342\nvalue = [342, 0]"] ;
33 -> 34 ;
35 [label="gini = 0.014\nsamples = 585\nvalue = [581, 4]"] ;
33 -> 35 ;
36 [label="gini = 0.0\nsamples = 1\nvalue = [0, 1]"] ;
32 -> 36 ;
37 [label="risk_factor_tf <= 0.5\ngini = 0.002\nsamples = 9902\nvalue = [9894, 8]"] ;
31 -> 37 ;
38 [label="gini = 0.0\nsamples = 3646\nvalue = [3646, 0]"] ;
37 -> 38 ;
39 [label="sex_Female <= 0.5\ngini = 0.003\nsamples = 6256\nvalue = [6248, 8]"] ;
37 -> 39 ;
40 [label="gini = 0.001\nsamples = 4561\nvalue = [4558, 3]"] ;
39 -> 40 ;
41 [label="gini = 0.006\nsamples = 1695\nvalue = [1690, 5]"] ;
39 -> 41 ;
42 [label="income <= 0.088\ngini = 0.014\nsamples = 1316\nvalue = [1307, 9]"] ;
30 -> 42 ;
43 [label="case_positive_specimen_interval <= 0.005\ngini = 0.444\nsamples = 3\nvalue = [2, 1]"] ;
42 -> 43 ;
44 [label="gini = 0.0\nsamples = 1\nvalue = [0, 1]"] ;
43 -> 44 ;
45 [label="gini = 0.0\nsamples = 2\nvalue = [2, 0]"] ;
43 -> 45 ;
46 [label="state_fips_code <= 0.604\ngini = 0.012\nsamples = 1313\nvalue = [1305, 8]"] ;
42 -> 46 ;
47 [label="income <= 0.534\ngini = 0.002\nsamples = 982\nvalue = [981, 1]"] ;
46 -> 47 ;
48 [label="gini = 0.0\nsamples = 858\nvalue = [858, 0]"] ;
47 -> 48 ;
49 [label="gini = 0.016\nsamples = 124\nvalue = [123, 1]"] ;
47 -> 49 ;
50 [label="case_month <= 0.206\ngini = 0.041\nsamples = 331\nvalue = [324, 7]"] ;
46 -> 50 ;
51 [label="gini = 0.103\nsamples = 55\nvalue = [52, 3]"] ;
50 -> 51 ;
52 [label="gini = 0.029\nsamples = 276\nvalue = [272, 4]"] ;
50 -> 52 ;
53 [label="ethnicity_Hispanic/Latino <= 0.5\ngini = 0.32\nsamples = 5\nvalue = [4, 1]"] ;
17 -> 53 ;
54 [label="gini = 0.0\nsamples = 4\nvalue = [4, 0]"] ;
53 -> 54 ;
55 [label="gini = 0.0\nsamples = 1\nvalue = [0, 1]"] ;
53 -> 55 ;
56 [label="state_fips_code <= 0.078\ngini = 0.083\nsamples = 3530\nvalue = [3377, 153]"] ;
2 -> 56 ;
57 [label="state_fips_code <= 0.058\ngini = 0.406\nsamples = 159\nvalue = [114, 45]"] ;
56 -> 57 ;
58 [label="case_month <= 0.309\ngini = 0.236\nsamples = 132\nvalue = [114, 18]"] ;
57 -> 58 ;
59 [label="gini = 0.0\nsamples = 47\nvalue = [47, 0]"] ;
58 -> 59 ;
60 [label="income <= 0.236\ngini = 0.334\nsamples = 85\nvalue = [67, 18]"] ;
58 -> 60 ;
61 [label="ethnicity_Hispanic/Latino <= 0.5\ngini = 0.13\nsamples = 43\nvalue = [40, 3]"] ;
60 -> 61 ;
62 [label="state_fips_code <= 0.019\ngini = 0.095\nsamples = 40\nvalue = [38, 2]"] ;
61 -> 62 ;
63 [label="case_month <= 0.515\ngini = 0.32\nsamples = 5\nvalue = [4, 1]"] ;
62 -> 63 ;
64 [label="gini = 0.0\nsamples = 4\nvalue = [4, 0]"] ;
63 -> 64 ;
65 [label="gini = 0.0\nsamples = 1\nvalue = [0, 1]"] ;
63 -> 65 ;
66 [label="sex_Female <= 0.5\ngini = 0.056\nsamples = 35\nvalue = [34, 1]"] ;
62 -> 66 ;
67 [label="gini = 0.153\nsamples = 12\nvalue = [11, 1]"] ;
66 -> 67 ;
68 [label="gini = 0.0\nsamples = 23\nvalue = [23, 0]"] ;
66 -> 68 ;
69 [label="state_fips_code <= 0.045\ngini = 0.444\nsamples = 3\nvalue = [2, 1]"] ;
61 -> 69 ;
70 [label="gini = 0.0\nsamples = 2\nvalue = [2, 0]"] ;
69 -> 70 ;
71 [label="gini = 0.0\nsamples = 1\nvalue = [0, 1]"] ;
69 -> 71 ;
72 [label="case_positive_specimen_interval <= 0.005\ngini = 0.459\nsamples = 42\nvalue = [27, 15]"] ;
60 -> 72 ;
73 [label="ethnicity_Hispanic/Latino <= 0.5\ngini = 0.486\nsamples = 12\nvalue = [5, 7]"] ;
72 -> 73 ;
74 [label="risk_factor_tf <= 0.5\ngini = 0.42\nsamples = 10\nvalue = [3, 7]"] ;
73 -> 74 ;
75 [label="gini = 0.0\nsamples = 1\nvalue = [1, 0]"] ;
74 -> 75 ;
76 [label="gini = 0.346\nsamples = 9\nvalue = [2, 7]"] ;
74 -> 76 ;
77 [label="gini = 0.0\nsamples = 2\nvalue = [2, 0]"] ;
73 -> 77 ;
78 [label="income <= 0.302\ngini = 0.391\nsamples = 30\nvalue = [22, 8]"] ;
72 -> 78 ;
79 [label="gini = 0.0\nsamples = 5\nvalue = [5, 0]"] ;
78 -> 79 ;
80 [label="case_month <= 0.5\ngini = 0.435\nsamples = 25\nvalue = [17, 8]"] ;
78 -> 80 ;
81 [label="gini = 0.278\nsamples = 12\nvalue = [10, 2]"] ;
80 -> 81 ;
82 [label="gini = 0.497\nsamples = 13\nvalue = [7, 6]"] ;
80 -> 82 ;
83 [label="gini = 0.0\nsamples = 27\nvalue = [0, 27]"] ;
57 -> 83 ;
84 [label="case_month <= 0.074\ngini = 0.062\nsamples = 3371\nvalue = [3263, 108]"] ;
56 -> 84 ;
85 [label="income <= 0.182\ngini = 0.351\nsamples = 110\nvalue = [85, 25]"] ;
84 -> 85 ;
86 [label="income <= 0.105\ngini = 0.469\nsamples = 8\nvalue = [3, 5]"] ;
85 -> 86 ;
87 [label="gini = 0.0\nsamples = 2\nvalue = [2, 0]"] ;
86 -> 87 ;
88 [label="case_positive_specimen_interval <= 0.005\ngini = 0.278\nsamples = 6\nvalue = [1, 5]"] ;
86 -> 88 ;
89 [label="gini = 0.0\nsamples = 5\nvalue = [0, 5]"] ;
88 -> 89 ;
90 [label="gini = 0.0\nsamples = 1\nvalue = [1, 0]"] ;
88 -> 90 ;
91 [label="state_fips_code <= 0.214\ngini = 0.315\nsamples = 102\nvalue = [82, 20]"] ;
85 -> 91 ;
92 [label="state_fips_code <= 0.149\ngini = 0.5\nsamples = 8\nvalue = [4, 4]"] ;
91 -> 92 ;
93 [label="gini = 0.0\nsamples = 4\nvalue = [4, 0]"] ;
92 -> 93 ;
94 [label="gini = 0.0\nsamples = 4\nvalue = [0, 4]"] ;
92 -> 94 ;
95 [label="income <= 0.772\ngini = 0.282\nsamples = 94\nvalue = [78, 16]"] ;
91 -> 95 ;
96 [label="state_fips_code <= 0.37\ngini = 0.245\nsamples = 84\nvalue = [72, 12]"] ;
95 -> 96 ;
97 [label="gini = 0.0\nsamples = 16\nvalue = [16, 0]"] ;
96 -> 97 ;
98 [label="state_fips_code <= 0.461\ngini = 0.291\nsamples = 68\nvalue = [56, 12]"] ;
96 -> 98 ;
99 [label="gini = 0.346\nsamples = 54\nvalue = [42, 12]"] ;
98 -> 99 ;
100 [label="gini = 0.0\nsamples = 14\nvalue = [14, 0]"] ;
98 -> 100 ;
101 [label="risk_factor_tf <= 0.5\ngini = 0.48\nsamples = 10\nvalue = [6, 4]"] ;
95 -> 101 ;
102 [label="gini = 0.0\nsamples = 1\nvalue = [1, 0]"] ;
101 -> 102 ;
103 [label="case_month <= 0.044\ngini = 0.494\nsamples = 9\nvalue = [5, 4]"] ;
101 -> 103 ;
104 [label="gini = 0.5\nsamples = 4\nvalue = [2, 2]"] ;
103 -> 104 ;
105 [label="gini = 0.48\nsamples = 5\nvalue = [3, 2]"] ;
103 -> 105 ;
106 [label="state_fips_code <= 0.818\ngini = 0.05\nsamples = 3261\nvalue = [3178, 83]"] ;
84 -> 106 ;
107 [label="state_fips_code <= 0.214\ngini = 0.048\nsamples = 3259\nvalue = [3178, 81]"] ;
106 -> 107 ;
108 [label="state_fips_code <= 0.201\ngini = 0.167\nsamples = 294\nvalue = [267, 27]"] ;
107 -> 108 ;
109 [label="case_month <= 0.485\ngini = 0.124\nsamples = 286\nvalue = [267, 19]"] ;
108 -> 109 ;
110 [label="income <= 0.217\ngini = 0.052\nsamples = 188\nvalue = [183, 5]"] ;
109 -> 110 ;
111 [label="gini = 0.097\nsamples = 78\nvalue = [74, 4]"] ;
110 -> 111 ;
112 [label="gini = 0.018\nsamples = 110\nvalue = [109, 1]"] ;
110 -> 112 ;
113 [label="people_vaccinated <= 0.789\ngini = 0.245\nsamples = 98\nvalue = [84, 14]"] ;
109 -> 113 ;
114 [label="gini = 0.416\nsamples = 44\nvalue = [31, 13]"] ;
113 -> 114 ;
115 [label="gini = 0.036\nsamples = 54\nvalue = [53, 1]"] ;
113 -> 115 ;
116 [label="gini = 0.0\nsamples = 8\nvalue = [0, 8]"] ;
108 -> 116 ;
117 [label="state_fips_code <= 0.604\ngini = 0.036\nsamples = 2965\nvalue = [2911, 54]"] ;
107 -> 117 ;
118 [label="income <= 0.322\ngini = 0.025\nsamples = 2579\nvalue = [2546, 33]"] ;
117 -> 118 ;
119 [label="income <= 0.315\ngini = 0.04\nsamples = 1504\nvalue = [1473, 31]"] ;
118 -> 119 ;
120 [label="gini = 0.036\nsamples = 1468\nvalue = [1441, 27]"] ;
119 -> 120 ;
121 [label="gini = 0.198\nsamples = 36\nvalue = [32, 4]"] ;
119 -> 121 ;
122 [label="income <= 0.462\ngini = 0.004\nsamples = 1075\nvalue = [1073, 2]"] ;
118 -> 122 ;
123 [label="gini = 0.01\nsamples = 402\nvalue = [400, 2]"] ;
122 -> 123 ;
124 [label="gini = 0.0\nsamples = 673\nvalue = [673, 0]"] ;
122 -> 124 ;
125 [label="income <= 0.272\ngini = 0.103\nsamples = 386\nvalue = [365, 21]"] ;
117 -> 125 ;
126 [label="income <= 0.264\ngini = 0.202\nsamples = 140\nvalue = [124, 16]"] ;
125 -> 126 ;
127 [label="gini = 0.093\nsamples = 123\nvalue = [117, 6]"] ;
126 -> 127 ;
128 [label="gini = 0.484\nsamples = 17\nvalue = [7, 10]"] ;
126 -> 128 ;
129 [label="case_month <= 0.132\ngini = 0.04\nsamples = 246\nvalue = [241, 5]"] ;
125 -> 129 ;
130 [label="gini = 0.245\nsamples = 7\nvalue = [6, 1]"] ;
129 -> 130 ;
131 [label="gini = 0.033\nsamples = 239\nvalue = [235, 4]"] ;
129 -> 131 ;
132 [label="gini = 0.0\nsamples = 2\nvalue = [0, 2]"] ;
106 -> 132 ;
133 [label="age_group <= 0.5\ngini = 0.395\nsamples = 2254\nvalue = [1643, 611]"] ;
1 -> 133 ;
134 [label="state_fips_code <= 0.078\ngini = 0.173\nsamples = 1342\nvalue = [1214, 128]"] ;
133 -> 134 ;
135 [label="state_fips_code <= 0.058\ngini = 0.485\nsamples = 70\nvalue = [29, 41]"] ;
134 -> 135 ;
136 [label="case_positive_specimen_interval <= 0.019\ngini = 0.399\nsamples = 40\nvalue = [29, 11]"] ;
135 -> 136 ;
137 [label="people_vaccinated <= 0.966\ngini = 0.264\nsamples = 32\nvalue = [27, 5]"] ;
136 -> 137 ;
138 [label="state_fips_code <= 0.019\ngini = 0.225\nsamples = 31\nvalue = [27, 4]"] ;
137 -> 138 ;
139 [label="sex_Female <= 0.5\ngini = 0.5\nsamples = 4\nvalue = [2, 2]"] ;
138 -> 139 ;
140 [label="gini = 0.0\nsamples = 2\nvalue = [0, 2]"] ;
139 -> 140 ;
141 [label="gini = 0.0\nsamples = 2\nvalue = [2, 0]"] ;
139 -> 141 ;
142 [label="ethnicity_Hispanic/Latino <= 0.5\ngini = 0.137\nsamples = 27\nvalue = [25, 2]"] ;
138 -> 142 ;
143 [label="case_positive_specimen_interval <= 0.005\ngini = 0.077\nsamples = 25\nvalue = [24, 1]"] ;
142 -> 143 ;
144 [label="gini = 0.0\nsamples = 20\nvalue = [20, 0]"] ;
143 -> 144 ;
145 [label="gini = 0.32\nsamples = 5\nvalue = [4, 1]"] ;
143 -> 145 ;
146 [label="race_Black <= 0.5\ngini = 0.5\nsamples = 2\nvalue = [1, 1]"] ;
142 -> 146 ;
147 [label="gini = 0.0\nsamples = 1\nvalue = [0, 1]"] ;
146 -> 147 ;
148 [label="gini = 0.0\nsamples = 1\nvalue = [1, 0]"] ;
146 -> 148 ;
149 [label="gini = 0.0\nsamples = 1\nvalue = [0, 1]"] ;
137 -> 149 ;
150 [label="case_month <= 0.324\ngini = 0.375\nsamples = 8\nvalue = [2, 6]"] ;
136 -> 150 ;
151 [label="gini = 0.0\nsamples = 3\nvalue = [0, 3]"] ;
150 -> 151 ;
152 [label="sex_Female <= 0.5\ngini = 0.48\nsamples = 5\nvalue = [2, 3]"] ;
150 -> 152 ;
153 [label="case_month <= 0.647\ngini = 0.444\nsamples = 3\nvalue = [2, 1]"] ;
152 -> 153 ;
154 [label="gini = 0.0\nsamples = 2\nvalue = [2, 0]"] ;
153 -> 154 ;
155 [label="gini = 0.0\nsamples = 1\nvalue = [0, 1]"] ;
153 -> 155 ;
156 [label="gini = 0.0\nsamples = 2\nvalue = [0, 2]"] ;
152 -> 156 ;
157 [label="gini = 0.0\nsamples = 30\nvalue = [0, 30]"] ;
135 -> 157 ;
158 [label="case_month <= 0.074\ngini = 0.127\nsamples = 1272\nvalue = [1185, 87]"] ;
134 -> 158 ;
159 [label="sex_Female <= 0.5\ngini = 0.478\nsamples = 38\nvalue = [23, 15]"] ;
158 -> 159 ;
160 [label="case_month <= 0.044\ngini = 0.465\nsamples = 19\nvalue = [7, 12]"] ;
159 -> 160 ;
161 [label="gini = 0.0\nsamples = 6\nvalue = [0, 6]"] ;
160 -> 161 ;
162 [label="income <= 0.431\ngini = 0.497\nsamples = 13\nvalue = [7, 6]"] ;
160 -> 162 ;
163 [label="state_fips_code <= 0.481\ngini = 0.48\nsamples = 10\nvalue = [4, 6]"] ;
162 -> 163 ;
164 [label="race_Black <= 0.5\ngini = 0.375\nsamples = 8\nvalue = [2, 6]"] ;
163 -> 164 ;
165 [label="gini = 0.0\nsamples = 5\nvalue = [0, 5]"] ;
164 -> 165 ;
166 [label="gini = 0.444\nsamples = 3\nvalue = [2, 1]"] ;
164 -> 166 ;
167 [label="gini = 0.0\nsamples = 2\nvalue = [2, 0]"] ;
163 -> 167 ;
168 [label="gini = 0.0\nsamples = 3\nvalue = [3, 0]"] ;
162 -> 168 ;
169 [label="state_fips_code <= 0.442\ngini = 0.266\nsamples = 19\nvalue = [16, 3]"] ;
159 -> 169 ;
170 [label="gini = 0.0\nsamples = 11\nvalue = [11, 0]"] ;
169 -> 170 ;
171 [label="risk_factor_tf <= 0.5\ngini = 0.469\nsamples = 8\nvalue = [5, 3]"] ;
169 -> 171 ;
172 [label="gini = 0.0\nsamples = 3\nvalue = [3, 0]"] ;
171 -> 172 ;
173 [label="income <= 0.292\ngini = 0.48\nsamples = 5\nvalue = [2, 3]"] ;
171 -> 173 ;
174 [label="case_positive_specimen_interval <= 0.005\ngini = 0.444\nsamples = 3\nvalue = [2, 1]"] ;
173 -> 174 ;
175 [label="gini = 0.0\nsamples = 1\nvalue = [1, 0]"] ;
174 -> 175 ;
176 [label="gini = 0.5\nsamples = 2\nvalue = [1, 1]"] ;
174 -> 176 ;
177 [label="gini = 0.0\nsamples = 2\nvalue = [0, 2]"] ;
173 -> 177 ;
178 [label="ethnicity_Hispanic/Latino <= 0.5\ngini = 0.11\nsamples = 1234\nvalue = [1162, 72]"] ;
158 -> 178 ;
179 [label="risk_factor_tf <= 0.5\ngini = 0.087\nsamples = 1142\nvalue = [1090, 52]"] ;
178 -> 179 ;
180 [label="state_fips_code <= 0.149\ngini = 0.006\nsamples = 338\nvalue = [337, 1]"] ;
179 -> 180 ;
181 [label="people_vaccinated <= 0.685\ngini = 0.105\nsamples = 18\nvalue = [17, 1]"] ;
180 -> 181 ;
182 [label="gini = 0.0\nsamples = 14\nvalue = [14, 0]"] ;
181 -> 182 ;
183 [label="people_vaccinated <= 0.776\ngini = 0.375\nsamples = 4\nvalue = [3, 1]"] ;
181 -> 183 ;
184 [label="gini = 0.0\nsamples = 1\nvalue = [0, 1]"] ;
183 -> 184 ;
185 [label="gini = 0.0\nsamples = 3\nvalue = [3, 0]"] ;
183 -> 185 ;
186 [label="gini = 0.0\nsamples = 320\nvalue = [320, 0]"] ;
180 -> 186 ;
187 [label="state_fips_code <= 0.545\ngini = 0.119\nsamples = 804\nvalue = [753, 51]"] ;
179 -> 187 ;
188 [label="state_fips_code <= 0.208\ngini = 0.096\nsamples = 711\nvalue = [675, 36]"] ;
187 -> 188 ;
189 [label="people_vaccinated <= 0.685\ngini = 0.227\nsamples = 69\nvalue = [60, 9]"] ;
188 -> 189 ;
190 [label="gini = 0.0\nsamples = 33\nvalue = [33, 0]"] ;
189 -> 190 ;
191 [label="gini = 0.375\nsamples = 36\nvalue = [27, 9]"] ;
189 -> 191 ;
192 [label="state_fips_code <= 0.364\ngini = 0.081\nsamples = 642\nvalue = [615, 27]"] ;
188 -> 192 ;
193 [label="gini = 0.035\nsamples = 341\nvalue = [335, 6]"] ;
192 -> 193 ;
194 [label="gini = 0.13\nsamples = 301\nvalue = [280, 21]"] ;
192 -> 194 ;
195 [label="income <= 0.317\ngini = 0.271\nsamples = 93\nvalue = [78, 15]"] ;
187 -> 195 ;
196 [label="income <= 0.314\ngini = 0.346\nsamples = 54\nvalue = [42, 12]"] ;
195 -> 196 ;
197 [label="gini = 0.311\nsamples = 52\nvalue = [42, 10]"] ;
196 -> 197 ;
198 [label="gini = 0.0\nsamples = 2\nvalue = [0, 2]"] ;
196 -> 198 ;
199 [label="case_month <= 0.721\ngini = 0.142\nsamples = 39\nvalue = [36, 3]"] ;
195 -> 199 ;
200 [label="gini = 0.059\nsamples = 33\nvalue = [32, 1]"] ;
199 -> 200 ;
201 [label="gini = 0.444\nsamples = 6\nvalue = [4, 2]"] ;
199 -> 201 ;
202 [label="people_vaccinated <= 0.489\ngini = 0.34\nsamples = 92\nvalue = [72, 20]"] ;
178 -> 202 ;
203 [label="case_positive_specimen_interval <= 0.019\ngini = 0.188\nsamples = 38\nvalue = [34, 4]"] ;
202 -> 203 ;
204 [label="income <= 0.157\ngini = 0.149\nsamples = 37\nvalue = [34, 3]"] ;
203 -> 204 ;
205 [label="gini = 0.0\nsamples = 1\nvalue = [0, 1]"] ;
204 -> 205 ;
206 [label="race_Asian <= 0.5\ngini = 0.105\nsamples = 36\nvalue = [34, 2]"] ;
204 -> 206 ;
207 [label="gini = 0.057\nsamples = 34\nvalue = [33, 1]"] ;
206 -> 207 ;
208 [label="gini = 0.5\nsamples = 2\nvalue = [1, 1]"] ;
206 -> 208 ;
209 [label="gini = 0.0\nsamples = 1\nvalue = [0, 1]"] ;
203 -> 209 ;
210 [label="case_month <= 0.618\ngini = 0.417\nsamples = 54\nvalue = [38, 16]"] ;
202 -> 210 ;
211 [label="age_group <= 0.167\ngini = 0.499\nsamples = 23\nvalue = [11, 12]"] ;
210 -> 211 ;
212 [label="gini = 0.0\nsamples = 2\nvalue = [2, 0]"] ;
211 -> 212 ;
213 [label="people_vaccinated <= 0.817\ngini = 0.49\nsamples = 21\nvalue = [9, 12]"] ;
211 -> 213 ;
214 [label="gini = 0.5\nsamples = 18\nvalue = [9, 9]"] ;
213 -> 214 ;
215 [label="gini = 0.0\nsamples = 3\nvalue = [0, 3]"] ;
213 -> 215 ;
216 [label="income <= 0.796\ngini = 0.225\nsamples = 31\nvalue = [27, 4]"] ;
210 -> 216 ;
217 [label="state_fips_code <= 0.214\ngini = 0.18\nsamples = 30\nvalue = [27, 3]"] ;
216 -> 217 ;
218 [label="gini = 0.5\nsamples = 2\nvalue = [1, 1]"] ;
217 -> 218 ;
219 [label="gini = 0.133\nsamples = 28\nvalue = [26, 2]"] ;
217 -> 219 ;
220 [label="gini = 0.0\nsamples = 1\nvalue = [0, 1]"] ;
216 -> 220 ;
221 [label="state_fips_code <= 0.214\ngini = 0.498\nsamples = 912\nvalue = [429, 483]"] ;
133 -> 221 ;
222 [label="case_positive_specimen_interval <= 0.005\ngini = 0.275\nsamples = 279\nvalue = [46, 233]"] ;
221 -> 222 ;
223 [label="people_vaccinated <= 0.01\ngini = 0.424\nsamples = 118\nvalue = [36, 82]"] ;
222 -> 223 ;
224 [label="case_month <= 0.103\ngini = 0.483\nsamples = 22\nvalue = [13, 9]"] ;
223 -> 224 ;
225 [label="risk_factor_tf <= 0.5\ngini = 0.32\nsamples = 5\nvalue = [1, 4]"] ;
224 -> 225 ;
226 [label="gini = 0.0\nsamples = 1\nvalue = [1, 0]"] ;
225 -> 226 ;
227 [label="gini = 0.0\nsamples = 4\nvalue = [0, 4]"] ;
225 -> 227 ;
228 [label="income <= 0.348\ngini = 0.415\nsamples = 17\nvalue = [12, 5]"] ;
224 -> 228 ;
229 [label="case_month <= 0.162\ngini = 0.459\nsamples = 14\nvalue = [9, 5]"] ;
228 -> 229 ;
230 [label="income <= 0.213\ngini = 0.48\nsamples = 5\nvalue = [2, 3]"] ;
229 -> 230 ;
231 [label="gini = 0.0\nsamples = 1\nvalue = [1, 0]"] ;
230 -> 231 ;
232 [label="gini = 0.375\nsamples = 4\nvalue = [1, 3]"] ;
230 -> 232 ;
233 [label="case_month <= 0.279\ngini = 0.346\nsamples = 9\nvalue = [7, 2]"] ;
229 -> 233 ;
234 [label="gini = 0.0\nsamples = 5\nvalue = [5, 0]"] ;
233 -> 234 ;
235 [label="gini = 0.5\nsamples = 4\nvalue = [2, 2]"] ;
233 -> 235 ;
236 [label="gini = 0.0\nsamples = 3\nvalue = [3, 0]"] ;
228 -> 236 ;
237 [label="income <= 0.47\ngini = 0.364\nsamples = 96\nvalue = [23, 73]"] ;
223 -> 237 ;
238 [label="people_vaccinated <= 0.958\ngini = 0.33\nsamples = 91\nvalue = [19, 72]"] ;
237 -> 238 ;
239 [label="case_month <= 0.515\ngini = 0.309\nsamples = 89\nvalue = [17, 72]"] ;
238 -> 239 ;
240 [label="income <= 0.231\ngini = 0.427\nsamples = 42\nvalue = [13, 29]"] ;
239 -> 240 ;
241 [label="gini = 0.5\nsamples = 16\nvalue = [8, 8]"] ;
240 -> 241 ;
242 [label="gini = 0.311\nsamples = 26\nvalue = [5, 21]"] ;
240 -> 242 ;
243 [label="risk_factor_tf <= 0.5\ngini = 0.156\nsamples = 47\nvalue = [4, 43]"] ;
239 -> 243 ;
244 [label="gini = 0.0\nsamples = 1\nvalue = [1, 0]"] ;
243 -> 244 ;
245 [label="gini = 0.122\nsamples = 46\nvalue = [3, 43]"] ;
243 -> 245 ;
246 [label="gini = 0.0\nsamples = 2\nvalue = [2, 0]"] ;
238 -> 246 ;
247 [label="income <= 0.535\ngini = 0.32\nsamples = 5\nvalue = [4, 1]"] ;
237 -> 247 ;
248 [label="gini = 0.0\nsamples = 4\nvalue = [4, 0]"] ;
247 -> 248 ;
249 [label="gini = 0.0\nsamples = 1\nvalue = [0, 1]"] ;
247 -> 249 ;
250 [label="income <= 0.292\ngini = 0.117\nsamples = 161\nvalue = [10, 151]"] ;
222 -> 250 ;
251 [label="income <= 0.221\ngini = 0.488\nsamples = 19\nvalue = [8, 11]"] ;
250 -> 251 ;
252 [label="race_Black <= 0.5\ngini = 0.18\nsamples = 10\nvalue = [1, 9]"] ;
251 -> 252 ;
253 [label="gini = 0.0\nsamples = 9\nvalue = [0, 9]"] ;
252 -> 253 ;
254 [label="gini = 0.0\nsamples = 1\nvalue = [1, 0]"] ;
252 -> 254 ;
255 [label="state_fips_code <= 0.019\ngini = 0.346\nsamples = 9\nvalue = [7, 2]"] ;
251 -> 255 ;
256 [label="gini = 0.0\nsamples = 1\nvalue = [0, 1]"] ;
255 -> 256 ;
257 [label="case_positive_specimen_interval <= 0.101\ngini = 0.219\nsamples = 8\nvalue = [7, 1]"] ;
255 -> 257 ;
258 [label="gini = 0.0\nsamples = 5\nvalue = [5, 0]"] ;
257 -> 258 ;
259 [label="income <= 0.236\ngini = 0.444\nsamples = 3\nvalue = [2, 1]"] ;
257 -> 259 ;
260 [label="gini = 0.0\nsamples = 1\nvalue = [1, 0]"] ;
259 -> 260 ;
261 [label="gini = 0.5\nsamples = 2\nvalue = [1, 1]"] ;
259 -> 261 ;
262 [label="risk_factor_tf <= 0.5\ngini = 0.028\nsamples = 142\nvalue = [2, 140]"] ;
250 -> 262 ;
263 [label="gini = 0.0\nsamples = 1\nvalue = [1, 0]"] ;
262 -> 263 ;
264 [label="case_positive_specimen_interval <= 0.024\ngini = 0.014\nsamples = 141\nvalue = [1, 140]"] ;
262 -> 264 ;
265 [label="gini = 0.0\nsamples = 137\nvalue = [0, 137]"] ;
264 -> 265 ;
266 [label="case_month <= 0.618\ngini = 0.375\nsamples = 4\nvalue = [1, 3]"] ;
264 -> 266 ;
267 [label="gini = 0.0\nsamples = 2\nvalue = [0, 2]"] ;
266 -> 267 ;
268 [label="income <= 0.394\ngini = 0.5\nsamples = 2\nvalue = [1, 1]"] ;
266 -> 268 ;
269 [label="gini = 0.0\nsamples = 1\nvalue = [1, 0]"] ;
268 -> 269 ;
270 [label="gini = 0.0\nsamples = 1\nvalue = [0, 1]"] ;
268 -> 270 ;
271 [label="case_month <= 0.074\ngini = 0.478\nsamples = 633\nvalue = [383, 250]"] ;
221 -> 271 ;
272 [label="risk_factor_tf <= 0.5\ngini = 0.247\nsamples = 104\nvalue = [15, 89]"] ;
271 -> 272 ;
273 [label="gini = 0.0\nsamples = 2\nvalue = [2, 0]"] ;
272 -> 273 ;
274 [label="income <= 0.379\ngini = 0.222\nsamples = 102\nvalue = [13, 89]"] ;
272 -> 274 ;
275 [label="state_fips_code <= 0.24\ngini = 0.144\nsamples = 77\nvalue = [6, 71]"] ;
274 -> 275 ;
276 [label="gini = 0.0\nsamples = 1\nvalue = [1, 0]"] ;
275 -> 276 ;
277 [label="state_fips_code <= 0.571\ngini = 0.123\nsamples = 76\nvalue = [5, 71]"] ;
275 -> 277 ;
278 [label="case_positive_specimen_interval <= 0.005\ngini = 0.08\nsamples = 72\nvalue = [3, 69]"] ;
277 -> 278 ;
279 [label="gini = 0.032\nsamples = 62\nvalue = [1, 61]"] ;
278 -> 279 ;
280 [label="gini = 0.32\nsamples = 10\nvalue = [2, 8]"] ;
278 -> 280 ;
281 [label="case_month <= 0.044\ngini = 0.5\nsamples = 4\nvalue = [2, 2]"] ;
277 -> 281 ;
282 [label="gini = 0.0\nsamples = 2\nvalue = [0, 2]"] ;
281 -> 282 ;
283 [label="gini = 0.0\nsamples = 2\nvalue = [2, 0]"] ;
281 -> 283 ;
284 [label="income <= 0.626\ngini = 0.403\nsamples = 25\nvalue = [7, 18]"] ;
274 -> 284 ;
285 [label="state_fips_code <= 0.377\ngini = 0.475\nsamples = 18\nvalue = [7, 11]"] ;
284 -> 285 ;
286 [label="gini = 0.0\nsamples = 3\nvalue = [0, 3]"] ;
285 -> 286 ;
287 [label="ethnicity_Hispanic/Latino <= 0.5\ngini = 0.498\nsamples = 15\nvalue = [7, 8]"] ;
285 -> 287 ;
288 [label="gini = 0.497\nsamples = 13\nvalue = [7, 6]"] ;
287 -> 288 ;
289 [label="gini = 0.0\nsamples = 2\nvalue = [0, 2]"] ;
287 -> 289 ;
290 [label="gini = 0.0\nsamples = 7\nvalue = [0, 7]"] ;
284 -> 290 ;
291 [label="income <= 0.317\ngini = 0.423\nsamples = 529\nvalue = [368, 161]"] ;
271 -> 291 ;
292 [label="ethnicity_Hispanic/Latino <= 0.5\ngini = 0.495\nsamples = 326\nvalue = [179, 147]"] ;
291 -> 292 ;
293 [label="case_month <= 0.721\ngini = 0.466\nsamples = 270\nvalue = [170, 100]"] ;
292 -> 293 ;
294 [label="risk_factor_tf <= 0.5\ngini = 0.488\nsamples = 236\nvalue = [136, 100]"] ;
293 -> 294 ;
295 [label="gini = 0.0\nsamples = 20\nvalue = [20, 0]"] ;
294 -> 295 ;
296 [label="state_fips_code <= 0.584\ngini = 0.497\nsamples = 216\nvalue = [116, 100]"] ;
294 -> 296 ;
297 [label="gini = 0.484\nsamples = 175\nvalue = [103, 72]"] ;
296 -> 297 ;
298 [label="gini = 0.433\nsamples = 41\nvalue = [13, 28]"] ;
296 -> 298 ;
299 [label="gini = 0.0\nsamples = 34\nvalue = [34, 0]"] ;
293 -> 299 ;
300 [label="people_vaccinated <= 0.956\ngini = 0.27\nsamples = 56\nvalue = [9, 47]"] ;
292 -> 300 ;
301 [label="income <= 0.077\ngini = 0.249\nsamples = 55\nvalue = [8, 47]"] ;
300 -> 301 ;
302 [label="gini = 0.0\nsamples = 1\nvalue = [1, 0]"] ;
301 -> 302 ;
303 [label="income <= 0.245\ngini = 0.226\nsamples = 54\nvalue = [7, 47]"] ;
301 -> 303 ;
304 [label="gini = 0.0\nsamples = 26\nvalue = [0, 26]"] ;
303 -> 304 ;
305 [label="gini = 0.375\nsamples = 28\nvalue = [7, 21]"] ;
303 -> 305 ;
306 [label="gini = 0.0\nsamples = 1\nvalue = [1, 0]"] ;
300 -> 306 ;
307 [label="income <= 0.366\ngini = 0.128\nsamples = 203\nvalue = [189, 14]"] ;
291 -> 307 ;
308 [label="income <= 0.365\ngini = 0.343\nsamples = 41\nvalue = [32, 9]"] ;
307 -> 308 ;
309 [label="state_fips_code <= 0.513\ngini = 0.266\nsamples = 38\nvalue = [32, 6]"] ;
308 -> 309 ;
310 [label="race_Black <= 0.5\ngini = 0.067\nsamples = 29\nvalue = [28, 1]"] ;
309 -> 310 ;
311 [label="gini = 0.0\nsamples = 26\nvalue = [26, 0]"] ;
310 -> 311 ;
312 [label="gini = 0.444\nsamples = 3\nvalue = [2, 1]"] ;
310 -> 312 ;
313 [label="state_fips_code <= 0.552\ngini = 0.494\nsamples = 9\nvalue = [4, 5]"] ;
309 -> 313 ;
314 [label="gini = 0.0\nsamples = 4\nvalue = [0, 4]"] ;
313 -> 314 ;
315 [label="gini = 0.32\nsamples = 5\nvalue = [4, 1]"] ;
313 -> 315 ;
316 [label="gini = 0.0\nsamples = 3\nvalue = [0, 3]"] ;
308 -> 316 ;
317 [label="race_Black <= 0.5\ngini = 0.06\nsamples = 162\nvalue = [157, 5]"] ;
307 -> 317 ;
318 [label="state_fips_code <= 0.584\ngini = 0.04\nsamples = 147\nvalue = [144, 3]"] ;
317 -> 318 ;
319 [label="people_vaccinated <= 0.893\ngini = 0.029\nsamples = 138\nvalue = [136, 2]"] ;
318 -> 319 ;
320 [label="gini = 0.0\nsamples = 79\nvalue = [79, 0]"] ;
319 -> 320 ;
321 [label="gini = 0.065\nsamples = 59\nvalue = [57, 2]"] ;
319 -> 321 ;
322 [label="people_vaccinated <= 0.745\ngini = 0.198\nsamples = 9\nvalue = [8, 1]"] ;
318 -> 322 ;
323 [label="gini = 0.0\nsamples = 7\nvalue = [7, 0]"] ;
322 -> 323 ;
324 [label="gini = 0.5\nsamples = 2\nvalue = [1, 1]"] ;
322 -> 324 ;
325 [label="ethnicity_Hispanic/Latino <= 0.5\ngini = 0.231\nsamples = 15\nvalue = [13, 2]"] ;
317 -> 325 ;
326 [label="state_fips_code <= 0.331\ngini = 0.133\nsamples = 14\nvalue = [13, 1]"] ;
325 -> 326 ;
327 [label="gini = 0.444\nsamples = 3\nvalue = [2, 1]"] ;
326 -> 327 ;
328 [label="gini = 0.0\nsamples = 11\nvalue = [11, 0]"] ;
326 -> 328 ;
329 [label="gini = 0.0\nsamples = 1\nvalue = [0, 1]"] ;
325 -> 329 ;
330 [label="hosp_tf <= 0.5\ngini = 0.431\nsamples = 8114\nvalue = [2548, 5566]"] ;
0 -> 330 [labeldistance=2.5, labelangle=-45, headlabel="False"] ;
331 [label="people_vaccinated <= 0.112\ngini = 0.482\nsamples = 3423\nvalue = [2036, 1387]"] ;
330 -> 331 ;
332 [label="risk_factor_tf <= 0.5\ngini = 0.486\nsamples = 1587\nvalue = [661, 926]"] ;
331 -> 332 ;
333 [label="gini = 0.0\nsamples = 97\nvalue = [97, 0]"] ;
332 -> 333 ;
334 [label="state_fips_code <= 0.214\ngini = 0.47\nsamples = 1490\nvalue = [564, 926]"] ;
332 -> 334 ;
335 [label="case_positive_specimen_interval <= 0.014\ngini = 0.359\nsamples = 439\nvalue = [103, 336]"] ;
334 -> 335 ;
336 [label="state_fips_code <= 0.201\ngini = 0.432\nsamples = 308\nvalue = [97, 211]"] ;
335 -> 336 ;
337 [label="income <= 0.123\ngini = 0.456\nsamples = 273\nvalue = [96, 177]"] ;
336 -> 337 ;
338 [label="gini = 0.0\nsamples = 5\nvalue = [5, 0]"] ;
337 -> 338 ;
339 [label="income <= 0.486\ngini = 0.449\nsamples = 268\nvalue = [91, 177]"] ;
337 -> 339 ;
340 [label="sex_Female <= 0.5\ngini = 0.458\nsamples = 253\nvalue = [90, 163]"] ;
339 -> 340 ;
341 [label="gini = 0.49\nsamples = 119\nvalue = [51, 68]"] ;
340 -> 341 ;
342 [label="gini = 0.413\nsamples = 134\nvalue = [39, 95]"] ;
340 -> 342 ;
343 [label="race_White <= 0.5\ngini = 0.124\nsamples = 15\nvalue = [1, 14]"] ;
339 -> 343 ;
344 [label="gini = 0.0\nsamples = 1\nvalue = [1, 0]"] ;
343 -> 344 ;
345 [label="gini = 0.0\nsamples = 14\nvalue = [0, 14]"] ;
343 -> 345 ;
346 [label="case_positive_specimen_interval <= 0.005\ngini = 0.056\nsamples = 35\nvalue = [1, 34]"] ;
336 -> 346 ;
347 [label="case_month <= 0.221\ngini = 0.198\nsamples = 9\nvalue = [1, 8]"] ;
346 -> 347 ;
348 [label="gini = 0.0\nsamples = 1\nvalue = [1, 0]"] ;
347 -> 348 ;
349 [label="gini = 0.0\nsamples = 8\nvalue = [0, 8]"] ;
347 -> 349 ;
350 [label="gini = 0.0\nsamples = 26\nvalue = [0, 26]"] ;
346 -> 350 ;
351 [label="case_positive_specimen_interval <= 0.024\ngini = 0.087\nsamples = 131\nvalue = [6, 125]"] ;
335 -> 351 ;
352 [label="state_fips_code <= 0.052\ngini = 0.033\nsamples = 121\nvalue = [2, 119]"] ;
351 -> 352 ;
353 [label="sex_Female <= 0.5\ngini = 0.346\nsamples = 9\nvalue = [2, 7]"] ;
352 -> 353 ;
354 [label="people_vaccinated <= 0.01\ngini = 0.219\nsamples = 8\nvalue = [1, 7]"] ;
353 -> 354 ;
355 [label="gini = 0.0\nsamples = 4\nvalue = [0, 4]"] ;
354 -> 355 ;
356 [label="gini = 0.375\nsamples = 4\nvalue = [1, 3]"] ;
354 -> 356 ;
357 [label="gini = 0.0\nsamples = 1\nvalue = [1, 0]"] ;
353 -> 357 ;
358 [label="gini = 0.0\nsamples = 112\nvalue = [0, 112]"] ;
352 -> 358 ;
359 [label="case_positive_specimen_interval <= 0.053\ngini = 0.48\nsamples = 10\nvalue = [4, 6]"] ;
351 -> 359 ;
360 [label="case_month <= 0.206\ngini = 0.32\nsamples = 5\nvalue = [4, 1]"] ;
359 -> 360 ;
361 [label="case_positive_specimen_interval <= 0.038\ngini = 0.5\nsamples = 2\nvalue = [1, 1]"] ;
360 -> 361 ;
362 [label="gini = 0.0\nsamples = 1\nvalue = [1, 0]"] ;
361 -> 362 ;
363 [label="gini = 0.0\nsamples = 1\nvalue = [0, 1]"] ;
361 -> 363 ;
364 [label="gini = 0.0\nsamples = 3\nvalue = [3, 0]"] ;
360 -> 364 ;
365 [label="gini = 0.0\nsamples = 5\nvalue = [0, 5]"] ;
359 -> 365 ;
366 [label="case_month <= 0.074\ngini = 0.492\nsamples = 1051\nvalue = [461, 590]"] ;
334 -> 366 ;
367 [label="symptomatic_tf <= 0.5\ngini = 0.3\nsamples = 174\nvalue = [32, 142]"] ;
366 -> 367 ;
368 [label="gini = 0.0\nsamples = 2\nvalue = [2, 0]"] ;
367 -> 368 ;
369 [label="state_fips_code <= 0.565\ngini = 0.288\nsamples = 172\nvalue = [30, 142]"] ;
367 -> 369 ;
370 [label="income <= 0.769\ngini = 0.261\nsamples = 162\nvalue = [25, 137]"] ;
369 -> 370 ;
371 [label="case_positive_specimen_interval <= 0.183\ngini = 0.241\nsamples = 157\nvalue = [22, 135]"] ;
370 -> 371 ;
372 [label="gini = 0.233\nsamples = 156\nvalue = [21, 135]"] ;
371 -> 372 ;
373 [label="gini = 0.0\nsamples = 1\nvalue = [1, 0]"] ;
371 -> 373 ;
374 [label="case_month <= 0.044\ngini = 0.48\nsamples = 5\nvalue = [3, 2]"] ;
370 -> 374 ;
375 [label="gini = 0.0\nsamples = 1\nvalue = [0, 1]"] ;
374 -> 375 ;
376 [label="gini = 0.375\nsamples = 4\nvalue = [3, 1]"] ;
374 -> 376 ;
377 [label="state_fips_code <= 0.63\ngini = 0.5\nsamples = 10\nvalue = [5, 5]"] ;
369 -> 377 ;
378 [label="gini = 0.0\nsamples = 4\nvalue = [4, 0]"] ;
377 -> 378 ;
379 [label="income <= 0.214\ngini = 0.278\nsamples = 6\nvalue = [1, 5]"] ;
377 -> 379 ;
380 [label="gini = 0.0\nsamples = 1\nvalue = [1, 0]"] ;
379 -> 380 ;
381 [label="gini = 0.0\nsamples = 5\nvalue = [0, 5]"] ;
379 -> 381 ;
382 [label="race_White <= 0.5\ngini = 0.5\nsamples = 877\nvalue = [429, 448]"] ;
366 -> 382 ;
383 [label="state_fips_code <= 0.584\ngini = 0.391\nsamples = 105\nvalue = [77, 28]"] ;
382 -> 383 ;
384 [label="state_fips_code <= 0.448\ngini = 0.314\nsamples = 82\nvalue = [66, 16]"] ;
383 -> 384 ;
385 [label="state_fips_code <= 0.435\ngini = 0.398\nsamples = 51\nvalue = [37, 14]"] ;
384 -> 385 ;
386 [label="gini = 0.37\nsamples = 49\nvalue = [37, 12]"] ;
385 -> 386 ;
387 [label="gini = 0.0\nsamples = 2\nvalue = [0, 2]"] ;
385 -> 387 ;
388 [label="case_month <= 0.103\ngini = 0.121\nsamples = 31\nvalue = [29, 2]"] ;
384 -> 388 ;
389 [label="gini = 0.5\nsamples = 2\nvalue = [1, 1]"] ;
388 -> 389 ;
390 [label="gini = 0.067\nsamples = 29\nvalue = [28, 1]"] ;
388 -> 390 ;
391 [label="sex_Female <= 0.5\ngini = 0.499\nsamples = 23\nvalue = [11, 12]"] ;
383 -> 391 ;
392 [label="gini = 0.0\nsamples = 5\nvalue = [5, 0]"] ;
391 -> 392 ;
393 [label="race_Black <= 0.5\ngini = 0.444\nsamples = 18\nvalue = [6, 12]"] ;
391 -> 393 ;
394 [label="gini = 0.0\nsamples = 6\nvalue = [0, 6]"] ;
393 -> 394 ;
395 [label="gini = 0.5\nsamples = 12\nvalue = [6, 6]"] ;
393 -> 395 ;
396 [label="symptomatic_tf <= 0.5\ngini = 0.496\nsamples = 772\nvalue = [352, 420]"] ;
382 -> 396 ;
397 [label="gini = 0.0\nsamples = 17\nvalue = [17, 0]"] ;
396 -> 397 ;
398 [label="state_fips_code <= 0.474\ngini = 0.494\nsamples = 755\nvalue = [335, 420]"] ;
396 -> 398 ;
399 [label="state_fips_code <= 0.422\ngini = 0.5\nsamples = 392\nvalue = [201, 191]"] ;
398 -> 399 ;
400 [label="gini = 0.482\nsamples = 234\nvalue = [95, 139]"] ;
399 -> 400 ;
401 [label="gini = 0.442\nsamples = 158\nvalue = [106, 52]"] ;
399 -> 401 ;
402 [label="case_positive_specimen_interval <= 0.005\ngini = 0.466\nsamples = 363\nvalue = [134, 229]"] ;
398 -> 402 ;
403 [label="gini = 0.456\nsamples = 333\nvalue = [117, 216]"] ;
402 -> 403 ;
404 [label="gini = 0.491\nsamples = 30\nvalue = [17, 13]"] ;
402 -> 404 ;
405 [label="state_fips_code <= 0.214\ngini = 0.376\nsamples = 1836\nvalue = [1375, 461]"] ;
331 -> 405 ;
406 [label="state_fips_code <= 0.078\ngini = 0.499\nsamples = 382\nvalue = [182, 200]"] ;
405 -> 406 ;
407 [label="case_positive_specimen_interval <= 0.014\ngini = 0.359\nsamples = 98\nvalue = [23, 75]"] ;
406 -> 407 ;
408 [label="case_month <= 0.618\ngini = 0.495\nsamples = 49\nvalue = [22, 27]"] ;
407 -> 408 ;
409 [label="state_fips_code <= 0.026\ngini = 0.444\nsamples = 21\nvalue = [14, 7]"] ;
408 -> 409 ;
410 [label="gini = 0.0\nsamples = 4\nvalue = [0, 4]"] ;
409 -> 410 ;
411 [label="case_month <= 0.559\ngini = 0.291\nsamples = 17\nvalue = [14, 3]"] ;
409 -> 411 ;
412 [label="income <= 0.254\ngini = 0.42\nsamples = 10\nvalue = [7, 3]"] ;
411 -> 412 ;
413 [label="gini = 0.0\nsamples = 2\nvalue = [0, 2]"] ;
412 -> 413 ;
414 [label="gini = 0.219\nsamples = 8\nvalue = [7, 1]"] ;
412 -> 414 ;
415 [label="gini = 0.0\nsamples = 7\nvalue = [7, 0]"] ;
411 -> 415 ;
416 [label="people_vaccinated <= 0.956\ngini = 0.408\nsamples = 28\nvalue = [8, 20]"] ;
408 -> 416 ;
417 [label="race_Black <= 0.5\ngini = 0.298\nsamples = 22\nvalue = [4, 18]"] ;
416 -> 417 ;
418 [label="income <= 0.227\ngini = 0.18\nsamples = 20\nvalue = [2, 18]"] ;
417 -> 418 ;
419 [label="gini = 0.408\nsamples = 7\nvalue = [2, 5]"] ;
418 -> 419 ;
420 [label="gini = 0.0\nsamples = 13\nvalue = [0, 13]"] ;
418 -> 420 ;
421 [label="gini = 0.0\nsamples = 2\nvalue = [2, 0]"] ;
417 -> 421 ;
422 [label="race_American Indian/Alaska Native <= 0.5\ngini = 0.444\nsamples = 6\nvalue = [4, 2]"] ;
416 -> 422 ;
423 [label="case_month <= 0.794\ngini = 0.32\nsamples = 5\nvalue = [4, 1]"] ;
422 -> 423 ;
424 [label="gini = 0.0\nsamples = 2\nvalue = [2, 0]"] ;
423 -> 424 ;
425 [label="gini = 0.444\nsamples = 3\nvalue = [2, 1]"] ;
423 -> 425 ;
426 [label="gini = 0.0\nsamples = 1\nvalue = [0, 1]"] ;
422 -> 426 ;
427 [label="income <= 0.2\ngini = 0.04\nsamples = 49\nvalue = [1, 48]"] ;
407 -> 427 ;
428 [label="gini = 0.0\nsamples = 1\nvalue = [1, 0]"] ;
427 -> 428 ;
429 [label="gini = 0.0\nsamples = 48\nvalue = [0, 48]"] ;
427 -> 429 ;
430 [label="risk_factor_tf <= 0.5\ngini = 0.493\nsamples = 284\nvalue = [159, 125]"] ;
406 -> 430 ;
431 [label="gini = 0.0\nsamples = 21\nvalue = [21, 0]"] ;
430 -> 431 ;
432 [label="people_vaccinated <= 0.945\ngini = 0.499\nsamples = 263\nvalue = [138, 125]"] ;
430 -> 432 ;
433 [label="state_fips_code <= 0.201\ngini = 0.494\nsamples = 198\nvalue = [88, 110]"] ;
432 -> 433 ;
434 [label="case_positive_specimen_interval <= 0.005\ngini = 0.499\nsamples = 183\nvalue = [88, 95]"] ;
433 -> 434 ;
435 [label="people_vaccinated <= 0.704\ngini = 0.493\nsamples = 164\nvalue = [72, 92]"] ;
434 -> 435 ;
436 [label="gini = 0.475\nsamples = 31\nvalue = [19, 12]"] ;
435 -> 436 ;
437 [label="gini = 0.479\nsamples = 133\nvalue = [53, 80]"] ;
435 -> 437 ;
438 [label="income <= 0.332\ngini = 0.266\nsamples = 19\nvalue = [16, 3]"] ;
434 -> 438 ;
439 [label="gini = 0.111\nsamples = 17\nvalue = [16, 1]"] ;
438 -> 439 ;
440 [label="gini = 0.0\nsamples = 2\nvalue = [0, 2]"] ;
438 -> 440 ;
441 [label="gini = 0.0\nsamples = 15\nvalue = [0, 15]"] ;
433 -> 441 ;
442 [label="income <= 0.301\ngini = 0.355\nsamples = 65\nvalue = [50, 15]"] ;
432 -> 442 ;
443 [label="case_positive_specimen_interval <= 0.024\ngini = 0.444\nsamples = 42\nvalue = [28, 14]"] ;
442 -> 443 ;
444 [label="case_positive_specimen_interval <= 0.014\ngini = 0.455\nsamples = 40\nvalue = [26, 14]"] ;
443 -> 444 ;
445 [label="gini = 0.444\nsamples = 39\nvalue = [26, 13]"] ;
444 -> 445 ;
446 [label="gini = 0.0\nsamples = 1\nvalue = [0, 1]"] ;
444 -> 446 ;
447 [label="gini = 0.0\nsamples = 2\nvalue = [2, 0]"] ;
443 -> 447 ;
448 [label="income <= 0.325\ngini = 0.083\nsamples = 23\nvalue = [22, 1]"] ;
442 -> 448 ;
449 [label="people_vaccinated <= 0.975\ngini = 0.219\nsamples = 8\nvalue = [7, 1]"] ;
448 -> 449 ;
450 [label="gini = 0.375\nsamples = 4\nvalue = [3, 1]"] ;
449 -> 450 ;
451 [label="gini = 0.0\nsamples = 4\nvalue = [4, 0]"] ;
449 -> 451 ;
452 [label="gini = 0.0\nsamples = 15\nvalue = [15, 0]"] ;
448 -> 452 ;
453 [label="people_vaccinated <= 0.945\ngini = 0.295\nsamples = 1454\nvalue = [1193, 261]"] ;
405 -> 453 ;
454 [label="risk_factor_tf <= 0.5\ngini = 0.38\nsamples = 901\nvalue = [671, 230]"] ;
453 -> 454 ;
455 [label="state_fips_code <= 0.584\ngini = 0.016\nsamples = 126\nvalue = [125, 1]"] ;
454 -> 455 ;
456 [label="gini = 0.0\nsamples = 114\nvalue = [114, 0]"] ;
455 -> 456 ;
457 [label="state_fips_code <= 0.604\ngini = 0.153\nsamples = 12\nvalue = [11, 1]"] ;
455 -> 457 ;
458 [label="people_vaccinated <= 0.823\ngini = 0.5\nsamples = 2\nvalue = [1, 1]"] ;
457 -> 458 ;
459 [label="gini = 0.0\nsamples = 1\nvalue = [0, 1]"] ;
458 -> 459 ;
460 [label="gini = 0.0\nsamples = 1\nvalue = [1, 0]"] ;
458 -> 460 ;
461 [label="gini = 0.0\nsamples = 10\nvalue = [10, 0]"] ;
457 -> 461 ;
462 [label="state_fips_code <= 0.481\ngini = 0.416\nsamples = 775\nvalue = [546, 229]"] ;
454 -> 462 ;
463 [label="state_fips_code <= 0.422\ngini = 0.34\nsamples = 502\nvalue = [393, 109]"] ;
462 -> 463 ;
464 [label="state_fips_code <= 0.305\ngini = 0.4\nsamples = 279\nvalue = [202, 77]"] ;
463 -> 464 ;
465 [label="people_vaccinated <= 0.893\ngini = 0.277\nsamples = 175\nvalue = [146, 29]"] ;
464 -> 465 ;
466 [label="gini = 0.119\nsamples = 79\nvalue = [74, 5]"] ;
465 -> 466 ;
467 [label="gini = 0.375\nsamples = 96\nvalue = [72, 24]"] ;
465 -> 467 ;
468 [label="state_fips_code <= 0.331\ngini = 0.497\nsamples = 104\nvalue = [56, 48]"] ;
464 -> 468 ;
469 [label="gini = 0.478\nsamples = 43\nvalue = [17, 26]"] ;
468 -> 469 ;
470 [label="gini = 0.461\nsamples = 61\nvalue = [39, 22]"] ;
468 -> 470 ;
471 [label="people_vaccinated <= 0.308\ngini = 0.246\nsamples = 223\nvalue = [191, 32]"] ;
463 -> 471 ;
472 [label="race_Black <= 0.5\ngini = 0.497\nsamples = 13\nvalue = [7, 6]"] ;
471 -> 472 ;
473 [label="gini = 0.463\nsamples = 11\nvalue = [7, 4]"] ;
472 -> 473 ;
474 [label="gini = 0.0\nsamples = 2\nvalue = [0, 2]"] ;
472 -> 474 ;
475 [label="income <= 0.132\ngini = 0.217\nsamples = 210\nvalue = [184, 26]"] ;
471 -> 475 ;
476 [label="gini = 0.49\nsamples = 7\nvalue = [3, 4]"] ;
475 -> 476 ;
477 [label="gini = 0.193\nsamples = 203\nvalue = [181, 22]"] ;
475 -> 477 ;
478 [label="case_positive_specimen_interval <= 0.005\ngini = 0.493\nsamples = 273\nvalue = [153, 120]"] ;
462 -> 478 ;
479 [label="income <= 0.218\ngini = 0.498\nsamples = 248\nvalue = [132, 116]"] ;
478 -> 479 ;
480 [label="income <= 0.166\ngini = 0.461\nsamples = 72\nvalue = [26, 46]"] ;
479 -> 480 ;
481 [label="gini = 0.198\nsamples = 9\nvalue = [8, 1]"] ;
480 -> 481 ;
482 [label="gini = 0.408\nsamples = 63\nvalue = [18, 45]"] ;
480 -> 482 ;
483 [label="case_month <= 0.559\ngini = 0.479\nsamples = 176\nvalue = [106, 70]"] ;
479 -> 483 ;
484 [label="gini = 0.303\nsamples = 43\nvalue = [35, 8]"] ;
483 -> 484 ;
485 [label="gini = 0.498\nsamples = 133\nvalue = [71, 62]"] ;
483 -> 485 ;
486 [label="income <= 0.294\ngini = 0.269\nsamples = 25\nvalue = [21, 4]"] ;
478 -> 486 ;
487 [label="income <= 0.228\ngini = 0.408\nsamples = 14\nvalue = [10, 4]"] ;
486 -> 487 ;
488 [label="gini = 0.0\nsamples = 9\nvalue = [9, 0]"] ;
487 -> 488 ;
489 [label="gini = 0.32\nsamples = 5\nvalue = [1, 4]"] ;
487 -> 489 ;
490 [label="gini = 0.0\nsamples = 11\nvalue = [11, 0]"] ;
486 -> 490 ;
491 [label="state_fips_code <= 0.812\ngini = 0.106\nsamples = 553\nvalue = [522, 31]"] ;
453 -> 491 ;
492 [label="case_month <= 0.75\ngini = 0.09\nsamples = 548\nvalue = [522, 26]"] ;
491 -> 492 ;
493 [label="state_fips_code <= 0.513\ngini = 0.196\nsamples = 91\nvalue = [81, 10]"] ;
492 -> 493 ;
494 [label="income <= 0.217\ngini = 0.086\nsamples = 67\nvalue = [64, 3]"] ;
493 -> 494 ;
495 [label="income <= 0.21\ngini = 0.208\nsamples = 17\nvalue = [15, 2]"] ;
494 -> 495 ;
496 [label="gini = 0.0\nsamples = 10\nvalue = [10, 0]"] ;
495 -> 496 ;
497 [label="gini = 0.408\nsamples = 7\nvalue = [5, 2]"] ;
495 -> 497 ;
498 [label="sex_Female <= 0.5\ngini = 0.039\nsamples = 50\nvalue = [49, 1]"] ;
494 -> 498 ;
499 [label="gini = 0.087\nsamples = 22\nvalue = [21, 1]"] ;
498 -> 499 ;
500 [label="gini = 0.0\nsamples = 28\nvalue = [28, 0]"] ;
498 -> 500 ;
501 [label="income <= 0.277\ngini = 0.413\nsamples = 24\nvalue = [17, 7]"] ;
493 -> 501 ;
502 [label="income <= 0.221\ngini = 0.5\nsamples = 14\nvalue = [7, 7]"] ;
501 -> 502 ;
503 [label="gini = 0.42\nsamples = 10\nvalue = [7, 3]"] ;
502 -> 503 ;
504 [label="gini = 0.0\nsamples = 4\nvalue = [0, 4]"] ;
502 -> 504 ;
505 [label="gini = 0.0\nsamples = 10\nvalue = [10, 0]"] ;
501 -> 505 ;
506 [label="state_fips_code <= 0.331\ngini = 0.068\nsamples = 457\nvalue = [441, 16]"] ;
492 -> 506 ;
507 [label="state_fips_code <= 0.305\ngini = 0.138\nsamples = 121\nvalue = [112, 9]"] ;
506 -> 507 ;
508 [label="income <= 0.216\ngini = 0.036\nsamples = 108\nvalue = [106, 2]"] ;
507 -> 508 ;
509 [label="gini = 0.095\nsamples = 40\nvalue = [38, 2]"] ;
508 -> 509 ;
510 [label="gini = 0.0\nsamples = 68\nvalue = [68, 0]"] ;
508 -> 510 ;
511 [label="state_fips_code <= 0.318\ngini = 0.497\nsamples = 13\nvalue = [6, 7]"] ;
507 -> 511 ;
512 [label="gini = 0.0\nsamples = 4\nvalue = [0, 4]"] ;
511 -> 512 ;
513 [label="gini = 0.444\nsamples = 9\nvalue = [6, 3]"] ;
511 -> 513 ;
514 [label="case_positive_specimen_interval <= 0.063\ngini = 0.041\nsamples = 336\nvalue = [329, 7]"] ;
506 -> 514 ;
515 [label="income <= 0.235\ngini = 0.03\nsamples = 325\nvalue = [320, 5]"] ;
514 -> 515 ;
516 [label="gini = 0.064\nsamples = 91\nvalue = [88, 3]"] ;
515 -> 516 ;
517 [label="gini = 0.017\nsamples = 234\nvalue = [232, 2]"] ;
515 -> 517 ;
518 [label="case_month <= 0.809\ngini = 0.298\nsamples = 11\nvalue = [9, 2]"] ;
514 -> 518 ;
519 [label="gini = 0.5\nsamples = 4\nvalue = [2, 2]"] ;
518 -> 519 ;
520 [label="gini = 0.0\nsamples = 7\nvalue = [7, 0]"] ;
518 -> 520 ;
521 [label="gini = 0.0\nsamples = 5\nvalue = [0, 5]"] ;
491 -> 521 ;
522 [label="people_vaccinated <= 0.953\ngini = 0.194\nsamples = 4691\nvalue = [512, 4179]"] ;
330 -> 522 ;
523 [label="risk_factor_tf <= 0.5\ngini = 0.161\nsamples = 4404\nvalue = [388, 4016]"] ;
522 -> 523 ;
524 [label="race_Asian <= 0.5\ngini = 0.074\nsamples = 26\nvalue = [25, 1]"] ;
523 -> 524 ;
525 [label="gini = 0.0\nsamples = 24\nvalue = [24, 0]"] ;
524 -> 525 ;
526 [label="people_vaccinated <= 0.01\ngini = 0.5\nsamples = 2\nvalue = [1, 1]"] ;
524 -> 526 ;
527 [label="gini = 0.0\nsamples = 1\nvalue = [1, 0]"] ;
526 -> 527 ;
528 [label="gini = 0.0\nsamples = 1\nvalue = [0, 1]"] ;
526 -> 528 ;
529 [label="people_vaccinated <= 0.308\ngini = 0.152\nsamples = 4378\nvalue = [363, 4015]"] ;
523 -> 529 ;
530 [label="state_fips_code <= 0.136\ngini = 0.1\nsamples = 2867\nvalue = [151, 2716]"] ;
529 -> 530 ;
531 [label="income <= 0.159\ngini = 0.026\nsamples = 618\nvalue = [8, 610]"] ;
530 -> 531 ;
532 [label="income <= 0.124\ngini = 0.48\nsamples = 5\nvalue = [2, 3]"] ;
531 -> 532 ;
533 [label="gini = 0.0\nsamples = 3\nvalue = [0, 3]"] ;
532 -> 533 ;
534 [label="gini = 0.0\nsamples = 2\nvalue = [2, 0]"] ;
532 -> 534 ;
535 [label="case_positive_specimen_interval <= 0.005\ngini = 0.019\nsamples = 613\nvalue = [6, 607]"] ;
531 -> 535 ;
536 [label="case_month <= 0.044\ngini = 0.061\nsamples = 189\nvalue = [6, 183]"] ;
535 -> 536 ;
537 [label="income <= 0.403\ngini = 0.278\nsamples = 6\nvalue = [1, 5]"] ;
536 -> 537 ;
538 [label="gini = 0.0\nsamples = 4\nvalue = [0, 4]"] ;
537 -> 538 ;
539 [label="gini = 0.5\nsamples = 2\nvalue = [1, 1]"] ;
537 -> 539 ;
540 [label="income <= 0.366\ngini = 0.053\nsamples = 183\nvalue = [5, 178]"] ;
536 -> 540 ;
541 [label="gini = 0.088\nsamples = 108\nvalue = [5, 103]"] ;
540 -> 541 ;
542 [label="gini = 0.0\nsamples = 75\nvalue = [0, 75]"] ;
540 -> 542 ;
543 [label="gini = 0.0\nsamples = 424\nvalue = [0, 424]"] ;
535 -> 543 ;
544 [label="income <= 0.096\ngini = 0.119\nsamples = 2249\nvalue = [143, 2106]"] ;
530 -> 544 ;
545 [label="case_month <= 0.265\ngini = 0.375\nsamples = 4\nvalue = [3, 1]"] ;
544 -> 545 ;
546 [label="gini = 0.0\nsamples = 3\nvalue = [3, 0]"] ;
545 -> 546 ;
547 [label="gini = 0.0\nsamples = 1\nvalue = [0, 1]"] ;
545 -> 547 ;
548 [label="case_month <= 0.074\ngini = 0.117\nsamples = 2245\nvalue = [140, 2105]"] ;
544 -> 548 ;
549 [label="case_positive_specimen_interval <= 0.063\ngini = 0.059\nsamples = 587\nvalue = [18, 569]"] ;
548 -> 549 ;
550 [label="state_fips_code <= 0.688\ngini = 0.053\nsamples = 585\nvalue = [16, 569]"] ;
549 -> 550 ;
551 [label="gini = 0.05\nsamples = 583\nvalue = [15, 568]"] ;
550 -> 551 ;
552 [label="gini = 0.5\nsamples = 2\nvalue = [1, 1]"] ;
550 -> 552 ;
553 [label="gini = 0.0\nsamples = 2\nvalue = [2, 0]"] ;
549 -> 553 ;
554 [label="ethnicity_Hispanic/Latino <= 0.5\ngini = 0.136\nsamples = 1658\nvalue = [122, 1536]"] ;
548 -> 554 ;
555 [label="state_fips_code <= 0.214\ngini = 0.152\nsamples = 1407\nvalue = [117, 1290]"] ;
554 -> 555 ;
556 [label="gini = 0.078\nsamples = 271\nvalue = [11, 260]"] ;
555 -> 556 ;
557 [label="gini = 0.169\nsamples = 1136\nvalue = [106, 1030]"] ;
555 -> 557 ;
558 [label="case_positive_specimen_interval <= 0.063\ngini = 0.039\nsamples = 251\nvalue = [5, 246]"] ;
554 -> 558 ;
559 [label="gini = 0.032\nsamples = 245\nvalue = [4, 241]"] ;
558 -> 559 ;
560 [label="gini = 0.278\nsamples = 6\nvalue = [1, 5]"] ;
558 -> 560 ;
561 [label="income <= 0.602\ngini = 0.241\nsamples = 1511\nvalue = [212, 1299]"] ;
529 -> 561 ;
562 [label="state_fips_code <= 0.214\ngini = 0.216\nsamples = 1455\nvalue = [179, 1276]"] ;
561 -> 562 ;
563 [label="income <= 0.126\ngini = 0.087\nsamples = 550\nvalue = [25, 525]"] ;
562 -> 563 ;
564 [label="gini = 0.0\nsamples = 3\nvalue = [3, 0]"] ;
563 -> 564 ;
565 [label="case_month <= 0.485\ngini = 0.077\nsamples = 547\nvalue = [22, 525]"] ;
563 -> 565 ;
566 [label="case_positive_specimen_interval <= 0.005\ngini = 0.266\nsamples = 38\nvalue = [6, 32]"] ;
565 -> 566 ;
567 [label="gini = 0.42\nsamples = 20\nvalue = [6, 14]"] ;
566 -> 567 ;
568 [label="gini = 0.0\nsamples = 18\nvalue = [0, 18]"] ;
566 -> 568 ;
569 [label="case_positive_specimen_interval <= 0.091\ngini = 0.061\nsamples = 509\nvalue = [16, 493]"] ;
565 -> 569 ;
570 [label="gini = 0.057\nsamples = 508\nvalue = [15, 493]"] ;
569 -> 570 ;
571 [label="gini = 0.0\nsamples = 1\nvalue = [1, 0]"] ;
569 -> 571 ;
572 [label="state_fips_code <= 0.351\ngini = 0.282\nsamples = 905\nvalue = [154, 751]"] ;
562 -> 572 ;
573 [label="state_fips_code <= 0.331\ngini = 0.416\nsamples = 237\nvalue = [70, 167]"] ;
572 -> 573 ;
574 [label="state_fips_code <= 0.305\ngini = 0.268\nsamples = 176\nvalue = [28, 148]"] ;
573 -> 574 ;
575 [label="gini = 0.438\nsamples = 68\nvalue = [22, 46]"] ;
574 -> 575 ;
576 [label="gini = 0.105\nsamples = 108\nvalue = [6, 102]"] ;
574 -> 576 ;
577 [label="people_vaccinated <= 0.817\ngini = 0.429\nsamples = 61\nvalue = [42, 19]"] ;
573 -> 577 ;
578 [label="gini = 0.0\nsamples = 11\nvalue = [11, 0]"] ;
577 -> 578 ;
579 [label="gini = 0.471\nsamples = 50\nvalue = [31, 19]"] ;
577 -> 579 ;
580 [label="case_positive_specimen_interval <= 0.038\ngini = 0.22\nsamples = 668\nvalue = [84, 584]"] ;
572 -> 580 ;
581 [label="state_fips_code <= 0.409\ngini = 0.208\nsamples = 660\nvalue = [78, 582]"] ;
580 -> 581 ;
582 [label="gini = 0.0\nsamples = 83\nvalue = [0, 83]"] ;
581 -> 582 ;
583 [label="gini = 0.234\nsamples = 577\nvalue = [78, 499]"] ;
581 -> 583 ;
584 [label="ethnicity_Hispanic/Latino <= 0.5\ngini = 0.375\nsamples = 8\nvalue = [6, 2]"] ;
580 -> 584 ;
585 [label="gini = 0.245\nsamples = 7\nvalue = [6, 1]"] ;
584 -> 585 ;
586 [label="gini = 0.0\nsamples = 1\nvalue = [0, 1]"] ;
584 -> 586 ;
587 [label="state_fips_code <= 0.325\ngini = 0.484\nsamples = 56\nvalue = [33, 23]"] ;
561 -> 587 ;
588 [label="income <= 0.625\ngini = 0.305\nsamples = 16\nvalue = [3, 13]"] ;
587 -> 588 ;
589 [label="gini = 0.0\nsamples = 2\nvalue = [2, 0]"] ;
588 -> 589 ;
590 [label="income <= 0.65\ngini = 0.133\nsamples = 14\nvalue = [1, 13]"] ;
588 -> 590 ;
591 [label="state_fips_code <= 0.182\ngini = 0.444\nsamples = 3\nvalue = [1, 2]"] ;
590 -> 591 ;
592 [label="gini = 0.0\nsamples = 2\nvalue = [0, 2]"] ;
591 -> 592 ;
593 [label="gini = 0.0\nsamples = 1\nvalue = [1, 0]"] ;
591 -> 593 ;
594 [label="gini = 0.0\nsamples = 11\nvalue = [0, 11]"] ;
590 -> 594 ;
595 [label="ethnicity_Hispanic/Latino <= 0.5\ngini = 0.375\nsamples = 40\nvalue = [30, 10]"] ;
587 -> 595 ;
596 [label="people_vaccinated <= 0.926\ngini = 0.332\nsamples = 38\nvalue = [30, 8]"] ;
595 -> 596 ;
597 [label="income <= 0.647\ngini = 0.444\nsamples = 21\nvalue = [14, 7]"] ;
596 -> 597 ;
598 [label="gini = 0.497\nsamples = 13\nvalue = [7, 6]"] ;
597 -> 598 ;
599 [label="gini = 0.219\nsamples = 8\nvalue = [7, 1]"] ;
597 -> 599 ;
600 [label="state_fips_code <= 0.63\ngini = 0.111\nsamples = 17\nvalue = [16, 1]"] ;
596 -> 600 ;
601 [label="gini = 0.0\nsamples = 16\nvalue = [16, 0]"] ;
600 -> 601 ;
602 [label="gini = 0.0\nsamples = 1\nvalue = [0, 1]"] ;
600 -> 602 ;
603 [label="gini = 0.0\nsamples = 2\nvalue = [0, 2]"] ;
595 -> 603 ;
604 [label="state_fips_code <= 0.331\ngini = 0.491\nsamples = 287\nvalue = [124, 163]"] ;
522 -> 604 ;
605 [label="risk_factor_tf <= 0.5\ngini = 0.222\nsamples = 134\nvalue = [17, 117]"] ;
604 -> 605 ;
606 [label="gini = 0.0\nsamples = 2\nvalue = [2, 0]"] ;
605 -> 606 ;
607 [label="people_vaccinated <= 0.969\ngini = 0.201\nsamples = 132\nvalue = [15, 117]"] ;
605 -> 607 ;
608 [label="case_positive_specimen_interval <= 0.024\ngini = 0.417\nsamples = 27\nvalue = [8, 19]"] ;
607 -> 608 ;
609 [label="income <= 0.294\ngini = 0.365\nsamples = 25\nvalue = [6, 19]"] ;
608 -> 609 ;
610 [label="income <= 0.252\ngini = 0.5\nsamples = 8\nvalue = [4, 4]"] ;
609 -> 610 ;
611 [label="race_Asian <= 0.5\ngini = 0.32\nsamples = 5\nvalue = [1, 4]"] ;
610 -> 611 ;
612 [label="gini = 0.0\nsamples = 4\nvalue = [0, 4]"] ;
611 -> 612 ;
613 [label="gini = 0.0\nsamples = 1\nvalue = [1, 0]"] ;
611 -> 613 ;
614 [label="gini = 0.0\nsamples = 3\nvalue = [3, 0]"] ;
610 -> 614 ;
615 [label="income <= 0.384\ngini = 0.208\nsamples = 17\nvalue = [2, 15]"] ;
609 -> 615 ;
616 [label="gini = 0.0\nsamples = 12\nvalue = [0, 12]"] ;
615 -> 616 ;
617 [label="income <= 0.432\ngini = 0.48\nsamples = 5\nvalue = [2, 3]"] ;
615 -> 617 ;
618 [label="gini = 0.0\nsamples = 2\nvalue = [2, 0]"] ;
617 -> 618 ;
619 [label="gini = 0.0\nsamples = 3\nvalue = [0, 3]"] ;
617 -> 619 ;
620 [label="gini = 0.0\nsamples = 2\nvalue = [2, 0]"] ;
608 -> 620 ;
621 [label="income <= 0.386\ngini = 0.124\nsamples = 105\nvalue = [7, 98]"] ;
607 -> 621 ;
622 [label="state_fips_code <= 0.227\ngini = 0.046\nsamples = 84\nvalue = [2, 82]"] ;
621 -> 622 ;
623 [label="gini = 0.0\nsamples = 63\nvalue = [0, 63]"] ;
622 -> 623 ;
624 [label="state_fips_code <= 0.253\ngini = 0.172\nsamples = 21\nvalue = [2, 19]"] ;
622 -> 624 ;
625 [label="case_month <= 0.897\ngini = 0.5\nsamples = 2\nvalue = [1, 1]"] ;
624 -> 625 ;
626 [label="gini = 0.0\nsamples = 1\nvalue = [0, 1]"] ;
625 -> 626 ;
627 [label="gini = 0.0\nsamples = 1\nvalue = [1, 0]"] ;
625 -> 627 ;
628 [label="income <= 0.337\ngini = 0.1\nsamples = 19\nvalue = [1, 18]"] ;
624 -> 628 ;
629 [label="gini = 0.0\nsamples = 16\nvalue = [0, 16]"] ;
628 -> 629 ;
630 [label="gini = 0.444\nsamples = 3\nvalue = [1, 2]"] ;
628 -> 630 ;
631 [label="income <= 0.453\ngini = 0.363\nsamples = 21\nvalue = [5, 16]"] ;
621 -> 631 ;
632 [label="state_fips_code <= 0.305\ngini = 0.32\nsamples = 5\nvalue = [4, 1]"] ;
631 -> 632 ;
633 [label="gini = 0.0\nsamples = 4\nvalue = [4, 0]"] ;
632 -> 633 ;
634 [label="gini = 0.0\nsamples = 1\nvalue = [0, 1]"] ;
632 -> 634 ;
635 [label="race_Black <= 0.5\ngini = 0.117\nsamples = 16\nvalue = [1, 15]"] ;
631 -> 635 ;
636 [label="gini = 0.0\nsamples = 15\nvalue = [0, 15]"] ;
635 -> 636 ;
637 [label="gini = 0.0\nsamples = 1\nvalue = [1, 0]"] ;
635 -> 637 ;
638 [label="state_fips_code <= 0.662\ngini = 0.421\nsamples = 153\nvalue = [107, 46]"] ;
604 -> 638 ;
639 [label="income <= 0.301\ngini = 0.258\nsamples = 125\nvalue = [106, 19]"] ;
638 -> 639 ;
640 [label="income <= 0.282\ngini = 0.444\nsamples = 51\nvalue = [34, 17]"] ;
639 -> 640 ;
641 [label="race_Asian <= 0.5\ngini = 0.301\nsamples = 38\nvalue = [31, 7]"] ;
640 -> 641 ;
642 [label="sex_Female <= 0.5\ngini = 0.272\nsamples = 37\nvalue = [31, 6]"] ;
641 -> 642 ;
643 [label="people_vaccinated <= 0.98\ngini = 0.153\nsamples = 24\nvalue = [22, 2]"] ;
642 -> 643 ;
644 [label="gini = 0.26\nsamples = 13\nvalue = [11, 2]"] ;
643 -> 644 ;
645 [label="gini = 0.0\nsamples = 11\nvalue = [11, 0]"] ;
643 -> 645 ;
646 [label="state_fips_code <= 0.513\ngini = 0.426\nsamples = 13\nvalue = [9, 4]"] ;
642 -> 646 ;
647 [label="gini = 0.298\nsamples = 11\nvalue = [9, 2]"] ;
646 -> 647 ;
648 [label="gini = 0.0\nsamples = 2\nvalue = [0, 2]"] ;
646 -> 648 ;
649 [label="gini = 0.0\nsamples = 1\nvalue = [0, 1]"] ;
641 -> 649 ;
650 [label="case_positive_specimen_interval <= 0.005\ngini = 0.355\nsamples = 13\nvalue = [3, 10]"] ;
640 -> 650 ;
651 [label="state_fips_code <= 0.37\ngini = 0.278\nsamples = 12\nvalue = [2, 10]"] ;
650 -> 651 ;
652 [label="gini = 0.0\nsamples = 1\nvalue = [1, 0]"] ;
651 -> 652 ;
653 [label="income <= 0.292\ngini = 0.165\nsamples = 11\nvalue = [1, 10]"] ;
651 -> 653 ;
654 [label="gini = 0.0\nsamples = 6\nvalue = [0, 6]"] ;
653 -> 654 ;
655 [label="gini = 0.32\nsamples = 5\nvalue = [1, 4]"] ;
653 -> 655 ;
656 [label="gini = 0.0\nsamples = 1\nvalue = [1, 0]"] ;
650 -> 656 ;
657 [label="race_Black <= 0.5\ngini = 0.053\nsamples = 74\nvalue = [72, 2]"] ;
639 -> 657 ;
658 [label="gini = 0.0\nsamples = 64\nvalue = [64, 0]"] ;
657 -> 658 ;
659 [label="sex_Female <= 0.5\ngini = 0.32\nsamples = 10\nvalue = [8, 2]"] ;
657 -> 659 ;
660 [label="gini = 0.0\nsamples = 6\nvalue = [6, 0]"] ;
659 -> 660 ;
661 [label="income <= 0.383\ngini = 0.5\nsamples = 4\nvalue = [2, 2]"] ;
659 -> 661 ;
662 [label="gini = 0.0\nsamples = 1\nvalue = [1, 0]"] ;
661 -> 662 ;
663 [label="case_month <= 0.838\ngini = 0.444\nsamples = 3\nvalue = [1, 2]"] ;
661 -> 663 ;
664 [label="gini = 0.0\nsamples = 2\nvalue = [0, 2]"] ;
663 -> 664 ;
665 [label="gini = 0.0\nsamples = 1\nvalue = [1, 0]"] ;
663 -> 665 ;
666 [label="income <= 0.213\ngini = 0.069\nsamples = 28\nvalue = [1, 27]"] ;
638 -> 666 ;
667 [label="gini = 0.0\nsamples = 1\nvalue = [1, 0]"] ;
666 -> 667 ;
668 [label="gini = 0.0\nsamples = 27\nvalue = [0, 27]"] ;
666 -> 668 ;
}