digraph Tree {
node [shape=box, fontname="helvetica"] ;
edge [fontname="helvetica"] ;
0 [label="age_group <= 2.5\ngini = 0.365\nsamples = 26558\nvalue = [20190, 6368]"] ;
1 [label="hosp_tf <= 0.5\ngini = 0.083\nsamples = 18411\nvalue = [17617, 794]"] ;
0 -> 1 [labeldistance=2.5, labelangle=45, headlabel="True"] ;
2 [label="age_group <= 1.5\ngini = 0.023\nsamples = 16372\nvalue = [16180, 192]"] ;
1 -> 2 ;
3 [label="state_fips_code <= 7.0\ngini = 0.006\nsamples = 12767\nvalue = [12730, 37]"] ;
2 -> 3 ;
4 [label="state_fips_code <= 5.5\ngini = 0.072\nsamples = 452\nvalue = [435, 17]"] ;
3 -> 4 ;
5 [label="ethnicity_Hispanic/Latino <= 0.5\ngini = 0.027\nsamples = 441\nvalue = [435, 6]"] ;
4 -> 5 ;
6 [label="people_vaccinated <= 238957816.0\ngini = 0.006\nsamples = 334\nvalue = [333, 1]"] ;
5 -> 6 ;
7 [label="gini = 0.0\nsamples = 272\nvalue = [272, 0]"] ;
6 -> 7 ;
8 [label="income <= 64440.0\ngini = 0.032\nsamples = 62\nvalue = [61, 1]"] ;
6 -> 8 ;
9 [label="gini = 0.0\nsamples = 47\nvalue = [47, 0]"] ;
8 -> 9 ;
10 [label="people_vaccinated <= 244129024.0\ngini = 0.124\nsamples = 15\nvalue = [14, 1]"] ;
8 -> 10 ;
11 [label="gini = 0.0\nsamples = 1\nvalue = [0, 1]"] ;
10 -> 11 ;
12 [label="gini = 0.0\nsamples = 14\nvalue = [14, 0]"] ;
10 -> 12 ;
13 [label="income <= 61964.0\ngini = 0.089\nsamples = 107\nvalue = [102, 5]"] ;
5 -> 13 ;
14 [label="gini = 0.0\nsamples = 54\nvalue = [54, 0]"] ;
13 -> 14 ;
15 [label="age_group <= 0.5\ngini = 0.171\nsamples = 53\nvalue = [48, 5]"] ;
13 -> 15 ;
16 [label="gini = 0.0\nsamples = 17\nvalue = [17, 0]"] ;
15 -> 16 ;
17 [label="people_vaccinated <= 200020688.0\ngini = 0.239\nsamples = 36\nvalue = [31, 5]"] ;
15 -> 17 ;
18 [label="case_month <= 5.5\ngini = 0.137\nsamples = 27\nvalue = [25, 2]"] ;
17 -> 18 ;
19 [label="gini = 0.375\nsamples = 8\nvalue = [6, 2]"] ;
18 -> 19 ;
20 [label="gini = 0.0\nsamples = 19\nvalue = [19, 0]"] ;
18 -> 20 ;
21 [label="case_positive_specimen_interval <= 1.5\ngini = 0.444\nsamples = 9\nvalue = [6, 3]"] ;
17 -> 21 ;
22 [label="gini = 0.5\nsamples = 6\nvalue = [3, 3]"] ;
21 -> 22 ;
23 [label="gini = 0.0\nsamples = 3\nvalue = [3, 0]"] ;
21 -> 23 ;
24 [label="gini = 0.0\nsamples = 11\nvalue = [0, 11]"] ;
4 -> 24 ;
25 [label="state_fips_code <= 64.0\ngini = 0.003\nsamples = 12315\nvalue = [12295, 20]"] ;
3 -> 25 ;
26 [label="case_month <= 1.5\ngini = 0.003\nsamples = 12312\nvalue = [12293, 19]"] ;
25 -> 26 ;
27 [label="income <= 51786.5\ngini = 0.059\nsamples = 66\nvalue = [64, 2]"] ;
26 -> 27 ;
28 [label="state_fips_code <= 37.5\ngini = 0.444\nsamples = 6\nvalue = [4, 2]"] ;
27 -> 28 ;
29 [label="risk_factor_tf <= 0.5\ngini = 0.32\nsamples = 5\nvalue = [4, 1]"] ;
28 -> 29 ;
30 [label="state_fips_code <= 27.0\ngini = 0.444\nsamples = 3\nvalue = [2, 1]"] ;
29 -> 30 ;
31 [label="gini = 0.0\nsamples = 1\nvalue = [0, 1]"] ;
30 -> 31 ;
32 [label="gini = 0.0\nsamples = 2\nvalue = [2, 0]"] ;
30 -> 32 ;
33 [label="gini = 0.0\nsamples = 2\nvalue = [2, 0]"] ;
29 -> 33 ;
34 [label="gini = 0.0\nsamples = 1\nvalue = [0, 1]"] ;
28 -> 34 ;
35 [label="gini = 0.0\nsamples = 60\nvalue = [60, 0]"] ;
27 -> 35 ;
36 [label="state_fips_code <= 47.5\ngini = 0.003\nsamples = 12246\nvalue = [12229, 17]"] ;
26 -> 36 ;
37 [label="case_month <= 2.5\ngini = 0.002\nsamples = 10664\nvalue = [10655, 9]"] ;
36 -> 37 ;
38 [label="income <= 100382.0\ngini = 0.019\nsamples = 103\nvalue = [102, 1]"] ;
37 -> 38 ;
39 [label="gini = 0.0\nsamples = 79\nvalue = [79, 0]"] ;
38 -> 39 ;
40 [label="income <= 101817.0\ngini = 0.08\nsamples = 24\nvalue = [23, 1]"] ;
38 -> 40 ;
41 [label="gini = 0.219\nsamples = 8\nvalue = [7, 1]"] ;
40 -> 41 ;
42 [label="gini = 0.0\nsamples = 16\nvalue = [16, 0]"] ;
40 -> 42 ;
43 [label="state_fips_code <= 26.5\ngini = 0.002\nsamples = 10561\nvalue = [10553, 8]"] ;
37 -> 43 ;
44 [label="state_fips_code <= 25.5\ngini = 0.004\nsamples = 4099\nvalue = [4091, 8]"] ;
43 -> 44 ;
45 [label="gini = 0.003\nsamples = 3801\nvalue = [3796, 5]"] ;
44 -> 45 ;
46 [label="gini = 0.02\nsamples = 298\nvalue = [295, 3]"] ;
44 -> 46 ;
47 [label="gini = 0.0\nsamples = 6462\nvalue = [6462, 0]"] ;
43 -> 47 ;
48 [label="income <= 57516.0\ngini = 0.01\nsamples = 1582\nvalue = [1574, 8]"] ;
36 -> 48 ;
49 [label="income <= 56884.5\ngini = 0.029\nsamples = 408\nvalue = [402, 6]"] ;
48 -> 49 ;
50 [label="gini = 0.0\nsamples = 359\nvalue = [359, 0]"] ;
49 -> 50 ;
51 [label="case_month <= 17.5\ngini = 0.215\nsamples = 49\nvalue = [43, 6]"] ;
49 -> 51 ;
52 [label="gini = 0.067\nsamples = 29\nvalue = [28, 1]"] ;
51 -> 52 ;
53 [label="gini = 0.375\nsamples = 20\nvalue = [15, 5]"] ;
51 -> 53 ;
54 [label="case_month <= 4.5\ngini = 0.003\nsamples = 1174\nvalue = [1172, 2]"] ;
48 -> 54 ;
55 [label="income <= 62952.0\ngini = 0.032\nsamples = 62\nvalue = [61, 1]"] ;
54 -> 55 ;
56 [label="gini = 0.091\nsamples = 21\nvalue = [20, 1]"] ;
55 -> 56 ;
57 [label="gini = 0.0\nsamples = 41\nvalue = [41, 0]"] ;
55 -> 57 ;
58 [label="income <= 59674.5\ngini = 0.002\nsamples = 1112\nvalue = [1111, 1]"] ;
54 -> 58 ;
59 [label="gini = 0.012\nsamples = 172\nvalue = [171, 1]"] ;
58 -> 59 ;
60 [label="gini = 0.0\nsamples = 940\nvalue = [940, 0]"] ;
58 -> 60 ;
61 [label="case_month <= 17.5\ngini = 0.444\nsamples = 3\nvalue = [2, 1]"] ;
25 -> 61 ;
62 [label="gini = 0.0\nsamples = 2\nvalue = [2, 0]"] ;
61 -> 62 ;
63 [label="gini = 0.0\nsamples = 1\nvalue = [0, 1]"] ;
61 -> 63 ;
64 [label="state_fips_code <= 17.5\ngini = 0.082\nsamples = 3605\nvalue = [3450, 155]"] ;
2 -> 64 ;
65 [label="income <= 63330.5\ngini = 0.251\nsamples = 468\nvalue = [399, 69]"] ;
64 -> 65 ;
66 [label="people_vaccinated <= 188332512.0\ngini = 0.158\nsamples = 358\nvalue = [327, 31]"] ;
65 -> 66 ;
67 [label="race_Black <= 0.5\ngini = 0.088\nsamples = 217\nvalue = [207, 10]"] ;
66 -> 67 ;
68 [label="ethnicity_Hispanic/Latino <= 0.5\ngini = 0.045\nsamples = 175\nvalue = [171, 4]"] ;
67 -> 68 ;
69 [label="gini = 0.0\nsamples = 117\nvalue = [117, 0]"] ;
68 -> 69 ;
70 [label="income <= 51813.0\ngini = 0.128\nsamples = 58\nvalue = [54, 4]"] ;
68 -> 70 ;
71 [label="people_vaccinated <= 29896649.0\ngini = 0.188\nsamples = 38\nvalue = [34, 4]"] ;
70 -> 71 ;
72 [label="gini = 0.087\nsamples = 22\nvalue = [21, 1]"] ;
71 -> 72 ;
73 [label="gini = 0.305\nsamples = 16\nvalue = [13, 3]"] ;
71 -> 73 ;
74 [label="gini = 0.0\nsamples = 20\nvalue = [20, 0]"] ;
70 -> 74 ;
75 [label="people_vaccinated <= 5568356.0\ngini = 0.245\nsamples = 42\nvalue = [36, 6]"] ;
67 -> 75 ;
76 [label="case_month <= 5.5\ngini = 0.137\nsamples = 27\nvalue = [25, 2]"] ;
75 -> 76 ;
77 [label="income <= 58900.5\ngini = 0.219\nsamples = 16\nvalue = [14, 2]"] ;
76 -> 77 ;
78 [label="gini = 0.346\nsamples = 9\nvalue = [7, 2]"] ;
77 -> 78 ;
79 [label="gini = 0.0\nsamples = 7\nvalue = [7, 0]"] ;
77 -> 79 ;
80 [label="gini = 0.0\nsamples = 11\nvalue = [11, 0]"] ;
76 -> 80 ;
81 [label="people_vaccinated <= 43057728.0\ngini = 0.391\nsamples = 15\nvalue = [11, 4]"] ;
75 -> 81 ;
82 [label="state_fips_code <= 3.0\ngini = 0.5\nsamples = 8\nvalue = [4, 4]"] ;
81 -> 82 ;
83 [label="gini = 0.0\nsamples = 2\nvalue = [0, 2]"] ;
82 -> 83 ;
84 [label="gini = 0.444\nsamples = 6\nvalue = [4, 2]"] ;
82 -> 84 ;
85 [label="gini = 0.0\nsamples = 7\nvalue = [7, 0]"] ;
81 -> 85 ;
86 [label="case_month <= 19.0\ngini = 0.254\nsamples = 141\nvalue = [120, 21]"] ;
66 -> 86 ;
87 [label="ethnicity_Hispanic/Latino <= 0.5\ngini = 0.469\nsamples = 40\nvalue = [25, 15]"] ;
86 -> 87 ;
88 [label="people_vaccinated <= 200018432.0\ngini = 0.498\nsamples = 32\nvalue = [17, 15]"] ;
87 -> 88 ;
89 [label="income <= 52967.0\ngini = 0.375\nsamples = 12\nvalue = [9, 3]"] ;
88 -> 89 ;
90 [label="gini = 0.5\nsamples = 4\nvalue = [2, 2]"] ;
89 -> 90 ;
91 [label="gini = 0.219\nsamples = 8\nvalue = [7, 1]"] ;
89 -> 91 ;
92 [label="sex_Female <= 0.5\ngini = 0.48\nsamples = 20\nvalue = [8, 12]"] ;
88 -> 92 ;
93 [label="gini = 0.32\nsamples = 10\nvalue = [2, 8]"] ;
92 -> 93 ;
94 [label="gini = 0.48\nsamples = 10\nvalue = [6, 4]"] ;
92 -> 94 ;
95 [label="gini = 0.0\nsamples = 8\nvalue = [8, 0]"] ;
87 -> 95 ;
96 [label="state_fips_code <= 2.5\ngini = 0.112\nsamples = 101\nvalue = [95, 6]"] ;
86 -> 96 ;
97 [label="gini = 0.0\nsamples = 1\nvalue = [0, 1]"] ;
96 -> 97 ;
98 [label="people_vaccinated <= 252830712.0\ngini = 0.095\nsamples = 100\nvalue = [95, 5]"] ;
96 -> 98 ;
99 [label="people_vaccinated <= 247776712.0\ngini = 0.158\nsamples = 58\nvalue = [53, 5]"] ;
98 -> 99 ;
100 [label="gini = 0.059\nsamples = 33\nvalue = [32, 1]"] ;
99 -> 100 ;
101 [label="gini = 0.269\nsamples = 25\nvalue = [21, 4]"] ;
99 -> 101 ;
102 [label="gini = 0.0\nsamples = 42\nvalue = [42, 0]"] ;
98 -> 102 ;
103 [label="sex_Female <= 0.5\ngini = 0.452\nsamples = 110\nvalue = [72, 38]"] ;
65 -> 103 ;
104 [label="state_fips_code <= 7.0\ngini = 0.497\nsamples = 67\nvalue = [36, 31]"] ;
103 -> 104 ;
105 [label="state_fips_code <= 5.5\ngini = 0.469\nsamples = 40\nvalue = [15, 25]"] ;
104 -> 105 ;
106 [label="race_White <= 0.5\ngini = 0.434\nsamples = 22\nvalue = [15, 7]"] ;
105 -> 106 ;
107 [label="gini = 0.0\nsamples = 2\nvalue = [0, 2]"] ;
106 -> 107 ;
108 [label="people_vaccinated <= 118349838.0\ngini = 0.375\nsamples = 20\nvalue = [15, 5]"] ;
106 -> 108 ;
109 [label="gini = 0.165\nsamples = 11\nvalue = [10, 1]"] ;
108 -> 109 ;
110 [label="gini = 0.494\nsamples = 9\nvalue = [5, 4]"] ;
108 -> 110 ;
111 [label="gini = 0.0\nsamples = 18\nvalue = [0, 18]"] ;
105 -> 111 ;
112 [label="state_fips_code <= 16.5\ngini = 0.346\nsamples = 27\nvalue = [21, 6]"] ;
104 -> 112 ;
113 [label="income <= 91032.5\ngini = 0.219\nsamples = 24\nvalue = [21, 3]"] ;
112 -> 113 ;
114 [label="case_month <= 17.0\ngini = 0.165\nsamples = 22\nvalue = [20, 2]"] ;
113 -> 114 ;
115 [label="gini = 0.0\nsamples = 13\nvalue = [13, 0]"] ;
114 -> 115 ;
116 [label="gini = 0.346\nsamples = 9\nvalue = [7, 2]"] ;
114 -> 116 ;
117 [label="case_month <= 3.0\ngini = 0.5\nsamples = 2\nvalue = [1, 1]"] ;
113 -> 117 ;
118 [label="gini = 0.0\nsamples = 1\nvalue = [0, 1]"] ;
117 -> 118 ;
119 [label="gini = 0.0\nsamples = 1\nvalue = [1, 0]"] ;
117 -> 119 ;
120 [label="gini = 0.0\nsamples = 3\nvalue = [0, 3]"] ;
112 -> 120 ;
121 [label="state_fips_code <= 16.5\ngini = 0.273\nsamples = 43\nvalue = [36, 7]"] ;
103 -> 121 ;
122 [label="people_vaccinated <= 200018432.0\ngini = 0.214\nsamples = 41\nvalue = [36, 5]"] ;
121 -> 122 ;
123 [label="ethnicity_Hispanic/Latino <= 0.5\ngini = 0.067\nsamples = 29\nvalue = [28, 1]"] ;
122 -> 123 ;
124 [label="gini = 0.0\nsamples = 23\nvalue = [23, 0]"] ;
123 -> 124 ;
125 [label="income <= 66256.0\ngini = 0.278\nsamples = 6\nvalue = [5, 1]"] ;
123 -> 125 ;
126 [label="gini = 0.0\nsamples = 4\nvalue = [4, 0]"] ;
125 -> 126 ;
127 [label="gini = 0.5\nsamples = 2\nvalue = [1, 1]"] ;
125 -> 127 ;
128 [label="case_month <= 23.0\ngini = 0.444\nsamples = 12\nvalue = [8, 4]"] ;
122 -> 128 ;
129 [label="income <= 68364.0\ngini = 0.49\nsamples = 7\nvalue = [3, 4]"] ;
128 -> 129 ;
130 [label="gini = 0.444\nsamples = 6\nvalue = [2, 4]"] ;
129 -> 130 ;
131 [label="gini = 0.0\nsamples = 1\nvalue = [1, 0]"] ;
129 -> 131 ;
132 [label="gini = 0.0\nsamples = 5\nvalue = [5, 0]"] ;
128 -> 132 ;
133 [label="gini = 0.0\nsamples = 2\nvalue = [0, 2]"] ;
121 -> 133 ;
134 [label="case_month <= 2.5\ngini = 0.053\nsamples = 3137\nvalue = [3051, 86]"] ;
64 -> 134 ;
135 [label="income <= 100914.5\ngini = 0.259\nsamples = 85\nvalue = [72, 13]"] ;
134 -> 135 ;
136 [label="income <= 51666.0\ngini = 0.123\nsamples = 61\nvalue = [57, 4]"] ;
135 -> 136 ;
137 [label="case_month <= 1.5\ngini = 0.375\nsamples = 12\nvalue = [9, 3]"] ;
136 -> 137 ;
138 [label="gini = 0.0\nsamples = 6\nvalue = [6, 0]"] ;
137 -> 138 ;
139 [label="income <= 49422.5\ngini = 0.5\nsamples = 6\nvalue = [3, 3]"] ;
137 -> 139 ;
140 [label="gini = 0.0\nsamples = 3\nvalue = [3, 0]"] ;
139 -> 140 ;
141 [label="gini = 0.0\nsamples = 3\nvalue = [0, 3]"] ;
139 -> 141 ;
142 [label="sex_Female <= 0.5\ngini = 0.04\nsamples = 49\nvalue = [48, 1]"] ;
136 -> 142 ;
143 [label="income <= 70438.5\ngini = 0.095\nsamples = 20\nvalue = [19, 1]"] ;
142 -> 143 ;
144 [label="income <= 68694.0\ngini = 0.18\nsamples = 10\nvalue = [9, 1]"] ;
143 -> 144 ;
145 [label="gini = 0.0\nsamples = 9\nvalue = [9, 0]"] ;
144 -> 145 ;
146 [label="gini = 0.0\nsamples = 1\nvalue = [0, 1]"] ;
144 -> 146 ;
147 [label="gini = 0.0\nsamples = 10\nvalue = [10, 0]"] ;
143 -> 147 ;
148 [label="gini = 0.0\nsamples = 29\nvalue = [29, 0]"] ;
142 -> 148 ;
149 [label="state_fips_code <= 30.5\ngini = 0.469\nsamples = 24\nvalue = [15, 9]"] ;
135 -> 149 ;
150 [label="gini = 0.0\nsamples = 3\nvalue = [3, 0]"] ;
149 -> 150 ;
151 [label="case_positive_specimen_interval <= 1.0\ngini = 0.49\nsamples = 21\nvalue = [12, 9]"] ;
149 -> 151 ;
152 [label="state_fips_code <= 43.5\ngini = 0.495\nsamples = 20\nvalue = [11, 9]"] ;
151 -> 152 ;
153 [label="sex_Female <= 0.5\ngini = 0.499\nsamples = 19\nvalue = [10, 9]"] ;
152 -> 153 ;
154 [label="gini = 0.496\nsamples = 11\nvalue = [5, 6]"] ;
153 -> 154 ;
155 [label="gini = 0.469\nsamples = 8\nvalue = [5, 3]"] ;
153 -> 155 ;
156 [label="gini = 0.0\nsamples = 1\nvalue = [1, 0]"] ;
152 -> 156 ;
157 [label="gini = 0.0\nsamples = 1\nvalue = [1, 0]"] ;
151 -> 157 ;
158 [label="ethnicity_Hispanic/Latino <= 0.5\ngini = 0.047\nsamples = 3052\nvalue = [2979, 73]"] ;
134 -> 158 ;
159 [label="income <= 63405.0\ngini = 0.037\nsamples = 2877\nvalue = [2823, 54]"] ;
158 -> 159 ;
160 [label="income <= 63363.5\ngini = 0.059\nsamples = 1702\nvalue = [1650, 52]"] ;
159 -> 160 ;
161 [label="income <= 62825.0\ngini = 0.058\nsamples = 1701\nvalue = [1650, 51]"] ;
160 -> 161 ;
162 [label="state_fips_code <= 38.0\ngini = 0.054\nsamples = 1677\nvalue = [1630, 47]"] ;
161 -> 162 ;
163 [label="gini = 0.036\nsamples = 1154\nvalue = [1133, 21]"] ;
162 -> 163 ;
164 [label="gini = 0.094\nsamples = 523\nvalue = [497, 26]"] ;
162 -> 164 ;
165 [label="income <= 62903.5\ngini = 0.278\nsamples = 24\nvalue = [20, 4]"] ;
161 -> 165 ;
166 [label="gini = 0.494\nsamples = 9\nvalue = [5, 4]"] ;
165 -> 166 ;
167 [label="gini = 0.0\nsamples = 15\nvalue = [15, 0]"] ;
165 -> 167 ;
168 [label="gini = 0.0\nsamples = 1\nvalue = [0, 1]"] ;
160 -> 168 ;
169 [label="state_fips_code <= 52.0\ngini = 0.003\nsamples = 1175\nvalue = [1173, 2]"] ;
159 -> 169 ;
170 [label="state_fips_code <= 26.5\ngini = 0.002\nsamples = 1163\nvalue = [1162, 1]"] ;
169 -> 170 ;
171 [label="state_fips_code <= 25.5\ngini = 0.008\nsamples = 259\nvalue = [258, 1]"] ;
170 -> 171 ;
172 [label="gini = 0.0\nsamples = 237\nvalue = [237, 0]"] ;
171 -> 172 ;
173 [label="gini = 0.087\nsamples = 22\nvalue = [21, 1]"] ;
171 -> 173 ;
174 [label="gini = 0.0\nsamples = 904\nvalue = [904, 0]"] ;
170 -> 174 ;
175 [label="state_fips_code <= 54.0\ngini = 0.153\nsamples = 12\nvalue = [11, 1]"] ;
169 -> 175 ;
176 [label="gini = 0.0\nsamples = 1\nvalue = [0, 1]"] ;
175 -> 176 ;
177 [label="gini = 0.0\nsamples = 11\nvalue = [11, 0]"] ;
175 -> 177 ;
178 [label="income <= 40759.5\ngini = 0.194\nsamples = 175\nvalue = [156, 19]"] ;
158 -> 178 ;
179 [label="sex_Female <= 0.5\ngini = 0.497\nsamples = 13\nvalue = [7, 6]"] ;
178 -> 179 ;
180 [label="people_vaccinated <= 17730243.5\ngini = 0.278\nsamples = 6\nvalue = [1, 5]"] ;
179 -> 180 ;
181 [label="gini = 0.0\nsamples = 5\nvalue = [0, 5]"] ;
180 -> 181 ;
182 [label="gini = 0.0\nsamples = 1\nvalue = [1, 0]"] ;
180 -> 182 ;
183 [label="case_month <= 5.5\ngini = 0.245\nsamples = 7\nvalue = [6, 1]"] ;
179 -> 183 ;
184 [label="income <= 39386.0\ngini = 0.5\nsamples = 2\nvalue = [1, 1]"] ;
183 -> 184 ;
185 [label="gini = 0.0\nsamples = 1\nvalue = [1, 0]"] ;
184 -> 185 ;
186 [label="gini = 0.0\nsamples = 1\nvalue = [0, 1]"] ;
184 -> 186 ;
187 [label="gini = 0.0\nsamples = 5\nvalue = [5, 0]"] ;
183 -> 187 ;
188 [label="income <= 59736.0\ngini = 0.148\nsamples = 162\nvalue = [149, 13]"] ;
178 -> 188 ;
189 [label="income <= 57089.0\ngini = 0.278\nsamples = 66\nvalue = [55, 11]"] ;
188 -> 189 ;
190 [label="gini = 0.0\nsamples = 27\nvalue = [27, 0]"] ;
189 -> 190 ;
191 [label="income <= 58065.5\ngini = 0.405\nsamples = 39\nvalue = [28, 11]"] ;
189 -> 191 ;
192 [label="gini = 0.5\nsamples = 16\nvalue = [8, 8]"] ;
191 -> 192 ;
193 [label="gini = 0.227\nsamples = 23\nvalue = [20, 3]"] ;
191 -> 193 ;
194 [label="income <= 62339.0\ngini = 0.041\nsamples = 96\nvalue = [94, 2]"] ;
188 -> 194 ;
195 [label="case_month <= 12.5\ngini = 0.137\nsamples = 27\nvalue = [25, 2]"] ;
194 -> 195 ;
196 [label="gini = 0.231\nsamples = 15\nvalue = [13, 2]"] ;
195 -> 196 ;
197 [label="gini = 0.0\nsamples = 12\nvalue = [12, 0]"] ;
195 -> 197 ;
198 [label="gini = 0.0\nsamples = 69\nvalue = [69, 0]"] ;
194 -> 198 ;
199 [label="age_group <= 1.5\ngini = 0.416\nsamples = 2039\nvalue = [1437, 602]"] ;
1 -> 199 ;
200 [label="ethnicity_Hispanic/Latino <= 0.5\ngini = 0.157\nsamples = 1106\nvalue = [1011, 95]"] ;
199 -> 200 ;
201 [label="state_fips_code <= 17.5\ngini = 0.058\nsamples = 966\nvalue = [937, 29]"] ;
200 -> 201 ;
202 [label="state_fips_code <= 16.5\ngini = 0.324\nsamples = 59\nvalue = [47, 12]"] ;
201 -> 202 ;
203 [label="state_fips_code <= 2.5\ngini = 0.27\nsamples = 56\nvalue = [47, 9]"] ;
202 -> 203 ;
204 [label="gini = 0.0\nsamples = 2\nvalue = [0, 2]"] ;
203 -> 204 ;
205 [label="income <= 68411.5\ngini = 0.226\nsamples = 54\nvalue = [47, 7]"] ;
203 -> 205 ;
206 [label="income <= 66256.0\ngini = 0.342\nsamples = 32\nvalue = [25, 7]"] ;
205 -> 206 ;
207 [label="people_vaccinated <= 188359416.0\ngini = 0.312\nsamples = 31\nvalue = [25, 6]"] ;
206 -> 207 ;
208 [label="gini = 0.18\nsamples = 20\nvalue = [18, 2]"] ;
207 -> 208 ;
209 [label="gini = 0.463\nsamples = 11\nvalue = [7, 4]"] ;
207 -> 209 ;
210 [label="gini = 0.0\nsamples = 1\nvalue = [0, 1]"] ;
206 -> 210 ;
211 [label="gini = 0.0\nsamples = 22\nvalue = [22, 0]"] ;
205 -> 211 ;
212 [label="gini = 0.0\nsamples = 3\nvalue = [0, 3]"] ;
202 -> 212 ;
213 [label="case_month <= 2.5\ngini = 0.037\nsamples = 907\nvalue = [890, 17]"] ;
201 -> 213 ;
214 [label="state_fips_code <= 35.0\ngini = 0.426\nsamples = 26\nvalue = [18, 8]"] ;
213 -> 214 ;
215 [label="gini = 0.0\nsamples = 15\nvalue = [15, 0]"] ;
214 -> 215 ;
216 [label="income <= 71571.5\ngini = 0.397\nsamples = 11\nvalue = [3, 8]"] ;
214 -> 216 ;
217 [label="income <= 59176.0\ngini = 0.198\nsamples = 9\nvalue = [1, 8]"] ;
216 -> 217 ;
218 [label="income <= 54734.0\ngini = 0.375\nsamples = 4\nvalue = [1, 3]"] ;
217 -> 218 ;
219 [label="gini = 0.0\nsamples = 3\nvalue = [0, 3]"] ;
218 -> 219 ;
220 [label="gini = 0.0\nsamples = 1\nvalue = [1, 0]"] ;
218 -> 220 ;
221 [label="gini = 0.0\nsamples = 5\nvalue = [0, 5]"] ;
217 -> 221 ;
222 [label="gini = 0.0\nsamples = 2\nvalue = [2, 0]"] ;
216 -> 222 ;
223 [label="case_positive_specimen_interval <= 2.5\ngini = 0.02\nsamples = 881\nvalue = [872, 9]"] ;
213 -> 223 ;
224 [label="income <= 47399.5\ngini = 0.018\nsamples = 879\nvalue = [871, 8]"] ;
223 -> 224 ;
225 [label="income <= 47091.0\ngini = 0.219\nsamples = 16\nvalue = [14, 2]"] ;
224 -> 225 ;
226 [label="gini = 0.0\nsamples = 13\nvalue = [13, 0]"] ;
225 -> 226 ;
227 [label="case_month <= 9.0\ngini = 0.444\nsamples = 3\nvalue = [1, 2]"] ;
225 -> 227 ;
228 [label="gini = 0.0\nsamples = 1\nvalue = [1, 0]"] ;
227 -> 228 ;
229 [label="gini = 0.0\nsamples = 2\nvalue = [0, 2]"] ;
227 -> 229 ;
230 [label="state_fips_code <= 31.0\ngini = 0.014\nsamples = 863\nvalue = [857, 6]"] ;
224 -> 230 ;
231 [label="gini = 0.0\nsamples = 687\nvalue = [687, 0]"] ;
230 -> 231 ;
232 [label="state_fips_code <= 32.5\ngini = 0.066\nsamples = 176\nvalue = [170, 6]"] ;
230 -> 232 ;
233 [label="gini = 0.494\nsamples = 9\nvalue = [4, 5]"] ;
232 -> 233 ;
234 [label="gini = 0.012\nsamples = 167\nvalue = [166, 1]"] ;
232 -> 234 ;
235 [label="sex_Female <= 0.5\ngini = 0.5\nsamples = 2\nvalue = [1, 1]"] ;
223 -> 235 ;
236 [label="gini = 0.0\nsamples = 1\nvalue = [0, 1]"] ;
235 -> 236 ;
237 [label="gini = 0.0\nsamples = 1\nvalue = [1, 0]"] ;
235 -> 237 ;
238 [label="state_fips_code <= 7.0\ngini = 0.498\nsamples = 140\nvalue = [74, 66]"] ;
200 -> 238 ;
239 [label="race_White <= 0.5\ngini = 0.188\nsamples = 38\nvalue = [4, 34]"] ;
238 -> 239 ;
240 [label="gini = 0.0\nsamples = 2\nvalue = [2, 0]"] ;
239 -> 240 ;
241 [label="age_group <= 0.5\ngini = 0.105\nsamples = 36\nvalue = [2, 34]"] ;
239 -> 241 ;
242 [label="gini = 0.0\nsamples = 1\nvalue = [1, 0]"] ;
241 -> 242 ;
243 [label="case_positive_specimen_interval <= 2.5\ngini = 0.056\nsamples = 35\nvalue = [1, 34]"] ;
241 -> 243 ;
244 [label="gini = 0.0\nsamples = 31\nvalue = [0, 31]"] ;
243 -> 244 ;
245 [label="people_vaccinated <= 96593728.0\ngini = 0.375\nsamples = 4\nvalue = [1, 3]"] ;
243 -> 245 ;
246 [label="gini = 0.0\nsamples = 2\nvalue = [0, 2]"] ;
245 -> 246 ;
247 [label="people_vaccinated <= 222342408.0\ngini = 0.5\nsamples = 2\nvalue = [1, 1]"] ;
245 -> 247 ;
248 [label="gini = 0.0\nsamples = 1\nvalue = [1, 0]"] ;
247 -> 248 ;
249 [label="gini = 0.0\nsamples = 1\nvalue = [0, 1]"] ;
247 -> 249 ;
250 [label="case_month <= 2.5\ngini = 0.431\nsamples = 102\nvalue = [70, 32]"] ;
238 -> 250 ;
251 [label="sex_Female <= 0.5\ngini = 0.26\nsamples = 13\nvalue = [2, 11]"] ;
250 -> 251 ;
252 [label="gini = 0.0\nsamples = 11\nvalue = [0, 11]"] ;
251 -> 252 ;
253 [label="gini = 0.0\nsamples = 2\nvalue = [2, 0]"] ;
251 -> 253 ;
254 [label="income <= 64781.5\ngini = 0.361\nsamples = 89\nvalue = [68, 21]"] ;
250 -> 254 ;
255 [label="people_vaccinated <= 29896649.0\ngini = 0.465\nsamples = 57\nvalue = [36, 21]"] ;
254 -> 255 ;
256 [label="sex_Female <= 0.5\ngini = 0.269\nsamples = 25\nvalue = [21, 4]"] ;
255 -> 256 ;
257 [label="case_month <= 7.0\ngini = 0.494\nsamples = 9\nvalue = [5, 4]"] ;
256 -> 257 ;
258 [label="gini = 0.32\nsamples = 5\nvalue = [4, 1]"] ;
257 -> 258 ;
259 [label="gini = 0.375\nsamples = 4\nvalue = [1, 3]"] ;
257 -> 259 ;
260 [label="gini = 0.0\nsamples = 16\nvalue = [16, 0]"] ;
256 -> 260 ;
261 [label="people_vaccinated <= 211078672.0\ngini = 0.498\nsamples = 32\nvalue = [15, 17]"] ;
255 -> 261 ;
262 [label="case_positive_specimen_interval <= 0.5\ngini = 0.388\nsamples = 19\nvalue = [5, 14]"] ;
261 -> 262 ;
263 [label="gini = 0.415\nsamples = 17\nvalue = [5, 12]"] ;
262 -> 263 ;
264 [label="gini = 0.0\nsamples = 2\nvalue = [0, 2]"] ;
262 -> 264 ;
265 [label="state_fips_code <= 22.0\ngini = 0.355\nsamples = 13\nvalue = [10, 3]"] ;
261 -> 265 ;
266 [label="gini = 0.0\nsamples = 2\nvalue = [0, 2]"] ;
265 -> 266 ;
267 [label="gini = 0.165\nsamples = 11\nvalue = [10, 1]"] ;
265 -> 267 ;
268 [label="gini = 0.0\nsamples = 32\nvalue = [32, 0]"] ;
254 -> 268 ;
269 [label="state_fips_code <= 17.5\ngini = 0.496\nsamples = 933\nvalue = [426, 507]"] ;
199 -> 269 ;
270 [label="state_fips_code <= 7.0\ngini = 0.269\nsamples = 294\nvalue = [47, 247]"] ;
269 -> 270 ;
271 [label="state_fips_code <= 4.5\ngini = 0.138\nsamples = 174\nvalue = [13, 161]"] ;
270 -> 271 ;
272 [label="case_month <= 17.5\ngini = 0.352\nsamples = 57\nvalue = [13, 44]"] ;
271 -> 272 ;
273 [label="income <= 61321.0\ngini = 0.457\nsamples = 34\nvalue = [12, 22]"] ;
272 -> 273 ;
274 [label="income <= 41795.5\ngini = 0.375\nsamples = 8\nvalue = [6, 2]"] ;
273 -> 274 ;
275 [label="gini = 0.0\nsamples = 1\nvalue = [0, 1]"] ;
274 -> 275 ;
276 [label="ethnicity_Hispanic/Latino <= 0.5\ngini = 0.245\nsamples = 7\nvalue = [6, 1]"] ;
274 -> 276 ;
277 [label="gini = 0.0\nsamples = 4\nvalue = [4, 0]"] ;
276 -> 277 ;
278 [label="gini = 0.444\nsamples = 3\nvalue = [2, 1]"] ;
276 -> 278 ;
279 [label="case_positive_specimen_interval <= 0.5\ngini = 0.355\nsamples = 26\nvalue = [6, 20]"] ;
273 -> 279 ;
280 [label="race_White <= 0.5\ngini = 0.469\nsamples = 16\nvalue = [6, 10]"] ;
279 -> 280 ;
281 [label="gini = 0.0\nsamples = 1\nvalue = [1, 0]"] ;
280 -> 281 ;
282 [label="gini = 0.444\nsamples = 15\nvalue = [5, 10]"] ;
280 -> 282 ;
283 [label="gini = 0.0\nsamples = 10\nvalue = [0, 10]"] ;
279 -> 283 ;
284 [label="people_vaccinated <= 255016128.0\ngini = 0.083\nsamples = 23\nvalue = [1, 22]"] ;
272 -> 284 ;
285 [label="gini = 0.0\nsamples = 22\nvalue = [0, 22]"] ;
284 -> 285 ;
286 [label="gini = 0.0\nsamples = 1\nvalue = [1, 0]"] ;
284 -> 286 ;
287 [label="gini = 0.0\nsamples = 117\nvalue = [0, 117]"] ;
271 -> 287 ;
288 [label="income <= 82496.0\ngini = 0.406\nsamples = 120\nvalue = [34, 86]"] ;
270 -> 288 ;
289 [label="state_fips_code <= 16.5\ngini = 0.333\nsamples = 109\nvalue = [23, 86]"] ;
288 -> 289 ;
290 [label="people_vaccinated <= 173602064.0\ngini = 0.416\nsamples = 78\nvalue = [23, 55]"] ;
289 -> 290 ;
291 [label="sex_Female <= 0.5\ngini = 0.5\nsamples = 33\nvalue = [16, 17]"] ;
290 -> 291 ;
292 [label="income <= 50420.5\ngini = 0.408\nsamples = 21\nvalue = [6, 15]"] ;
291 -> 292 ;
293 [label="gini = 0.0\nsamples = 1\nvalue = [1, 0]"] ;
292 -> 293 ;
294 [label="gini = 0.375\nsamples = 20\nvalue = [5, 15]"] ;
292 -> 294 ;
295 [label="case_month <= 3.5\ngini = 0.278\nsamples = 12\nvalue = [10, 2]"] ;
291 -> 295 ;
296 [label="gini = 0.444\nsamples = 3\nvalue = [1, 2]"] ;
295 -> 296 ;
297 [label="gini = 0.0\nsamples = 9\nvalue = [9, 0]"] ;
295 -> 297 ;
298 [label="case_positive_specimen_interval <= 1.5\ngini = 0.263\nsamples = 45\nvalue = [7, 38]"] ;
290 -> 298 ;
299 [label="income <= 58900.5\ngini = 0.236\nsamples = 44\nvalue = [6, 38]"] ;
298 -> 299 ;
300 [label="gini = 0.157\nsamples = 35\nvalue = [3, 32]"] ;
299 -> 300 ;
301 [label="gini = 0.444\nsamples = 9\nvalue = [3, 6]"] ;
299 -> 301 ;
302 [label="gini = 0.0\nsamples = 1\nvalue = [1, 0]"] ;
298 -> 302 ;
303 [label="gini = 0.0\nsamples = 31\nvalue = [0, 31]"] ;
289 -> 303 ;
304 [label="gini = 0.0\nsamples = 11\nvalue = [11, 0]"] ;
288 -> 304 ;
305 [label="case_month <= 5.5\ngini = 0.483\nsamples = 639\nvalue = [379, 260]"] ;
269 -> 305 ;
306 [label="case_month <= 2.5\ngini = 0.311\nsamples = 156\nvalue = [30, 126]"] ;
305 -> 306 ;
307 [label="income <= 70298.5\ngini = 0.231\nsamples = 120\nvalue = [16, 104]"] ;
306 -> 307 ;
308 [label="state_fips_code <= 45.0\ngini = 0.123\nsamples = 91\nvalue = [6, 85]"] ;
307 -> 308 ;
309 [label="race_White <= 0.5\ngini = 0.106\nsamples = 89\nvalue = [5, 84]"] ;
308 -> 309 ;
310 [label="case_positive_specimen_interval <= 0.5\ngini = 0.058\nsamples = 67\nvalue = [2, 65]"] ;
309 -> 310 ;
311 [label="gini = 0.0\nsamples = 54\nvalue = [0, 54]"] ;
310 -> 311 ;
312 [label="gini = 0.26\nsamples = 13\nvalue = [2, 11]"] ;
310 -> 312 ;
313 [label="state_fips_code <= 36.5\ngini = 0.236\nsamples = 22\nvalue = [3, 19]"] ;
309 -> 313 ;
314 [label="gini = 0.172\nsamples = 21\nvalue = [2, 19]"] ;
313 -> 314 ;
315 [label="gini = 0.0\nsamples = 1\nvalue = [1, 0]"] ;
313 -> 315 ;
316 [label="state_fips_code <= 49.5\ngini = 0.5\nsamples = 2\nvalue = [1, 1]"] ;
308 -> 316 ;
317 [label="gini = 0.0\nsamples = 1\nvalue = [1, 0]"] ;
316 -> 317 ;
318 [label="gini = 0.0\nsamples = 1\nvalue = [0, 1]"] ;
316 -> 318 ;
319 [label="income <= 108991.0\ngini = 0.452\nsamples = 29\nvalue = [10, 19]"] ;
307 -> 319 ;
320 [label="ethnicity_Hispanic/Latino <= 0.5\ngini = 0.417\nsamples = 27\nvalue = [8, 19]"] ;
319 -> 320 ;
321 [label="income <= 99658.5\ngini = 0.463\nsamples = 22\nvalue = [8, 14]"] ;
320 -> 321 ;
322 [label="gini = 0.498\nsamples = 17\nvalue = [8, 9]"] ;
321 -> 322 ;
323 [label="gini = 0.0\nsamples = 5\nvalue = [0, 5]"] ;
321 -> 323 ;
324 [label="gini = 0.0\nsamples = 5\nvalue = [0, 5]"] ;
320 -> 324 ;
325 [label="gini = 0.0\nsamples = 2\nvalue = [2, 0]"] ;
319 -> 325 ;
326 [label="ethnicity_Hispanic/Latino <= 0.5\ngini = 0.475\nsamples = 36\nvalue = [14, 22]"] ;
306 -> 326 ;
327 [label="state_fips_code <= 27.5\ngini = 0.444\nsamples = 18\nvalue = [12, 6]"] ;
326 -> 327 ;
328 [label="gini = 0.0\nsamples = 6\nvalue = [6, 0]"] ;
327 -> 328 ;
329 [label="case_month <= 3.5\ngini = 0.5\nsamples = 12\nvalue = [6, 6]"] ;
327 -> 329 ;
330 [label="gini = 0.0\nsamples = 3\nvalue = [0, 3]"] ;
329 -> 330 ;
331 [label="race_Black <= 0.5\ngini = 0.444\nsamples = 9\nvalue = [6, 3]"] ;
329 -> 331 ;
332 [label="gini = 0.0\nsamples = 4\nvalue = [4, 0]"] ;
331 -> 332 ;
333 [label="gini = 0.48\nsamples = 5\nvalue = [2, 3]"] ;
331 -> 333 ;
334 [label="income <= 59473.5\ngini = 0.198\nsamples = 18\nvalue = [2, 16]"] ;
326 -> 334 ;
335 [label="gini = 0.0\nsamples = 9\nvalue = [0, 9]"] ;
334 -> 335 ;
336 [label="income <= 60656.0\ngini = 0.346\nsamples = 9\nvalue = [2, 7]"] ;
334 -> 336 ;
337 [label="case_month <= 4.5\ngini = 0.48\nsamples = 5\nvalue = [2, 3]"] ;
336 -> 337 ;
338 [label="gini = 0.0\nsamples = 2\nvalue = [0, 2]"] ;
337 -> 338 ;
339 [label="gini = 0.444\nsamples = 3\nvalue = [2, 1]"] ;
337 -> 339 ;
340 [label="gini = 0.0\nsamples = 4\nvalue = [0, 4]"] ;
336 -> 340 ;
341 [label="income <= 68693.0\ngini = 0.401\nsamples = 483\nvalue = [349, 134]"] ;
305 -> 341 ;
342 [label="state_fips_code <= 28.0\ngini = 0.476\nsamples = 330\nvalue = [201, 129]"] ;
341 -> 342 ;
343 [label="income <= 48597.5\ngini = 0.255\nsamples = 120\nvalue = [102, 18]"] ;
342 -> 343 ;
344 [label="state_fips_code <= 23.5\ngini = 0.408\nsamples = 14\nvalue = [4, 10]"] ;
343 -> 344 ;
345 [label="gini = 0.0\nsamples = 1\nvalue = [1, 0]"] ;
344 -> 345 ;
346 [label="case_month <= 10.5\ngini = 0.355\nsamples = 13\nvalue = [3, 10]"] ;
344 -> 346 ;
347 [label="gini = 0.0\nsamples = 1\nvalue = [1, 0]"] ;
346 -> 347 ;
348 [label="gini = 0.278\nsamples = 12\nvalue = [2, 10]"] ;
346 -> 348 ;
349 [label="state_fips_code <= 26.5\ngini = 0.14\nsamples = 106\nvalue = [98, 8]"] ;
343 -> 349 ;
350 [label="income <= 62954.0\ngini = 0.375\nsamples = 28\nvalue = [21, 7]"] ;
349 -> 350 ;
351 [label="gini = 0.311\nsamples = 26\nvalue = [21, 5]"] ;
350 -> 351 ;
352 [label="gini = 0.0\nsamples = 2\nvalue = [0, 2]"] ;
350 -> 352 ;
353 [label="income <= 52466.0\ngini = 0.025\nsamples = 78\nvalue = [77, 1]"] ;
349 -> 353 ;
354 [label="gini = 0.077\nsamples = 25\nvalue = [24, 1]"] ;
353 -> 354 ;
355 [label="gini = 0.0\nsamples = 53\nvalue = [53, 0]"] ;
353 -> 355 ;
356 [label="state_fips_code <= 32.5\ngini = 0.498\nsamples = 210\nvalue = [99, 111]"] ;
342 -> 356 ;
357 [label="income <= 53240.5\ngini = 0.239\nsamples = 36\nvalue = [5, 31]"] ;
356 -> 357 ;
358 [label="state_fips_code <= 29.5\ngini = 0.5\nsamples = 4\nvalue = [2, 2]"] ;
357 -> 358 ;
359 [label="gini = 0.0\nsamples = 2\nvalue = [0, 2]"] ;
358 -> 359 ;
360 [label="gini = 0.0\nsamples = 2\nvalue = [2, 0]"] ;
358 -> 360 ;
361 [label="income <= 60302.0\ngini = 0.17\nsamples = 32\nvalue = [3, 29]"] ;
357 -> 361 ;
362 [label="gini = 0.128\nsamples = 29\nvalue = [2, 27]"] ;
361 -> 362 ;
363 [label="gini = 0.444\nsamples = 3\nvalue = [1, 2]"] ;
361 -> 363 ;
364 [label="state_fips_code <= 41.5\ngini = 0.497\nsamples = 174\nvalue = [94, 80]"] ;
356 -> 364 ;
365 [label="income <= 68344.0\ngini = 0.437\nsamples = 96\nvalue = [65, 31]"] ;
364 -> 365 ;
366 [label="gini = 0.378\nsamples = 87\nvalue = [65, 22]"] ;
365 -> 366 ;
367 [label="gini = 0.0\nsamples = 9\nvalue = [0, 9]"] ;
365 -> 367 ;
368 [label="state_fips_code <= 63.5\ngini = 0.467\nsamples = 78\nvalue = [29, 49]"] ;
364 -> 368 ;
369 [label="gini = 0.487\nsamples = 69\nvalue = [29, 40]"] ;
368 -> 369 ;
370 [label="gini = 0.0\nsamples = 9\nvalue = [0, 9]"] ;
368 -> 370 ;
371 [label="state_fips_code <= 52.0\ngini = 0.063\nsamples = 153\nvalue = [148, 5]"] ;
341 -> 371 ;
372 [label="state_fips_code <= 25.5\ngini = 0.039\nsamples = 149\nvalue = [146, 3]"] ;
371 -> 372 ;
373 [label="state_fips_code <= 24.5\ngini = 0.26\nsamples = 13\nvalue = [11, 2]"] ;
372 -> 373 ;
374 [label="gini = 0.0\nsamples = 11\nvalue = [11, 0]"] ;
373 -> 374 ;
375 [label="gini = 0.0\nsamples = 2\nvalue = [0, 2]"] ;
373 -> 375 ;
376 [label="state_fips_code <= 45.0\ngini = 0.015\nsamples = 136\nvalue = [135, 1]"] ;
372 -> 376 ;
377 [label="gini = 0.0\nsamples = 130\nvalue = [130, 0]"] ;
376 -> 377 ;
378 [label="state_fips_code <= 48.5\ngini = 0.278\nsamples = 6\nvalue = [5, 1]"] ;
376 -> 378 ;
379 [label="gini = 0.0\nsamples = 1\nvalue = [0, 1]"] ;
378 -> 379 ;
380 [label="gini = 0.0\nsamples = 5\nvalue = [5, 0]"] ;
378 -> 380 ;
381 [label="case_month <= 14.5\ngini = 0.5\nsamples = 4\nvalue = [2, 2]"] ;
371 -> 381 ;
382 [label="gini = 0.0\nsamples = 2\nvalue = [2, 0]"] ;
381 -> 382 ;
383 [label="gini = 0.0\nsamples = 2\nvalue = [0, 2]"] ;
381 -> 383 ;
384 [label="hosp_tf <= 0.5\ngini = 0.432\nsamples = 8147\nvalue = [2573, 5574]"] ;
0 -> 384 [labeldistance=2.5, labelangle=-45, headlabel="False"] ;
385 [label="case_month <= 12.5\ngini = 0.49\nsamples = 3241\nvalue = [1855, 1386]"] ;
384 -> 385 ;
386 [label="symptomatic_tf <= 0.5\ngini = 0.474\nsamples = 1535\nvalue = [594, 941]"] ;
385 -> 386 ;
387 [label="gini = 0.0\nsamples = 35\nvalue = [35, 0]"] ;
386 -> 387 ;
388 [label="case_month <= 3.5\ngini = 0.468\nsamples = 1500\nvalue = [559, 941]"] ;
386 -> 388 ;
389 [label="case_positive_specimen_interval <= 22.5\ngini = 0.277\nsamples = 247\nvalue = [41, 206]"] ;
388 -> 389 ;
390 [label="income <= 47294.5\ngini = 0.263\nsamples = 244\nvalue = [38, 206]"] ;
389 -> 390 ;
391 [label="state_fips_code <= 27.5\ngini = 0.444\nsamples = 6\nvalue = [4, 2]"] ;
390 -> 391 ;
392 [label="gini = 0.0\nsamples = 3\nvalue = [3, 0]"] ;
391 -> 392 ;
393 [label="income <= 46665.0\ngini = 0.444\nsamples = 3\nvalue = [1, 2]"] ;
391 -> 393 ;
394 [label="gini = 0.0\nsamples = 2\nvalue = [0, 2]"] ;
393 -> 394 ;
395 [label="gini = 0.0\nsamples = 1\nvalue = [1, 0]"] ;
393 -> 395 ;
396 [label="case_month <= 1.5\ngini = 0.245\nsamples = 238\nvalue = [34, 204]"] ;
390 -> 396 ;
397 [label="income <= 65144.5\ngini = 0.465\nsamples = 19\nvalue = [7, 12]"] ;
396 -> 397 ;
398 [label="sex_Female <= 0.5\ngini = 0.49\nsamples = 7\nvalue = [4, 3]"] ;
397 -> 398 ;
399 [label="gini = 0.0\nsamples = 3\nvalue = [0, 3]"] ;
398 -> 399 ;
400 [label="gini = 0.0\nsamples = 4\nvalue = [4, 0]"] ;
398 -> 400 ;
401 [label="state_fips_code <= 35.0\ngini = 0.375\nsamples = 12\nvalue = [3, 9]"] ;
397 -> 401 ;
402 [label="gini = 0.5\nsamples = 6\nvalue = [3, 3]"] ;
401 -> 402 ;
403 [label="gini = 0.0\nsamples = 6\nvalue = [0, 6]"] ;
401 -> 403 ;
404 [label="income <= 81263.0\ngini = 0.216\nsamples = 219\nvalue = [27, 192]"] ;
396 -> 404 ;
405 [label="income <= 50492.5\ngini = 0.275\nsamples = 140\nvalue = [23, 117]"] ;
404 -> 405 ;
406 [label="gini = 0.0\nsamples = 13\nvalue = [0, 13]"] ;
405 -> 406 ;
407 [label="gini = 0.297\nsamples = 127\nvalue = [23, 104]"] ;
405 -> 407 ;
408 [label="income <= 97951.5\ngini = 0.096\nsamples = 79\nvalue = [4, 75]"] ;
404 -> 408 ;
409 [label="gini = 0.0\nsamples = 48\nvalue = [0, 48]"] ;
408 -> 409 ;
410 [label="gini = 0.225\nsamples = 31\nvalue = [4, 27]"] ;
408 -> 410 ;
411 [label="gini = 0.0\nsamples = 3\nvalue = [3, 0]"] ;
389 -> 411 ;
412 [label="state_fips_code <= 17.5\ngini = 0.485\nsamples = 1253\nvalue = [518, 735]"] ;
388 -> 412 ;
413 [label="income <= 66886.5\ngini = 0.383\nsamples = 383\nvalue = [99, 284]"] ;
412 -> 413 ;
414 [label="state_fips_code <= 16.5\ngini = 0.429\nsamples = 298\nvalue = [93, 205]"] ;
413 -> 414 ;
415 [label="income <= 39055.0\ngini = 0.44\nsamples = 284\nvalue = [93, 191]"] ;
414 -> 415 ;
416 [label="gini = 0.0\nsamples = 2\nvalue = [2, 0]"] ;
415 -> 416 ;
417 [label="state_fips_code <= 14.0\ngini = 0.437\nsamples = 282\nvalue = [91, 191]"] ;
415 -> 417 ;
418 [label="gini = 0.428\nsamples = 267\nvalue = [83, 184]"] ;
417 -> 418 ;
419 [label="gini = 0.498\nsamples = 15\nvalue = [8, 7]"] ;
417 -> 419 ;
420 [label="gini = 0.0\nsamples = 14\nvalue = [0, 14]"] ;
414 -> 420 ;
421 [label="state_fips_code <= 7.0\ngini = 0.131\nsamples = 85\nvalue = [6, 79]"] ;
413 -> 421 ;
422 [label="gini = 0.0\nsamples = 61\nvalue = [0, 61]"] ;
421 -> 422 ;
423 [label="income <= 68685.5\ngini = 0.375\nsamples = 24\nvalue = [6, 18]"] ;
421 -> 423 ;
424 [label="gini = 0.0\nsamples = 1\nvalue = [1, 0]"] ;
423 -> 424 ;
425 [label="race_Black <= 0.5\ngini = 0.34\nsamples = 23\nvalue = [5, 18]"] ;
423 -> 425 ;
426 [label="gini = 0.298\nsamples = 22\nvalue = [4, 18]"] ;
425 -> 426 ;
427 [label="gini = 0.0\nsamples = 1\nvalue = [1, 0]"] ;
425 -> 427 ;
428 [label="state_fips_code <= 38.0\ngini = 0.499\nsamples = 870\nvalue = [419, 451]"] ;
412 -> 428 ;
429 [label="state_fips_code <= 35.5\ngini = 0.484\nsamples = 436\nvalue = [257, 179]"] ;
428 -> 429 ;
430 [label="income <= 51480.0\ngini = 0.5\nsamples = 324\nvalue = [162, 162]"] ;
429 -> 430 ;
431 [label="case_positive_specimen_interval <= 0.5\ngini = 0.477\nsamples = 122\nvalue = [48, 74]"] ;
430 -> 431 ;
432 [label="gini = 0.462\nsamples = 116\nvalue = [42, 74]"] ;
431 -> 432 ;
433 [label="gini = 0.0\nsamples = 6\nvalue = [6, 0]"] ;
431 -> 433 ;
434 [label="income <= 53006.5\ngini = 0.492\nsamples = 202\nvalue = [114, 88]"] ;
430 -> 434 ;
435 [label="gini = 0.198\nsamples = 9\nvalue = [8, 1]"] ;
434 -> 435 ;
436 [label="gini = 0.495\nsamples = 193\nvalue = [106, 87]"] ;
434 -> 436 ;
437 [label="state_fips_code <= 36.5\ngini = 0.257\nsamples = 112\nvalue = [95, 17]"] ;
429 -> 437 ;
438 [label="case_month <= 4.5\ngini = 0.057\nsamples = 34\nvalue = [33, 1]"] ;
437 -> 438 ;
439 [label="gini = 0.5\nsamples = 2\nvalue = [1, 1]"] ;
438 -> 439 ;
440 [label="gini = 0.0\nsamples = 32\nvalue = [32, 0]"] ;
438 -> 440 ;
441 [label="case_month <= 11.5\ngini = 0.326\nsamples = 78\nvalue = [62, 16]"] ;
437 -> 441 ;
442 [label="gini = 0.383\nsamples = 58\nvalue = [43, 15]"] ;
441 -> 442 ;
443 [label="gini = 0.095\nsamples = 20\nvalue = [19, 1]"] ;
441 -> 443 ;
444 [label="state_fips_code <= 44.5\ngini = 0.468\nsamples = 434\nvalue = [162, 272]"] ;
428 -> 444 ;
445 [label="state_fips_code <= 41.5\ngini = 0.422\nsamples = 198\nvalue = [60, 138]"] ;
444 -> 445 ;
446 [label="state_fips_code <= 39.5\ngini = 0.475\nsamples = 121\nvalue = [47, 74]"] ;
445 -> 446 ;
447 [label="gini = 0.444\nsamples = 96\nvalue = [32, 64]"] ;
446 -> 447 ;
448 [label="gini = 0.48\nsamples = 25\nvalue = [15, 10]"] ;
446 -> 448 ;
449 [label="case_month <= 5.5\ngini = 0.281\nsamples = 77\nvalue = [13, 64]"] ;
445 -> 449 ;
450 [label="gini = 0.444\nsamples = 3\nvalue = [2, 1]"] ;
449 -> 450 ;
451 [label="gini = 0.253\nsamples = 74\nvalue = [11, 63]"] ;
449 -> 451 ;
452 [label="state_fips_code <= 46.0\ngini = 0.491\nsamples = 236\nvalue = [102, 134]"] ;
444 -> 452 ;
453 [label="case_positive_specimen_interval <= 0.5\ngini = 0.459\nsamples = 28\nvalue = [18, 10]"] ;
452 -> 453 ;
454 [label="gini = 0.351\nsamples = 22\nvalue = [17, 5]"] ;
453 -> 454 ;
455 [label="gini = 0.278\nsamples = 6\nvalue = [1, 5]"] ;
453 -> 455 ;
456 [label="state_fips_code <= 47.5\ngini = 0.482\nsamples = 208\nvalue = [84, 124]"] ;
452 -> 456 ;
457 [label="gini = 0.284\nsamples = 35\nvalue = [6, 29]"] ;
456 -> 457 ;
458 [label="gini = 0.495\nsamples = 173\nvalue = [78, 95]"] ;
456 -> 458 ;
459 [label="state_fips_code <= 17.5\ngini = 0.386\nsamples = 1706\nvalue = [1261, 445]"] ;
385 -> 459 ;
460 [label="state_fips_code <= 7.0\ngini = 0.498\nsamples = 400\nvalue = [189, 211]"] ;
459 -> 460 ;
461 [label="income <= 53935.0\ngini = 0.341\nsamples = 87\nvalue = [19, 68]"] ;
460 -> 461 ;
462 [label="case_month <= 19.0\ngini = 0.5\nsamples = 28\nvalue = [14, 14]"] ;
461 -> 462 ;
463 [label="gini = 0.0\nsamples = 4\nvalue = [0, 4]"] ;
462 -> 463 ;
464 [label="income <= 45415.0\ngini = 0.486\nsamples = 24\nvalue = [14, 10]"] ;
462 -> 464 ;
465 [label="gini = 0.0\nsamples = 3\nvalue = [3, 0]"] ;
464 -> 465 ;
466 [label="state_fips_code <= 4.5\ngini = 0.499\nsamples = 21\nvalue = [11, 10]"] ;
464 -> 466 ;
467 [label="income <= 46585.0\ngini = 0.488\nsamples = 19\nvalue = [11, 8]"] ;
466 -> 467 ;
468 [label="gini = 0.375\nsamples = 4\nvalue = [1, 3]"] ;
467 -> 468 ;
469 [label="gini = 0.444\nsamples = 15\nvalue = [10, 5]"] ;
467 -> 469 ;
470 [label="gini = 0.0\nsamples = 2\nvalue = [0, 2]"] ;
466 -> 470 ;
471 [label="state_fips_code <= 4.5\ngini = 0.155\nsamples = 59\nvalue = [5, 54]"] ;
461 -> 471 ;
472 [label="case_month <= 16.5\ngini = 0.351\nsamples = 22\nvalue = [5, 17]"] ;
471 -> 472 ;
473 [label="gini = 0.0\nsamples = 2\nvalue = [2, 0]"] ;
472 -> 473 ;
474 [label="case_month <= 21.0\ngini = 0.255\nsamples = 20\nvalue = [3, 17]"] ;
472 -> 474 ;
475 [label="people_vaccinated <= 218710104.0\ngini = 0.408\nsamples = 7\nvalue = [2, 5]"] ;
474 -> 475 ;
476 [label="gini = 0.278\nsamples = 6\nvalue = [1, 5]"] ;
475 -> 476 ;
477 [label="gini = 0.0\nsamples = 1\nvalue = [1, 0]"] ;
475 -> 477 ;
478 [label="people_vaccinated <= 255871392.0\ngini = 0.142\nsamples = 13\nvalue = [1, 12]"] ;
474 -> 478 ;
479 [label="gini = 0.0\nsamples = 9\nvalue = [0, 9]"] ;
478 -> 479 ;
480 [label="gini = 0.375\nsamples = 4\nvalue = [1, 3]"] ;
478 -> 480 ;
481 [label="gini = 0.0\nsamples = 37\nvalue = [0, 37]"] ;
471 -> 481 ;
482 [label="people_vaccinated <= 254221456.0\ngini = 0.496\nsamples = 313\nvalue = [170, 143]"] ;
460 -> 482 ;
483 [label="people_vaccinated <= 183504472.0\ngini = 0.497\nsamples = 231\nvalue = [106, 125]"] ;
482 -> 483 ;
484 [label="state_fips_code <= 14.5\ngini = 0.414\nsamples = 41\nvalue = [29, 12]"] ;
483 -> 484 ;
485 [label="people_vaccinated <= 56223012.0\ngini = 0.381\nsamples = 39\nvalue = [29, 10]"] ;
484 -> 485 ;
486 [label="income <= 53670.5\ngini = 0.48\nsamples = 5\nvalue = [2, 3]"] ;
485 -> 486 ;
487 [label="gini = 0.0\nsamples = 3\nvalue = [0, 3]"] ;
486 -> 487 ;
488 [label="gini = 0.0\nsamples = 2\nvalue = [2, 0]"] ;
486 -> 488 ;
489 [label="ethnicity_Hispanic/Latino <= 0.5\ngini = 0.327\nsamples = 34\nvalue = [27, 7]"] ;
485 -> 489 ;
490 [label="gini = 0.413\nsamples = 24\nvalue = [17, 7]"] ;
489 -> 490 ;
491 [label="gini = 0.0\nsamples = 10\nvalue = [10, 0]"] ;
489 -> 491 ;
492 [label="gini = 0.0\nsamples = 2\nvalue = [0, 2]"] ;
484 -> 492 ;
493 [label="people_vaccinated <= 218710104.0\ngini = 0.482\nsamples = 190\nvalue = [77, 113]"] ;
483 -> 493 ;
494 [label="ethnicity_Hispanic/Latino <= 0.5\ngini = 0.393\nsamples = 82\nvalue = [22, 60]"] ;
493 -> 494 ;
495 [label="case_positive_specimen_interval <= 6.0\ngini = 0.339\nsamples = 74\nvalue = [16, 58]"] ;
494 -> 495 ;
496 [label="gini = 0.327\nsamples = 73\nvalue = [15, 58]"] ;
495 -> 496 ;
497 [label="gini = 0.0\nsamples = 1\nvalue = [1, 0]"] ;
495 -> 497 ;
498 [label="income <= 55288.0\ngini = 0.375\nsamples = 8\nvalue = [6, 2]"] ;
494 -> 498 ;
499 [label="gini = 0.245\nsamples = 7\nvalue = [6, 1]"] ;
498 -> 499 ;
500 [label="gini = 0.0\nsamples = 1\nvalue = [0, 1]"] ;
498 -> 500 ;
501 [label="people_vaccinated <= 247776712.0\ngini = 0.5\nsamples = 108\nvalue = [55, 53]"] ;
493 -> 501 ;
502 [label="state_fips_code <= 16.5\ngini = 0.444\nsamples = 36\nvalue = [24, 12]"] ;
501 -> 502 ;
503 [label="gini = 0.397\nsamples = 33\nvalue = [24, 9]"] ;
502 -> 503 ;
504 [label="gini = 0.0\nsamples = 3\nvalue = [0, 3]"] ;
502 -> 504 ;
505 [label="state_fips_code <= 14.0\ngini = 0.49\nsamples = 72\nvalue = [31, 41]"] ;
501 -> 505 ;
506 [label="gini = 0.473\nsamples = 65\nvalue = [25, 40]"] ;
505 -> 506 ;
507 [label="gini = 0.245\nsamples = 7\nvalue = [6, 1]"] ;
505 -> 507 ;
508 [label="case_month <= 27.5\ngini = 0.343\nsamples = 82\nvalue = [64, 18]"] ;
482 -> 508 ;
509 [label="ethnicity_Hispanic/Latino <= 0.5\ngini = 0.071\nsamples = 27\nvalue = [26, 1]"] ;
508 -> 509 ;
510 [label="gini = 0.0\nsamples = 26\nvalue = [26, 0]"] ;
509 -> 510 ;
511 [label="gini = 0.0\nsamples = 1\nvalue = [0, 1]"] ;
509 -> 511 ;
512 [label="income <= 64796.0\ngini = 0.427\nsamples = 55\nvalue = [38, 17]"] ;
508 -> 512 ;
513 [label="case_positive_specimen_interval <= 0.5\ngini = 0.466\nsamples = 46\nvalue = [29, 17]"] ;
512 -> 513 ;
514 [label="income <= 53206.0\ngini = 0.494\nsamples = 38\nvalue = [21, 17]"] ;
513 -> 514 ;
515 [label="gini = 0.401\nsamples = 18\nvalue = [13, 5]"] ;
514 -> 515 ;
516 [label="gini = 0.48\nsamples = 20\nvalue = [8, 12]"] ;
514 -> 516 ;
517 [label="gini = 0.0\nsamples = 8\nvalue = [8, 0]"] ;
513 -> 517 ;
518 [label="gini = 0.0\nsamples = 9\nvalue = [9, 0]"] ;
512 -> 518 ;
519 [label="state_fips_code <= 38.0\ngini = 0.294\nsamples = 1306\nvalue = [1072, 234]"] ;
459 -> 519 ;
520 [label="people_vaccinated <= 254221456.0\ngini = 0.185\nsamples = 881\nvalue = [790, 91]"] ;
519 -> 520 ;
521 [label="state_fips_code <= 33.0\ngini = 0.257\nsamples = 534\nvalue = [453, 81]"] ;
520 -> 521 ;
522 [label="state_fips_code <= 25.5\ngini = 0.349\nsamples = 271\nvalue = [210, 61]"] ;
521 -> 522 ;
523 [label="people_vaccinated <= 251441936.0\ngini = 0.296\nsamples = 216\nvalue = [177, 39]"] ;
522 -> 523 ;
524 [label="people_vaccinated <= 200018432.0\ngini = 0.24\nsamples = 172\nvalue = [148, 24]"] ;
523 -> 524 ;
525 [label="gini = 0.0\nsamples = 32\nvalue = [32, 0]"] ;
524 -> 525 ;
526 [label="gini = 0.284\nsamples = 140\nvalue = [116, 24]"] ;
524 -> 526 ;
527 [label="income <= 68454.0\ngini = 0.449\nsamples = 44\nvalue = [29, 15]"] ;
523 -> 527 ;
528 [label="gini = 0.404\nsamples = 32\nvalue = [23, 9]"] ;
527 -> 528 ;
529 [label="gini = 0.5\nsamples = 12\nvalue = [6, 6]"] ;
527 -> 529 ;
530 [label="people_vaccinated <= 251441936.0\ngini = 0.48\nsamples = 55\nvalue = [33, 22]"] ;
522 -> 530 ;
531 [label="income <= 62910.0\ngini = 0.457\nsamples = 48\nvalue = [31, 17]"] ;
530 -> 531 ;
532 [label="gini = 0.486\nsamples = 36\nvalue = [21, 15]"] ;
531 -> 532 ;
533 [label="gini = 0.278\nsamples = 12\nvalue = [10, 2]"] ;
531 -> 533 ;
534 [label="case_positive_specimen_interval <= 0.5\ngini = 0.408\nsamples = 7\nvalue = [2, 5]"] ;
530 -> 534 ;
535 [label="gini = 0.278\nsamples = 6\nvalue = [1, 5]"] ;
534 -> 535 ;
536 [label="gini = 0.0\nsamples = 1\nvalue = [1, 0]"] ;
534 -> 536 ;
537 [label="income <= 98171.5\ngini = 0.141\nsamples = 263\nvalue = [243, 20]"] ;
521 -> 537 ;
538 [label="sex_Female <= 0.5\ngini = 0.115\nsamples = 229\nvalue = [215, 14]"] ;
537 -> 538 ;
539 [label="ethnicity_Hispanic/Latino <= 0.5\ngini = 0.206\nsamples = 103\nvalue = [91, 12]"] ;
538 -> 539 ;
540 [label="gini = 0.194\nsamples = 101\nvalue = [90, 11]"] ;
539 -> 540 ;
541 [label="gini = 0.5\nsamples = 2\nvalue = [1, 1]"] ;
539 -> 541 ;
542 [label="case_positive_specimen_interval <= 6.0\ngini = 0.031\nsamples = 126\nvalue = [124, 2]"] ;
538 -> 542 ;
543 [label="gini = 0.017\nsamples = 120\nvalue = [119, 1]"] ;
542 -> 543 ;
544 [label="gini = 0.278\nsamples = 6\nvalue = [5, 1]"] ;
542 -> 544 ;
545 [label="case_month <= 14.5\ngini = 0.291\nsamples = 34\nvalue = [28, 6]"] ;
537 -> 545 ;
546 [label="income <= 101087.5\ngini = 0.48\nsamples = 5\nvalue = [2, 3]"] ;
545 -> 546 ;
547 [label="gini = 0.0\nsamples = 2\nvalue = [0, 2]"] ;
546 -> 547 ;
548 [label="gini = 0.444\nsamples = 3\nvalue = [2, 1]"] ;
546 -> 548 ;
549 [label="people_vaccinated <= 251441936.0\ngini = 0.185\nsamples = 29\nvalue = [26, 3]"] ;
545 -> 549 ;
550 [label="gini = 0.077\nsamples = 25\nvalue = [24, 1]"] ;
549 -> 550 ;
551 [label="gini = 0.5\nsamples = 4\nvalue = [2, 2]"] ;
549 -> 551 ;
552 [label="case_positive_specimen_interval <= 6.5\ngini = 0.056\nsamples = 347\nvalue = [337, 10]"] ;
520 -> 552 ;
553 [label="income <= 51458.0\ngini = 0.051\nsamples = 343\nvalue = [334, 9]"] ;
552 -> 553 ;
554 [label="state_fips_code <= 28.0\ngini = 0.119\nsamples = 79\nvalue = [74, 5]"] ;
553 -> 554 ;
555 [label="state_fips_code <= 25.0\ngini = 0.229\nsamples = 38\nvalue = [33, 5]"] ;
554 -> 555 ;
556 [label="gini = 0.114\nsamples = 33\nvalue = [31, 2]"] ;
555 -> 556 ;
557 [label="gini = 0.48\nsamples = 5\nvalue = [2, 3]"] ;
555 -> 557 ;
558 [label="gini = 0.0\nsamples = 41\nvalue = [41, 0]"] ;
554 -> 558 ;
559 [label="people_vaccinated <= 264491640.0\ngini = 0.03\nsamples = 264\nvalue = [260, 4]"] ;
553 -> 559 ;
560 [label="state_fips_code <= 36.5\ngini = 0.017\nsamples = 231\nvalue = [229, 2]"] ;
559 -> 560 ;
561 [label="gini = 0.01\nsamples = 197\nvalue = [196, 1]"] ;
560 -> 561 ;
562 [label="gini = 0.057\nsamples = 34\nvalue = [33, 1]"] ;
560 -> 562 ;
563 [label="state_fips_code <= 29.0\ngini = 0.114\nsamples = 33\nvalue = [31, 2]"] ;
559 -> 563 ;
564 [label="gini = 0.346\nsamples = 9\nvalue = [7, 2]"] ;
563 -> 564 ;
565 [label="gini = 0.0\nsamples = 24\nvalue = [24, 0]"] ;
563 -> 565 ;
566 [label="case_month <= 29.5\ngini = 0.375\nsamples = 4\nvalue = [3, 1]"] ;
552 -> 566 ;
567 [label="people_vaccinated <= 258123816.0\ngini = 0.5\nsamples = 2\nvalue = [1, 1]"] ;
566 -> 567 ;
568 [label="gini = 0.0\nsamples = 1\nvalue = [1, 0]"] ;
567 -> 568 ;
569 [label="gini = 0.0\nsamples = 1\nvalue = [0, 1]"] ;
567 -> 569 ;
570 [label="gini = 0.0\nsamples = 2\nvalue = [2, 0]"] ;
566 -> 570 ;
571 [label="people_vaccinated <= 255016128.0\ngini = 0.447\nsamples = 425\nvalue = [282, 143]"] ;
519 -> 571 ;
572 [label="case_positive_specimen_interval <= 0.5\ngini = 0.49\nsamples = 320\nvalue = [183, 137]"] ;
571 -> 572 ;
573 [label="sex_Female <= 0.5\ngini = 0.498\nsamples = 278\nvalue = [148, 130]"] ;
572 -> 573 ;
574 [label="state_fips_code <= 46.0\ngini = 0.489\nsamples = 127\nvalue = [54, 73]"] ;
573 -> 574 ;
575 [label="income <= 66086.5\ngini = 0.5\nsamples = 84\nvalue = [42, 42]"] ;
574 -> 575 ;
576 [label="gini = 0.49\nsamples = 72\nvalue = [41, 31]"] ;
575 -> 576 ;
577 [label="gini = 0.153\nsamples = 12\nvalue = [1, 11]"] ;
575 -> 577 ;
578 [label="state_fips_code <= 47.5\ngini = 0.402\nsamples = 43\nvalue = [12, 31]"] ;
574 -> 578 ;
579 [label="gini = 0.0\nsamples = 9\nvalue = [0, 9]"] ;
578 -> 579 ;
580 [label="gini = 0.457\nsamples = 34\nvalue = [12, 22]"] ;
578 -> 580 ;
581 [label="people_vaccinated <= 206825512.0\ngini = 0.47\nsamples = 151\nvalue = [94, 57]"] ;
573 -> 581 ;
582 [label="income <= 48690.0\ngini = 0.198\nsamples = 27\nvalue = [24, 3]"] ;
581 -> 582 ;
583 [label="gini = 0.0\nsamples = 1\nvalue = [0, 1]"] ;
582 -> 583 ;
584 [label="gini = 0.142\nsamples = 26\nvalue = [24, 2]"] ;
582 -> 584 ;
585 [label="income <= 50869.0\ngini = 0.492\nsamples = 124\nvalue = [70, 54]"] ;
581 -> 585 ;
586 [label="gini = 0.278\nsamples = 24\nvalue = [20, 4]"] ;
585 -> 586 ;
587 [label="gini = 0.5\nsamples = 100\nvalue = [50, 50]"] ;
585 -> 587 ;
588 [label="income <= 93260.0\ngini = 0.278\nsamples = 42\nvalue = [35, 7]"] ;
572 -> 588 ;
589 [label="case_positive_specimen_interval <= 5.5\ngini = 0.25\nsamples = 41\nvalue = [35, 6]"] ;
588 -> 589 ;
590 [label="people_vaccinated <= 247776712.0\ngini = 0.219\nsamples = 40\nvalue = [35, 5]"] ;
589 -> 590 ;
591 [label="gini = 0.114\nsamples = 33\nvalue = [31, 2]"] ;
590 -> 591 ;
592 [label="gini = 0.49\nsamples = 7\nvalue = [4, 3]"] ;
590 -> 592 ;
593 [label="gini = 0.0\nsamples = 1\nvalue = [0, 1]"] ;
589 -> 593 ;
594 [label="gini = 0.0\nsamples = 1\nvalue = [0, 1]"] ;
588 -> 594 ;
595 [label="state_fips_code <= 63.5\ngini = 0.108\nsamples = 105\nvalue = [99, 6]"] ;
571 -> 595 ;
596 [label="income <= 92056.5\ngini = 0.092\nsamples = 104\nvalue = [99, 5]"] ;
595 -> 596 ;
597 [label="income <= 53666.5\ngini = 0.058\nsamples = 100\nvalue = [97, 3]"] ;
596 -> 597 ;
598 [label="income <= 53442.5\ngini = 0.165\nsamples = 33\nvalue = [30, 3]"] ;
597 -> 598 ;
599 [label="gini = 0.117\nsamples = 32\nvalue = [30, 2]"] ;
598 -> 599 ;
600 [label="gini = 0.0\nsamples = 1\nvalue = [0, 1]"] ;
598 -> 600 ;
601 [label="gini = 0.0\nsamples = 67\nvalue = [67, 0]"] ;
597 -> 601 ;
602 [label="state_fips_code <= 45.0\ngini = 0.5\nsamples = 4\nvalue = [2, 2]"] ;
596 -> 602 ;
603 [label="gini = 0.0\nsamples = 1\nvalue = [1, 0]"] ;
602 -> 603 ;
604 [label="people_vaccinated <= 263011288.0\ngini = 0.444\nsamples = 3\nvalue = [1, 2]"] ;
602 -> 604 ;
605 [label="gini = 0.0\nsamples = 2\nvalue = [0, 2]"] ;
604 -> 605 ;
606 [label="gini = 0.0\nsamples = 1\nvalue = [1, 0]"] ;
604 -> 606 ;
607 [label="gini = 0.0\nsamples = 1\nvalue = [0, 1]"] ;
595 -> 607 ;
608 [label="people_vaccinated <= 255016128.0\ngini = 0.25\nsamples = 4906\nvalue = [718, 4188]"] ;
384 -> 608 ;
609 [label="state_fips_code <= 17.5\ngini = 0.207\nsamples = 4577\nvalue = [537, 4040]"] ;
608 -> 609 ;
610 [label="state_fips_code <= 7.0\ngini = 0.085\nsamples = 1594\nvalue = [71, 1523]"] ;
609 -> 610 ;
611 [label="income <= 41759.5\ngini = 0.033\nsamples = 828\nvalue = [14, 814]"] ;
610 -> 611 ;
612 [label="race_American Indian/Alaska Native <= 0.5\ngini = 0.444\nsamples = 3\nvalue = [2, 1]"] ;
611 -> 612 ;
613 [label="gini = 0.0\nsamples = 2\nvalue = [2, 0]"] ;
612 -> 613 ;
614 [label="gini = 0.0\nsamples = 1\nvalue = [0, 1]"] ;
612 -> 614 ;
615 [label="state_fips_code <= 5.5\ngini = 0.029\nsamples = 825\nvalue = [12, 813]"] ;
611 -> 615 ;
616 [label="case_month <= 3.5\ngini = 0.087\nsamples = 263\nvalue = [12, 251]"] ;
615 -> 616 ;
617 [label="case_month <= 2.5\ngini = 0.245\nsamples = 14\nvalue = [2, 12]"] ;
616 -> 617 ;
618 [label="gini = 0.0\nsamples = 7\nvalue = [0, 7]"] ;
617 -> 618 ;
619 [label="ethnicity_Hispanic/Latino <= 0.5\ngini = 0.408\nsamples = 7\nvalue = [2, 5]"] ;
617 -> 619 ;
620 [label="gini = 0.48\nsamples = 5\nvalue = [2, 3]"] ;
619 -> 620 ;
621 [label="gini = 0.0\nsamples = 2\nvalue = [0, 2]"] ;
619 -> 621 ;
622 [label="ethnicity_Hispanic/Latino <= 0.5\ngini = 0.077\nsamples = 249\nvalue = [10, 239]"] ;
616 -> 622 ;
623 [label="income <= 49272.5\ngini = 0.093\nsamples = 204\nvalue = [10, 194]"] ;
622 -> 623 ;
624 [label="gini = 0.0\nsamples = 35\nvalue = [0, 35]"] ;
623 -> 624 ;
625 [label="gini = 0.111\nsamples = 169\nvalue = [10, 159]"] ;
623 -> 625 ;
626 [label="gini = 0.0\nsamples = 45\nvalue = [0, 45]"] ;
622 -> 626 ;
627 [label="gini = 0.0\nsamples = 562\nvalue = [0, 562]"] ;
615 -> 627 ;
628 [label="state_fips_code <= 16.5\ngini = 0.138\nsamples = 766\nvalue = [57, 709]"] ;
610 -> 628 ;
629 [label="income <= 73820.0\ngini = 0.175\nsamples = 548\nvalue = [53, 495]"] ;
628 -> 629 ;
630 [label="income <= 40407.0\ngini = 0.146\nsamples = 466\nvalue = [37, 429]"] ;
629 -> 630 ;
631 [label="people_vaccinated <= 99404760.5\ngini = 0.5\nsamples = 4\nvalue = [2, 2]"] ;
630 -> 631 ;
632 [label="gini = 0.0\nsamples = 1\nvalue = [0, 1]"] ;
631 -> 632 ;
633 [label="case_month <= 17.5\ngini = 0.444\nsamples = 3\nvalue = [2, 1]"] ;
631 -> 633 ;
634 [label="gini = 0.5\nsamples = 2\nvalue = [1, 1]"] ;
633 -> 634 ;
635 [label="gini = 0.0\nsamples = 1\nvalue = [1, 0]"] ;
633 -> 635 ;
636 [label="case_month <= 5.5\ngini = 0.14\nsamples = 462\nvalue = [35, 427]"] ;
630 -> 636 ;
637 [label="case_month <= 3.5\ngini = 0.06\nsamples = 97\nvalue = [3, 94]"] ;
636 -> 637 ;
638 [label="gini = 0.113\nsamples = 50\nvalue = [3, 47]"] ;
637 -> 638 ;
639 [label="gini = 0.0\nsamples = 47\nvalue = [0, 47]"] ;
637 -> 639 ;
640 [label="race_Asian <= 0.5\ngini = 0.16\nsamples = 365\nvalue = [32, 333]"] ;
636 -> 640 ;
641 [label="gini = 0.156\nsamples = 363\nvalue = [31, 332]"] ;
640 -> 641 ;
642 [label="gini = 0.5\nsamples = 2\nvalue = [1, 1]"] ;
640 -> 642 ;
643 [label="income <= 74649.0\ngini = 0.314\nsamples = 82\nvalue = [16, 66]"] ;
629 -> 643 ;
644 [label="people_vaccinated <= 238944208.0\ngini = 0.408\nsamples = 7\nvalue = [5, 2]"] ;
643 -> 644 ;
645 [label="case_month <= 17.5\ngini = 0.48\nsamples = 5\nvalue = [3, 2]"] ;
644 -> 645 ;
646 [label="gini = 0.375\nsamples = 4\nvalue = [3, 1]"] ;
645 -> 646 ;
647 [label="gini = 0.0\nsamples = 1\nvalue = [0, 1]"] ;
645 -> 647 ;
648 [label="gini = 0.0\nsamples = 2\nvalue = [2, 0]"] ;
644 -> 648 ;
649 [label="state_fips_code <= 10.0\ngini = 0.25\nsamples = 75\nvalue = [11, 64]"] ;
643 -> 649 ;
650 [label="ethnicity_Hispanic/Latino <= 0.5\ngini = 0.137\nsamples = 54\nvalue = [4, 50]"] ;
649 -> 650 ;
651 [label="gini = 0.107\nsamples = 53\nvalue = [3, 50]"] ;
650 -> 651 ;
652 [label="gini = 0.0\nsamples = 1\nvalue = [1, 0]"] ;
650 -> 652 ;
653 [label="case_month <= 18.5\ngini = 0.444\nsamples = 21\nvalue = [7, 14]"] ;
649 -> 653 ;
654 [label="gini = 0.26\nsamples = 13\nvalue = [2, 11]"] ;
653 -> 654 ;
655 [label="gini = 0.469\nsamples = 8\nvalue = [5, 3]"] ;
653 -> 655 ;
656 [label="case_month <= 2.5\ngini = 0.036\nsamples = 218\nvalue = [4, 214]"] ;
628 -> 656 ;
657 [label="income <= 72027.0\ngini = 0.128\nsamples = 29\nvalue = [2, 27]"] ;
656 -> 657 ;
658 [label="case_month <= 1.5\ngini = 0.188\nsamples = 19\nvalue = [2, 17]"] ;
657 -> 658 ;
659 [label="gini = 0.0\nsamples = 6\nvalue = [0, 6]"] ;
658 -> 659 ;
660 [label="income <= 61781.0\ngini = 0.26\nsamples = 13\nvalue = [2, 11]"] ;
658 -> 660 ;
661 [label="gini = 0.0\nsamples = 2\nvalue = [0, 2]"] ;
660 -> 661 ;
662 [label="gini = 0.298\nsamples = 11\nvalue = [2, 9]"] ;
660 -> 662 ;
663 [label="gini = 0.0\nsamples = 10\nvalue = [0, 10]"] ;
657 -> 663 ;
664 [label="people_vaccinated <= 5568356.0\ngini = 0.021\nsamples = 189\nvalue = [2, 187]"] ;
656 -> 664 ;
665 [label="race_Black <= 0.5\ngini = 0.043\nsamples = 91\nvalue = [2, 89]"] ;
664 -> 665 ;
666 [label="case_month <= 10.5\ngini = 0.024\nsamples = 82\nvalue = [1, 81]"] ;
665 -> 666 ;
667 [label="gini = 0.0\nsamples = 71\nvalue = [0, 71]"] ;
666 -> 667 ;
668 [label="gini = 0.165\nsamples = 11\nvalue = [1, 10]"] ;
666 -> 668 ;
669 [label="sex_Female <= 0.5\ngini = 0.198\nsamples = 9\nvalue = [1, 8]"] ;
665 -> 669 ;
670 [label="gini = 0.444\nsamples = 3\nvalue = [1, 2]"] ;
669 -> 670 ;
671 [label="gini = 0.0\nsamples = 6\nvalue = [0, 6]"] ;
669 -> 671 ;
672 [label="gini = 0.0\nsamples = 98\nvalue = [0, 98]"] ;
664 -> 672 ;
673 [label="people_vaccinated <= 29896649.0\ngini = 0.264\nsamples = 2983\nvalue = [466, 2517]"] ;
609 -> 673 ;
674 [label="case_month <= 2.5\ngini = 0.184\nsamples = 1791\nvalue = [184, 1607]"] ;
673 -> 674 ;
675 [label="income <= 95792.0\ngini = 0.069\nsamples = 613\nvalue = [22, 591]"] ;
674 -> 675 ;
676 [label="state_fips_code <= 54.0\ngini = 0.045\nsamples = 519\nvalue = [12, 507]"] ;
675 -> 676 ;
677 [label="state_fips_code <= 18.5\ngini = 0.042\nsamples = 516\nvalue = [11, 505]"] ;
676 -> 677 ;
678 [label="income <= 50542.5\ngini = 0.32\nsamples = 5\nvalue = [1, 4]"] ;
677 -> 678 ;
679 [label="gini = 0.0\nsamples = 3\nvalue = [0, 3]"] ;
678 -> 679 ;
680 [label="gini = 0.5\nsamples = 2\nvalue = [1, 1]"] ;
678 -> 680 ;
681 [label="case_positive_specimen_interval <= 3.0\ngini = 0.038\nsamples = 511\nvalue = [10, 501]"] ;
677 -> 681 ;
682 [label="gini = 0.035\nsamples = 503\nvalue = [9, 494]"] ;
681 -> 682 ;
683 [label="gini = 0.219\nsamples = 8\nvalue = [1, 7]"] ;
681 -> 683 ;
684 [label="case_month <= 1.5\ngini = 0.444\nsamples = 3\nvalue = [1, 2]"] ;
676 -> 684 ;
685 [label="gini = 0.0\nsamples = 2\nvalue = [0, 2]"] ;
684 -> 685 ;
686 [label="gini = 0.0\nsamples = 1\nvalue = [1, 0]"] ;
684 -> 686 ;
687 [label="case_positive_specimen_interval <= 4.0\ngini = 0.19\nsamples = 94\nvalue = [10, 84]"] ;
675 -> 687 ;
688 [label="income <= 98171.5\ngini = 0.175\nsamples = 93\nvalue = [9, 84]"] ;
687 -> 688 ;
689 [label="case_positive_specimen_interval <= 0.5\ngini = 0.32\nsamples = 20\nvalue = [4, 16]"] ;
688 -> 689 ;
690 [label="gini = 0.375\nsamples = 16\nvalue = [4, 12]"] ;
689 -> 690 ;
691 [label="gini = 0.0\nsamples = 4\nvalue = [0, 4]"] ;
689 -> 691 ;
692 [label="case_positive_specimen_interval <= 0.5\ngini = 0.128\nsamples = 73\nvalue = [5, 68]"] ;
688 -> 692 ;
693 [label="gini = 0.108\nsamples = 70\nvalue = [4, 66]"] ;
692 -> 693 ;
694 [label="gini = 0.444\nsamples = 3\nvalue = [1, 2]"] ;
692 -> 694 ;
695 [label="gini = 0.0\nsamples = 1\nvalue = [1, 0]"] ;
687 -> 695 ;
696 [label="state_fips_code <= 40.5\ngini = 0.237\nsamples = 1178\nvalue = [162, 1016]"] ;
674 -> 696 ;
697 [label="income <= 114569.0\ngini = 0.293\nsamples = 768\nvalue = [137, 631]"] ;
696 -> 697 ;
698 [label="state_fips_code <= 28.5\ngini = 0.287\nsamples = 760\nvalue = [132, 628]"] ;
697 -> 698 ;
699 [label="state_fips_code <= 26.5\ngini = 0.347\nsamples = 282\nvalue = [63, 219]"] ;
698 -> 699 ;
700 [label="gini = 0.224\nsamples = 187\nvalue = [24, 163]"] ;
699 -> 700 ;
701 [label="gini = 0.484\nsamples = 95\nvalue = [39, 56]"] ;
699 -> 701 ;
702 [label="state_fips_code <= 32.5\ngini = 0.247\nsamples = 478\nvalue = [69, 409]"] ;
698 -> 702 ;
703 [label="gini = 0.034\nsamples = 115\nvalue = [2, 113]"] ;
702 -> 703 ;
704 [label="gini = 0.301\nsamples = 363\nvalue = [67, 296]"] ;
702 -> 704 ;
705 [label="case_month <= 4.0\ngini = 0.469\nsamples = 8\nvalue = [5, 3]"] ;
697 -> 705 ;
706 [label="gini = 0.0\nsamples = 3\nvalue = [0, 3]"] ;
705 -> 706 ;
707 [label="gini = 0.0\nsamples = 5\nvalue = [5, 0]"] ;
705 -> 707 ;
708 [label="ethnicity_Hispanic/Latino <= 0.5\ngini = 0.115\nsamples = 410\nvalue = [25, 385]"] ;
696 -> 708 ;
709 [label="sex_Female <= 0.5\ngini = 0.142\nsamples = 298\nvalue = [23, 275]"] ;
708 -> 709 ;
710 [label="case_month <= 4.5\ngini = 0.078\nsamples = 148\nvalue = [6, 142]"] ;
709 -> 710 ;
711 [label="gini = 0.375\nsamples = 8\nvalue = [2, 6]"] ;
710 -> 711 ;
712 [label="gini = 0.056\nsamples = 140\nvalue = [4, 136]"] ;
710 -> 712 ;
713 [label="income <= 115981.5\ngini = 0.201\nsamples = 150\nvalue = [17, 133]"] ;
709 -> 713 ;
714 [label="gini = 0.192\nsamples = 149\nvalue = [16, 133]"] ;
713 -> 714 ;
715 [label="gini = 0.0\nsamples = 1\nvalue = [1, 0]"] ;
713 -> 715 ;
716 [label="income <= 75868.0\ngini = 0.035\nsamples = 112\nvalue = [2, 110]"] ;
708 -> 716 ;
717 [label="people_vaccinated <= 17730243.5\ngini = 0.018\nsamples = 109\nvalue = [1, 108]"] ;
716 -> 717 ;
718 [label="gini = 0.0\nsamples = 92\nvalue = [0, 92]"] ;
717 -> 718 ;
719 [label="gini = 0.111\nsamples = 17\nvalue = [1, 16]"] ;
717 -> 719 ;
720 [label="case_month <= 10.5\ngini = 0.444\nsamples = 3\nvalue = [1, 2]"] ;
716 -> 720 ;
721 [label="gini = 0.0\nsamples = 2\nvalue = [0, 2]"] ;
720 -> 721 ;
722 [label="gini = 0.0\nsamples = 1\nvalue = [1, 0]"] ;
720 -> 722 ;
723 [label="state_fips_code <= 40.5\ngini = 0.361\nsamples = 1192\nvalue = [282, 910]"] ;
673 -> 723 ;
724 [label="income <= 91278.5\ngini = 0.413\nsamples = 882\nvalue = [257, 625]"] ;
723 -> 724 ;
725 [label="state_fips_code <= 28.0\ngini = 0.386\nsamples = 800\nvalue = [209, 591]"] ;
724 -> 725 ;
726 [label="state_fips_code <= 26.5\ngini = 0.455\nsamples = 308\nvalue = [108, 200]"] ;
725 -> 726 ;
727 [label="state_fips_code <= 24.5\ngini = 0.306\nsamples = 217\nvalue = [41, 176]"] ;
726 -> 727 ;
728 [label="gini = 0.478\nsamples = 86\nvalue = [34, 52]"] ;
727 -> 728 ;
729 [label="gini = 0.101\nsamples = 131\nvalue = [7, 124]"] ;
727 -> 729 ;
730 [label="people_vaccinated <= 215381504.0\ngini = 0.388\nsamples = 91\nvalue = [67, 24]"] ;
726 -> 730 ;
731 [label="gini = 0.095\nsamples = 20\nvalue = [19, 1]"] ;
730 -> 731 ;
732 [label="gini = 0.438\nsamples = 71\nvalue = [48, 23]"] ;
730 -> 732 ;
733 [label="state_fips_code <= 32.5\ngini = 0.326\nsamples = 492\nvalue = [101, 391]"] ;
725 -> 733 ;
734 [label="case_month <= 12.5\ngini = 0.038\nsamples = 103\nvalue = [2, 101]"] ;
733 -> 734 ;
735 [label="gini = 0.198\nsamples = 9\nvalue = [1, 8]"] ;
734 -> 735 ;
736 [label="gini = 0.021\nsamples = 94\nvalue = [1, 93]"] ;
734 -> 736 ;
737 [label="income <= 46760.0\ngini = 0.379\nsamples = 389\nvalue = [99, 290]"] ;
733 -> 737 ;
738 [label="gini = 0.064\nsamples = 30\nvalue = [1, 29]"] ;
737 -> 738 ;
739 [label="gini = 0.397\nsamples = 359\nvalue = [98, 261]"] ;
737 -> 739 ;
740 [label="state_fips_code <= 35.0\ngini = 0.485\nsamples = 82\nvalue = [48, 34]"] ;
724 -> 740 ;
741 [label="state_fips_code <= 26.0\ngini = 0.473\nsamples = 52\nvalue = [20, 32]"] ;
740 -> 741 ;
742 [label="income <= 101700.5\ngini = 0.142\nsamples = 13\nvalue = [1, 12]"] ;
741 -> 742 ;
743 [label="gini = 0.0\nsamples = 1\nvalue = [1, 0]"] ;
742 -> 743 ;
744 [label="gini = 0.0\nsamples = 12\nvalue = [0, 12]"] ;
742 -> 744 ;
745 [label="income <= 101320.0\ngini = 0.5\nsamples = 39\nvalue = [19, 20]"] ;
741 -> 745 ;
746 [label="gini = 0.464\nsamples = 30\nvalue = [11, 19]"] ;
745 -> 746 ;
747 [label="gini = 0.198\nsamples = 9\nvalue = [8, 1]"] ;
745 -> 747 ;
748 [label="case_month <= 13.5\ngini = 0.124\nsamples = 30\nvalue = [28, 2]"] ;
740 -> 748 ;
749 [label="case_positive_specimen_interval <= 3.5\ngini = 0.375\nsamples = 8\nvalue = [6, 2]"] ;
748 -> 749 ;
750 [label="gini = 0.245\nsamples = 7\nvalue = [6, 1]"] ;
749 -> 750 ;
751 [label="gini = 0.0\nsamples = 1\nvalue = [0, 1]"] ;
749 -> 751 ;
752 [label="gini = 0.0\nsamples = 22\nvalue = [22, 0]"] ;
748 -> 752 ;
753 [label="people_vaccinated <= 254221456.0\ngini = 0.148\nsamples = 310\nvalue = [25, 285]"] ;
723 -> 753 ;
754 [label="state_fips_code <= 52.0\ngini = 0.139\nsamples = 305\nvalue = [23, 282]"] ;
753 -> 754 ;
755 [label="state_fips_code <= 48.5\ngini = 0.172\nsamples = 231\nvalue = [22, 209]"] ;
754 -> 755 ;
756 [label="income <= 60879.0\ngini = 0.13\nsamples = 200\nvalue = [14, 186]"] ;
755 -> 756 ;
757 [label="gini = 0.058\nsamples = 134\nvalue = [4, 130]"] ;
756 -> 757 ;
758 [label="gini = 0.257\nsamples = 66\nvalue = [10, 56]"] ;
756 -> 758 ;
759 [label="case_month <= 19.0\ngini = 0.383\nsamples = 31\nvalue = [8, 23]"] ;
755 -> 759 ;
760 [label="gini = 0.48\nsamples = 10\nvalue = [6, 4]"] ;
759 -> 760 ;
761 [label="gini = 0.172\nsamples = 21\nvalue = [2, 19]"] ;
759 -> 761 ;
762 [label="income <= 64117.5\ngini = 0.027\nsamples = 74\nvalue = [1, 73]"] ;
754 -> 762 ;
763 [label="gini = 0.0\nsamples = 42\nvalue = [0, 42]"] ;
762 -> 763 ;
764 [label="income <= 68252.5\ngini = 0.061\nsamples = 32\nvalue = [1, 31]"] ;
762 -> 764 ;
765 [label="gini = 0.0\nsamples = 1\nvalue = [1, 0]"] ;
764 -> 765 ;
766 [label="gini = 0.0\nsamples = 31\nvalue = [0, 31]"] ;
764 -> 766 ;
767 [label="sex_Female <= 0.5\ngini = 0.48\nsamples = 5\nvalue = [2, 3]"] ;
753 -> 767 ;
768 [label="gini = 0.0\nsamples = 3\nvalue = [0, 3]"] ;
767 -> 768 ;
769 [label="gini = 0.0\nsamples = 2\nvalue = [2, 0]"] ;
767 -> 769 ;
770 [label="state_fips_code <= 26.5\ngini = 0.495\nsamples = 329\nvalue = [181, 148]"] ;
608 -> 770 ;
771 [label="income <= 46336.0\ngini = 0.262\nsamples = 129\nvalue = [20, 109]"] ;
770 -> 771 ;
772 [label="gini = 0.0\nsamples = 2\nvalue = [2, 0]"] ;
771 -> 772 ;
773 [label="state_fips_code <= 17.5\ngini = 0.243\nsamples = 127\nvalue = [18, 109]"] ;
771 -> 773 ;
774 [label="income <= 63883.5\ngini = 0.129\nsamples = 72\nvalue = [5, 67]"] ;
773 -> 774 ;
775 [label="people_vaccinated <= 256605056.0\ngini = 0.264\nsamples = 32\nvalue = [5, 27]"] ;
774 -> 775 ;
776 [label="gini = 0.0\nsamples = 1\nvalue = [1, 0]"] ;
775 -> 776 ;
777 [label="case_positive_specimen_interval <= 0.5\ngini = 0.225\nsamples = 31\nvalue = [4, 27]"] ;
775 -> 777 ;
778 [label="income <= 50039.0\ngini = 0.08\nsamples = 24\nvalue = [1, 23]"] ;
777 -> 778 ;
779 [label="gini = 0.444\nsamples = 3\nvalue = [1, 2]"] ;
778 -> 779 ;
780 [label="gini = 0.0\nsamples = 21\nvalue = [0, 21]"] ;
778 -> 780 ;
781 [label="people_vaccinated <= 263690976.0\ngini = 0.49\nsamples = 7\nvalue = [3, 4]"] ;
777 -> 781 ;
782 [label="gini = 0.32\nsamples = 5\nvalue = [1, 4]"] ;
781 -> 782 ;
783 [label="gini = 0.0\nsamples = 2\nvalue = [2, 0]"] ;
781 -> 783 ;
784 [label="gini = 0.0\nsamples = 40\nvalue = [0, 40]"] ;
774 -> 784 ;
785 [label="state_fips_code <= 24.5\ngini = 0.361\nsamples = 55\nvalue = [13, 42]"] ;
773 -> 785 ;
786 [label="income <= 57837.5\ngini = 0.391\nsamples = 15\nvalue = [11, 4]"] ;
785 -> 786 ;
787 [label="case_month <= 27.0\ngini = 0.444\nsamples = 6\nvalue = [2, 4]"] ;
786 -> 787 ;
788 [label="gini = 0.0\nsamples = 1\nvalue = [1, 0]"] ;
787 -> 788 ;
789 [label="state_fips_code <= 20.5\ngini = 0.32\nsamples = 5\nvalue = [1, 4]"] ;
787 -> 789 ;
790 [label="gini = 0.0\nsamples = 1\nvalue = [1, 0]"] ;
789 -> 790 ;
791 [label="gini = 0.0\nsamples = 4\nvalue = [0, 4]"] ;
789 -> 791 ;
792 [label="gini = 0.0\nsamples = 9\nvalue = [9, 0]"] ;
786 -> 792 ;
793 [label="case_month <= 25.5\ngini = 0.095\nsamples = 40\nvalue = [2, 38]"] ;
785 -> 793 ;
794 [label="income <= 65522.5\ngini = 0.5\nsamples = 2\nvalue = [1, 1]"] ;
793 -> 794 ;
795 [label="gini = 0.0\nsamples = 1\nvalue = [1, 0]"] ;
794 -> 795 ;
796 [label="gini = 0.0\nsamples = 1\nvalue = [0, 1]"] ;
794 -> 796 ;
797 [label="people_vaccinated <= 259407304.0\ngini = 0.051\nsamples = 38\nvalue = [1, 37]"] ;
793 -> 797 ;
798 [label="people_vaccinated <= 258718096.0\ngini = 0.165\nsamples = 11\nvalue = [1, 10]"] ;
797 -> 798 ;
799 [label="gini = 0.0\nsamples = 7\nvalue = [0, 7]"] ;
798 -> 799 ;
800 [label="gini = 0.375\nsamples = 4\nvalue = [1, 3]"] ;
798 -> 800 ;
801 [label="gini = 0.0\nsamples = 27\nvalue = [0, 27]"] ;
797 -> 801 ;
802 [label="state_fips_code <= 52.0\ngini = 0.314\nsamples = 200\nvalue = [161, 39]"] ;
770 -> 802 ;
803 [label="income <= 61374.0\ngini = 0.174\nsamples = 177\nvalue = [160, 17]"] ;
802 -> 803 ;
804 [label="income <= 59334.5\ngini = 0.349\nsamples = 71\nvalue = [55, 16]"] ;
803 -> 804 ;
805 [label="state_fips_code <= 44.0\ngini = 0.249\nsamples = 55\nvalue = [47, 8]"] ;
804 -> 805 ;
806 [label="income <= 53457.0\ngini = 0.159\nsamples = 46\nvalue = [42, 4]"] ;
805 -> 806 ;
807 [label="income <= 51444.5\ngini = 0.252\nsamples = 27\nvalue = [23, 4]"] ;
806 -> 807 ;
808 [label="gini = 0.091\nsamples = 21\nvalue = [20, 1]"] ;
807 -> 808 ;
809 [label="gini = 0.5\nsamples = 6\nvalue = [3, 3]"] ;
807 -> 809 ;
810 [label="gini = 0.0\nsamples = 19\nvalue = [19, 0]"] ;
806 -> 810 ;
811 [label="sex_Female <= 0.5\ngini = 0.494\nsamples = 9\nvalue = [5, 4]"] ;
805 -> 811 ;
812 [label="ethnicity_Hispanic/Latino <= 0.5\ngini = 0.408\nsamples = 7\nvalue = [5, 2]"] ;
811 -> 812 ;
813 [label="gini = 0.48\nsamples = 5\nvalue = [3, 2]"] ;
812 -> 813 ;
814 [label="gini = 0.0\nsamples = 2\nvalue = [2, 0]"] ;
812 -> 814 ;
815 [label="gini = 0.0\nsamples = 2\nvalue = [0, 2]"] ;
811 -> 815 ;
816 [label="case_positive_specimen_interval <= 0.5\ngini = 0.5\nsamples = 16\nvalue = [8, 8]"] ;
804 -> 816 ;
817 [label="state_fips_code <= 29.5\ngini = 0.219\nsamples = 8\nvalue = [1, 7]"] ;
816 -> 817 ;
818 [label="gini = 0.0\nsamples = 1\nvalue = [1, 0]"] ;
817 -> 818 ;
819 [label="gini = 0.0\nsamples = 7\nvalue = [0, 7]"] ;
817 -> 819 ;
820 [label="income <= 60153.0\ngini = 0.219\nsamples = 8\nvalue = [7, 1]"] ;
816 -> 820 ;
821 [label="gini = 0.0\nsamples = 7\nvalue = [7, 0]"] ;
820 -> 821 ;
822 [label="gini = 0.0\nsamples = 1\nvalue = [0, 1]"] ;
820 -> 822 ;
823 [label="people_vaccinated <= 258718096.0\ngini = 0.019\nsamples = 106\nvalue = [105, 1]"] ;
803 -> 823 ;
824 [label="income <= 68921.0\ngini = 0.153\nsamples = 12\nvalue = [11, 1]"] ;
823 -> 824 ;
825 [label="state_fips_code <= 31.5\ngini = 0.5\nsamples = 2\nvalue = [1, 1]"] ;
824 -> 825 ;
826 [label="gini = 0.0\nsamples = 1\nvalue = [1, 0]"] ;
825 -> 826 ;
827 [label="gini = 0.0\nsamples = 1\nvalue = [0, 1]"] ;
825 -> 827 ;
828 [label="gini = 0.0\nsamples = 10\nvalue = [10, 0]"] ;
824 -> 828 ;
829 [label="gini = 0.0\nsamples = 94\nvalue = [94, 0]"] ;
823 -> 829 ;
830 [label="income <= 50976.5\ngini = 0.083\nsamples = 23\nvalue = [1, 22]"] ;
802 -> 830 ;
831 [label="gini = 0.0\nsamples = 1\nvalue = [1, 0]"] ;
830 -> 831 ;
832 [label="gini = 0.0\nsamples = 22\nvalue = [0, 22]"] ;
830 -> 832 ;
}