digraph Tree {
node [shape=box, fontname="helvetica"] ;
edge [fontname="helvetica"] ;
0 [label="age_group <= 0.833\ngini = 0.365\nsamples = 26558\nvalue = [20190, 6368]"] ;
1 [label="hosp_tf <= 0.5\ngini = 0.083\nsamples = 18411\nvalue = [17617, 794]"] ;
0 -> 1 [labeldistance=2.5, labelangle=45, headlabel="True"] ;
2 [label="age_group <= 0.5\ngini = 0.023\nsamples = 16372\nvalue = [16180, 192]"] ;
1 -> 2 ;
3 [label="state_fips_code <= 0.078\ngini = 0.006\nsamples = 12767\nvalue = [12730, 37]"] ;
2 -> 3 ;
4 [label="state_fips_code <= 0.058\ngini = 0.072\nsamples = 452\nvalue = [435, 17]"] ;
3 -> 4 ;
5 [label="ethnicity_Hispanic/Latino <= 0.5\ngini = 0.027\nsamples = 441\nvalue = [435, 6]"] ;
4 -> 5 ;
6 [label="gini = 0.006\nsamples = 334\nvalue = [333, 1]"] ;
5 -> 6 ;
7 [label="gini = 0.089\nsamples = 107\nvalue = [102, 5]"] ;
5 -> 7 ;
8 [label="gini = 0.0\nsamples = 11\nvalue = [0, 11]"] ;
4 -> 8 ;
9 [label="state_fips_code <= 0.818\ngini = 0.003\nsamples = 12315\nvalue = [12295, 20]"] ;
3 -> 9 ;
10 [label="case_month <= 0.044\ngini = 0.003\nsamples = 12312\nvalue = [12293, 19]"] ;
9 -> 10 ;
11 [label="gini = 0.059\nsamples = 66\nvalue = [64, 2]"] ;
10 -> 11 ;
12 [label="gini = 0.003\nsamples = 12246\nvalue = [12229, 17]"] ;
10 -> 12 ;
13 [label="race_Asian <= 0.5\ngini = 0.444\nsamples = 3\nvalue = [2, 1]"] ;
9 -> 13 ;
14 [label="gini = 0.0\nsamples = 2\nvalue = [2, 0]"] ;
13 -> 14 ;
15 [label="gini = 0.0\nsamples = 1\nvalue = [0, 1]"] ;
13 -> 15 ;
16 [label="state_fips_code <= 0.214\ngini = 0.082\nsamples = 3605\nvalue = [3450, 155]"] ;
2 -> 16 ;
17 [label="income <= 0.319\ngini = 0.251\nsamples = 468\nvalue = [399, 69]"] ;
16 -> 17 ;
18 [label="season_Summer <= 0.5\ngini = 0.158\nsamples = 358\nvalue = [327, 31]"] ;
17 -> 18 ;
19 [label="gini = 0.099\nsamples = 249\nvalue = [236, 13]"] ;
18 -> 19 ;
20 [label="gini = 0.276\nsamples = 109\nvalue = [91, 18]"] ;
18 -> 20 ;
21 [label="sex_Female <= 0.5\ngini = 0.452\nsamples = 110\nvalue = [72, 38]"] ;
17 -> 21 ;
22 [label="gini = 0.497\nsamples = 67\nvalue = [36, 31]"] ;
21 -> 22 ;
23 [label="gini = 0.273\nsamples = 43\nvalue = [36, 7]"] ;
21 -> 23 ;
24 [label="case_month <= 0.074\ngini = 0.053\nsamples = 3137\nvalue = [3051, 86]"] ;
16 -> 24 ;
25 [label="income <= 0.643\ngini = 0.259\nsamples = 85\nvalue = [72, 13]"] ;
24 -> 25 ;
26 [label="gini = 0.123\nsamples = 61\nvalue = [57, 4]"] ;
25 -> 26 ;
27 [label="gini = 0.469\nsamples = 24\nvalue = [15, 9]"] ;
25 -> 27 ;
28 [label="ethnicity_Hispanic/Latino <= 0.5\ngini = 0.047\nsamples = 3052\nvalue = [2979, 73]"] ;
24 -> 28 ;
29 [label="gini = 0.037\nsamples = 2877\nvalue = [2823, 54]"] ;
28 -> 29 ;
30 [label="gini = 0.194\nsamples = 175\nvalue = [156, 19]"] ;
28 -> 30 ;
31 [label="age_group <= 0.5\ngini = 0.416\nsamples = 2039\nvalue = [1437, 602]"] ;
1 -> 31 ;
32 [label="ethnicity_Hispanic/Latino <= 0.5\ngini = 0.157\nsamples = 1106\nvalue = [1011, 95]"] ;
31 -> 32 ;
33 [label="state_fips_code <= 0.214\ngini = 0.058\nsamples = 966\nvalue = [937, 29]"] ;
32 -> 33 ;
34 [label="state_fips_code <= 0.201\ngini = 0.324\nsamples = 59\nvalue = [47, 12]"] ;
33 -> 34 ;
35 [label="gini = 0.27\nsamples = 56\nvalue = [47, 9]"] ;
34 -> 35 ;
36 [label="gini = 0.0\nsamples = 3\nvalue = [0, 3]"] ;
34 -> 36 ;
37 [label="case_month <= 0.074\ngini = 0.037\nsamples = 907\nvalue = [890, 17]"] ;
33 -> 37 ;
38 [label="gini = 0.426\nsamples = 26\nvalue = [18, 8]"] ;
37 -> 38 ;
39 [label="gini = 0.02\nsamples = 881\nvalue = [872, 9]"] ;
37 -> 39 ;
40 [label="state_fips_code <= 0.078\ngini = 0.498\nsamples = 140\nvalue = [74, 66]"] ;
32 -> 40 ;
41 [label="race_White <= 0.5\ngini = 0.188\nsamples = 38\nvalue = [4, 34]"] ;
40 -> 41 ;
42 [label="gini = 0.0\nsamples = 2\nvalue = [2, 0]"] ;
41 -> 42 ;
43 [label="gini = 0.105\nsamples = 36\nvalue = [2, 34]"] ;
41 -> 43 ;
44 [label="case_month <= 0.074\ngini = 0.431\nsamples = 102\nvalue = [70, 32]"] ;
40 -> 44 ;
45 [label="gini = 0.26\nsamples = 13\nvalue = [2, 11]"] ;
44 -> 45 ;
46 [label="gini = 0.361\nsamples = 89\nvalue = [68, 21]"] ;
44 -> 46 ;
47 [label="state_fips_code <= 0.214\ngini = 0.496\nsamples = 933\nvalue = [426, 507]"] ;
31 -> 47 ;
48 [label="state_fips_code <= 0.078\ngini = 0.269\nsamples = 294\nvalue = [47, 247]"] ;
47 -> 48 ;
49 [label="state_fips_code <= 0.045\ngini = 0.138\nsamples = 174\nvalue = [13, 161]"] ;
48 -> 49 ;
50 [label="gini = 0.352\nsamples = 57\nvalue = [13, 44]"] ;
49 -> 50 ;
51 [label="gini = 0.0\nsamples = 117\nvalue = [0, 117]"] ;
49 -> 51 ;
52 [label="income <= 0.485\ngini = 0.406\nsamples = 120\nvalue = [34, 86]"] ;
48 -> 52 ;
53 [label="gini = 0.333\nsamples = 109\nvalue = [23, 86]"] ;
52 -> 53 ;
54 [label="gini = 0.0\nsamples = 11\nvalue = [11, 0]"] ;
52 -> 54 ;
55 [label="case_month <= 0.162\ngini = 0.483\nsamples = 639\nvalue = [379, 260]"] ;
47 -> 55 ;
56 [label="month_of_year <= 0.318\ngini = 0.311\nsamples = 156\nvalue = [30, 126]"] ;
55 -> 56 ;
57 [label="gini = 0.231\nsamples = 120\nvalue = [16, 104]"] ;
56 -> 57 ;
58 [label="gini = 0.475\nsamples = 36\nvalue = [14, 22]"] ;
56 -> 58 ;
59 [label="income <= 0.366\ngini = 0.401\nsamples = 483\nvalue = [349, 134]"] ;
55 -> 59 ;
60 [label="gini = 0.476\nsamples = 330\nvalue = [201, 129]"] ;
59 -> 60 ;
61 [label="gini = 0.063\nsamples = 153\nvalue = [148, 5]"] ;
59 -> 61 ;
62 [label="hosp_tf <= 0.5\ngini = 0.432\nsamples = 8147\nvalue = [2573, 5574]"] ;
0 -> 62 [labeldistance=2.5, labelangle=-45, headlabel="False"] ;
63 [label="case_month <= 0.368\ngini = 0.49\nsamples = 3241\nvalue = [1855, 1386]"] ;
62 -> 63 ;
64 [label="symptomatic_tf <= 0.5\ngini = 0.474\nsamples = 1535\nvalue = [594, 941]"] ;
63 -> 64 ;
65 [label="gini = 0.0\nsamples = 35\nvalue = [35, 0]"] ;
64 -> 65 ;
66 [label="season_Spring <= 0.5\ngini = 0.468\nsamples = 1500\nvalue = [559, 941]"] ;
64 -> 66 ;
67 [label="state_fips_code <= 0.214\ngini = 0.485\nsamples = 1253\nvalue = [518, 735]"] ;
66 -> 67 ;
68 [label="gini = 0.383\nsamples = 383\nvalue = [99, 284]"] ;
67 -> 68 ;
69 [label="gini = 0.499\nsamples = 870\nvalue = [419, 451]"] ;
67 -> 69 ;
70 [label="case_positive_specimen_interval <= 0.216\ngini = 0.277\nsamples = 247\nvalue = [41, 206]"] ;
66 -> 70 ;
71 [label="gini = 0.263\nsamples = 244\nvalue = [38, 206]"] ;
70 -> 71 ;
72 [label="gini = 0.0\nsamples = 3\nvalue = [3, 0]"] ;
70 -> 72 ;
73 [label="state_fips_code <= 0.214\ngini = 0.386\nsamples = 1706\nvalue = [1261, 445]"] ;
63 -> 73 ;
74 [label="season_Spring <= 0.5\ngini = 0.498\nsamples = 400\nvalue = [189, 211]"] ;
73 -> 74 ;
75 [label="state_fips_code <= 0.078\ngini = 0.487\nsamples = 346\nvalue = [145, 201]"] ;
74 -> 75 ;
76 [label="gini = 0.329\nsamples = 82\nvalue = [17, 65]"] ;
75 -> 76 ;
77 [label="gini = 0.5\nsamples = 264\nvalue = [128, 136]"] ;
75 -> 77 ;
78 [label="income <= 0.355\ngini = 0.302\nsamples = 54\nvalue = [44, 10]"] ;
74 -> 78 ;
79 [label="gini = 0.245\nsamples = 49\nvalue = [42, 7]"] ;
78 -> 79 ;
80 [label="gini = 0.48\nsamples = 5\nvalue = [2, 3]"] ;
78 -> 80 ;
81 [label="state_fips_code <= 0.481\ngini = 0.294\nsamples = 1306\nvalue = [1072, 234]"] ;
73 -> 81 ;
82 [label="people_vaccinated <= 0.953\ngini = 0.185\nsamples = 881\nvalue = [790, 91]"] ;
81 -> 82 ;
83 [label="gini = 0.25\nsamples = 559\nvalue = [477, 82]"] ;
82 -> 83 ;
84 [label="gini = 0.054\nsamples = 322\nvalue = [313, 9]"] ;
82 -> 84 ;
85 [label="people_vaccinated <= 0.953\ngini = 0.447\nsamples = 425\nvalue = [282, 143]"] ;
81 -> 85 ;
86 [label="gini = 0.49\nsamples = 320\nvalue = [183, 137]"] ;
85 -> 86 ;
87 [label="gini = 0.108\nsamples = 105\nvalue = [99, 6]"] ;
85 -> 87 ;
88 [label="people_vaccinated <= 0.953\ngini = 0.25\nsamples = 4906\nvalue = [718, 4188]"] ;
62 -> 88 ;
89 [label="state_fips_code <= 0.214\ngini = 0.207\nsamples = 4577\nvalue = [537, 4040]"] ;
88 -> 89 ;
90 [label="state_fips_code <= 0.078\ngini = 0.085\nsamples = 1594\nvalue = [71, 1523]"] ;
89 -> 90 ;
91 [label="income <= 0.133\ngini = 0.033\nsamples = 828\nvalue = [14, 814]"] ;
90 -> 91 ;
92 [label="gini = 0.444\nsamples = 3\nvalue = [2, 1]"] ;
91 -> 92 ;
93 [label="gini = 0.029\nsamples = 825\nvalue = [12, 813]"] ;
91 -> 93 ;
94 [label="state_fips_code <= 0.201\ngini = 0.138\nsamples = 766\nvalue = [57, 709]"] ;
90 -> 94 ;
95 [label="gini = 0.175\nsamples = 548\nvalue = [53, 495]"] ;
94 -> 95 ;
96 [label="gini = 0.036\nsamples = 218\nvalue = [4, 214]"] ;
94 -> 96 ;
97 [label="case_month <= 0.368\ngini = 0.264\nsamples = 2983\nvalue = [466, 2517]"] ;
89 -> 97 ;
98 [label="case_month <= 0.074\ngini = 0.194\nsamples = 1915\nvalue = [209, 1706]"] ;
97 -> 98 ;
99 [label="gini = 0.069\nsamples = 613\nvalue = [22, 591]"] ;
98 -> 99 ;
100 [label="gini = 0.246\nsamples = 1302\nvalue = [187, 1115]"] ;
98 -> 100 ;
101 [label="state_fips_code <= 0.513\ngini = 0.365\nsamples = 1068\nvalue = [257, 811]"] ;
97 -> 101 ;
102 [label="gini = 0.416\nsamples = 793\nvalue = [234, 559]"] ;
101 -> 102 ;
103 [label="gini = 0.153\nsamples = 275\nvalue = [23, 252]"] ;
101 -> 103 ;
104 [label="state_fips_code <= 0.331\ngini = 0.495\nsamples = 329\nvalue = [181, 148]"] ;
88 -> 104 ;
105 [label="income <= 0.173\ngini = 0.262\nsamples = 129\nvalue = [20, 109]"] ;
104 -> 105 ;
106 [label="gini = 0.0\nsamples = 2\nvalue = [2, 0]"] ;
105 -> 106 ;
107 [label="state_fips_code <= 0.214\ngini = 0.243\nsamples = 127\nvalue = [18, 109]"] ;
105 -> 107 ;
108 [label="gini = 0.129\nsamples = 72\nvalue = [5, 67]"] ;
107 -> 108 ;
109 [label="gini = 0.361\nsamples = 55\nvalue = [13, 42]"] ;
107 -> 109 ;
110 [label="state_fips_code <= 0.662\ngini = 0.314\nsamples = 200\nvalue = [161, 39]"] ;
104 -> 110 ;
111 [label="income <= 0.303\ngini = 0.174\nsamples = 177\nvalue = [160, 17]"] ;
110 -> 111 ;
112 [label="gini = 0.349\nsamples = 71\nvalue = [55, 16]"] ;
111 -> 112 ;
113 [label="gini = 0.019\nsamples = 106\nvalue = [105, 1]"] ;
111 -> 113 ;
114 [label="income <= 0.213\ngini = 0.083\nsamples = 23\nvalue = [1, 22]"] ;
110 -> 114 ;
115 [label="gini = 0.0\nsamples = 1\nvalue = [1, 0]"] ;
114 -> 115 ;
116 [label="gini = 0.0\nsamples = 22\nvalue = [0, 22]"] ;
114 -> 116 ;
}